tree
version=v3
num_class=1
num_tree_per_iteration=1
label_index=0
max_feature_idx=8
objective=gamma
feature_names=VehBrand VehPower VehGas Region Area VehAge DrivAge BonusMalus Density
feature_infos=-1:0:6:3:7:9:10:8:1:2:4 -1:2:3:1:0:4:5:6:7:8:9:10 -1:0:1 -1:4:17:20:0:12:11:14:19:7:13:8:5:15:6:2:3:16:18:21:9:1 -1:2:3:4:0:1:5 [0:99] [18:99] [50:228] [2:27000]
tree_sizes=3243 3405 3414 3419 3439 3414 3421 3413 3423 3434 3434 3413 3411 3419 3458 3436 3439 3439 3424 3445 3399 3469 3408 3460 3416 3399 3439 3444 3463 3447 3452 3442 3459 3451 3437 3434 3392 3464 3455 3456 3457 3434 3399 3428 3482 3446 3460 3436 3448 3441 3420 3426 3440 3461 3439 3450 3429 3403 3476 3460 3435 3457 3420 3449 3465 3427 3418 3406 3475 3448 3434 3449 3428 3430 3412 3430 3419 3440 3399 3419 3471 3461 3452 3470 3426 3464 3438 3425 3408 3452 3409 3478 3413 3417 3447 3414 3448 3451 3441 3425

Tree=0
num_leaves=32
num_cat=14
split_feature=6 3 6 1 0 3 3 3 5 6 6 8 6 4 6 0 1 6 5 7 3 5 0 1 6 5 5 1 6 6 0
split_gain=331.559 227.667 185.991 233.095 123.643 186.837 121.061 116.194 86.9781 115.761 117.277 95.2057 71.5727 111.574 90.9782 71.2372 67.151 66.0107 65.5024 65.9802 64.2127 64.7211 85.3469 66.3114 62.6774 61.9467 93.3733 50.7462 48.9857 97.067 52.9029
threshold=21.500000000000004 0 71.500000000000014 1 2 3 4 5 7.5000000000000009 23.500000000000004 69.500000000000014 2420.5000000000005 36.500000000000007 6 25.500000000000004 7 8 47.500000000000007 8.5000000000000018 50.500000000000007 9 11.500000000000002 10 11 32.500000000000007 12.500000000000002 6.5000000000000009 12 61.500000000000007 60.500000000000007 13
decision_type=2 9 2 9 9 9 9 9 2 2 2 2 2 1 2 9 9 2 2 2 9 2 9 9 2 2 2 9 2 2 9
left_child=7 2 3 6 5 16 -2 25 9 11 -11 -6 14 28 -5 17 -3 -15 -4 -20 -16 22 24 -23 -22 26 -1 -12 29 30 -14
right_child=1 4 18 12 8 -7 -8 -9 -10 10 27 -13 13 15 20 -17 -18 -19 19 -21 21 23 -24 -25 -26 -27 -28 -29 -30 -31 -32
leaf_value=7.621874320525615 7.5887695285520724 7.579070291945234 7.5982003472628792 7.5783488024249772 7.5688558650124715 7.5632435459378264 7.5680698436794405 7.5871823130142939 7.5758309043672583 7.5811676376926629 7.6106126590076144 7.6305528413517543 7.5872914963207831 7.5600161208239323 7.6306476785160751 7.5756552202265883 7.6120711113986799 7.6085118154881517 7.6248946253218053 7.5686459550212843 7.6111222871415629 7.6260126184576329 7.5768569101486838 7.5953126450541042 7.5819742681319386 7.6276320970411646 7.5768720363435307 7.5794160030371582 7.5795680864300925 7.6286301020214493 7.6011707260138923
leaf_weight=304.65754521545023 1409.111824193038 182.16519508464262 595.37271715980023 365.87630329886451 85.01093386951834 309.58955795876682 1419.2684869407676 393.80681693553925 4257.5860146232881 5766.5194117209176 515.63352910336107 236.42845505848527 1074.5066564689623 87.510654775425792 217.60009561479092 1333.6855911756284 931.02049705351237 354.10300074890256 673.98440145514905 56.505900764837861 750.54567285254598 451.91432193806395 407.07874269597232 308.43253070721403 244.51471972372383 762.52290853578597 185.41314783960115 169.94296293752268 373.32794661191292 249.88618453964591 1896.4770309529267
leaf_count=98 1317 215 458 408 104 450 1975 382 5135 6315 269 38 1081 120 26 1645 482 198 190 79 404 108 477 260 274 165 221 195 425 54 1342
internal_value=7.58944 7.58799 7.59282 7.59068 7.58323 7.59707 7.57834 7.61116 7.58144 7.58495 7.58349 7.61424 7.59499 7.59164 7.60156 7.58141 7.60663 7.59869 7.61051 7.62054 7.60513 7.60231 7.596 7.61412 7.60382 7.61849 7.60485 7.60304 7.59669 7.5987 7.59618
internal_weight=0 24723.6 12269.7 10943.8 12453.9 1422.78 2828.38 1646.4 11031.1 6773.54 6452.1 321.439 8115.46 5369.5 2745.96 1775.3 1113.19 441.614 1325.86 730.49 2380.09 2162.49 1402.14 760.347 995.06 1252.59 490.071 685.576 3594.2 3220.87 2970.98
internal_count=24910 24044 10841 10114 13203 1147 3292 866 12056 6921 6779 142 6822 4865 1957 1963 697 318 727 269 1549 1523 1155 368 678 484 319 464 2902 2477 2423
cat_boundaries=0 1 2 3 4 5 6 7 8 9 10 11 12 13 14
cat_threshold=3670326 178 276 151680 3670272 135184 25 12 82 2097154 579 1025 86 1728
is_linear=0
shrinkage=1


Tree=1
num_leaves=32
num_cat=15
split_feature=6 3 6 1 3 3 0 3 1 7 6 6 6 6 6 4 3 5 6 0 1 5 5 5 7 5 1 4 1 0 6
split_gain=305.692 205.537 173.396 207.128 111.229 110.266 95.9578 107.382 114.58 86.4456 129.288 70.906 88.6793 66.3399 75.0487 70.8927 65.3862 82.1693 63.5326 64.0684 62.4161 62.1973 60.8311 88.3591 59.9999 58.4471 55.7813 54.7266 95.9682 52.7286 52.061
threshold=21.500000000000004 0 71.500000000000014 1 2 3 4 5 6 75.500000000000014 51.500000000000007 61.500000000000007 60.500000000000007 36.500000000000007 25.500000000000004 7 8 11.500000000000002 32.500000000000007 9 10 8.5000000000000018 12.500000000000002 2.5000000000000004 50.500000000000007 1.5000000000000002 11 12 13 14 23.500000000000004
decision_type=2 9 2 9 9 9 9 9 9 2 2 2 2 2 2 1 9 2 2 9 9 2 2 2 2 2 9 1 9 9 2
left_child=5 2 3 4 -2 22 7 8 29 10 -8 12 13 14 -5 -15 17 18 19 -16 -19 -4 23 -1 -23 30 -9 28 -12 -3 -11
right_child=1 6 21 11 -6 -7 9 26 -10 25 27 -13 -14 15 16 -17 -18 20 -20 -21 -22 24 -24 -25 -26 -27 -28 -29 -30 -31 -32
leaf_value=0.040444384080423938 0.00097627677586051883 0.021438047165749759 0.0085705943095958203 -0.0092093791578636598 -0.019866953486624515 -0.0021380358851308167 -0.018136000130304725 -6.1709926180478179e-05 -0.01050990344324354 0.041826111603574967 0.016278700630435006 -0.011479127755644331 0.035655383384518118 0.0066355052568369769 0.019117687638502353 -0.0073726639658728685 0.035473642110751144 0.0369878449239507 -0.015794834187509568 -0.012194734451873822 0.0059149214133019058 0.035366452265896055 0.037737517595024146 -0.0030201248734923417 -0.0179952978042732 -0.0037454336581896177 -0.017128449485690391 -0.0095575445177576157 -0.01432463133403282 0.0052204196171455027 -6.9432125339828911e-05
leaf_weight=198.83595126867294 1146.5829065069556 919.55829421285307 550.33374602068216 348.7623143568635 1449.9176586018875 394.6949523659423 3520.165554601117 938.82895744778216 722.11156486673281 140.69190206378698 691.33715052879415 555.47307179914787 261.4221126139164 2715.7322018323466 593.90555760264397 1341.6890176927554 347.9699791111052 424.20940048573539 310.81467413157225 218.31514786090702 281.48184499423951 645.77642113342881 733.94601106923074 283.85447864932939 57.356907024979591 2410.4373447513208 978.40358443604782 1504.5016647711745 394.97706015780568 1135.6114496740047 156.78228503838181
leaf_count=35 1037 498 426 376 1975 382 4590 866 829 20 409 648 75 2248 347 1470 89 97 393 254 237 183 165 284 77 2394 1221 1723 490 923 149
internal_value=0 -0.00136463 0.00362683 0.00143191 -0.0106944 0.0211108 -0.00551855 0.000260535 0.00653471 -0.00859172 -0.0118968 0.00569366 0.0070957 0.00596153 0.0123237 0.00200153 0.0157738 0.011767 0.00342978 0.0107865 0.0252016 0.02116 0.028437 0.0148843 0.0310136 -0.00116489 -0.00881491 -0.00341947 0.00512235 0.0125455 0.0197453
internal_weight=0 24763.1 11249.7 9996.28 2596.5 1611.33 13513.4 4694.51 2777.28 8818.89 6110.98 7399.78 6844.3 6582.88 2525.46 4057.42 2176.7 1828.73 1123.04 812.221 705.691 1253.47 1216.64 482.69 703.133 2707.91 1917.23 2590.82 1086.31 2055.17 297.474
internal_count=24910 24044 9932 9246 3012 866 14112 4337 2250 9775 7212 6234 5586 5511 1793 3718 1417 1328 994 601 334 686 484 319 260 2563 2087 2622 899 1421 169
cat_boundaries=0 1 2 3 4 5 6 7 8 9 10 11 12 13 14 15
cat_threshold=3146038 178 3145984 135184 286 675968 1197 25 1048880 577 1025 337 9 195 276
is_linear=0
shrinkage=0.05


Tree=2
num_leaves=32
num_cat=14
split_feature=6 3 6 1 3 0 3 3 5 6 6 7 4 6 6 0 0 1 8 5 5 8 0 8 6 6 1 8 7 4 3
split_gain=281.694 185.489 155.558 191.217 104.521 103.466 154.671 89.222 76.8926 105.571 122.966 69.9745 76.4309 61.891 62.4345 71.0395 61.0881 61.0593 60.3109 59.6396 84.2807 56.4651 54.3981 64.5938 80.6846 54.9499 51.0785 77.0662 63.1833 51.9689 46.2011
threshold=21.500000000000004 0 71.500000000000014 1 2 3 4 5 6.5000000000000009 24.500000000000004 69.500000000000014 67.500000000000014 6 25.500000000000004 39.500000000000007 7 8 9 2420.5000000000005 12.500000000000002 3.5000000000000004 37.500000000000007 10 21.500000000000004 43.500000000000007 61.500000000000007 11 657.50000000000011 93.500000000000014 12 13
decision_type=2 9 2 9 9 9 9 9 2 2 2 2 1 2 2 9 9 9 2 2 2 2 9 2 2 2 9 2 2 1 9
left_child=4 2 3 7 19 6 17 -2 9 18 -11 12 -5 -13 26 -16 21 -3 -7 20 -1 -4 -14 24 -24 -26 27 28 -15 -28 -25
right_child=1 5 16 11 -6 8 -8 -9 -10 10 -12 13 22 14 15 -17 -18 -19 -20 -21 -22 -23 23 30 25 -27 29 -29 -30 -31 -32
leaf_value=0.038074734093918081 -0.00060630174101954928 0.023292646408425727 -0.010670540636878924 -0.0087203413129937832 -0.0020294276453115493 -0.0029604341399242246 -0.023619639726214354 -0.017982474455689467 -0.01196395162178032 -0.0079161071521977443 0.015333277821617912 -0.0073966371537340092 0.013859297673400781 0.040792858977514057 0.023271890852799352 -0.0087524519086950806 -0.0064751260221715783 -0.0036684499089342315 0.037118411315949423 0.037265919663921877 -0.0043174432542653195 0.027965330259132365 -0.04076111641013392 -0.0095559756584688311 0.030313114835963169 -0.04183946692816979 0.023843091255280224 -0.0025030455038006836 -0.021868350837422862 0.00099424792339042009 0.0045740186473177628
leaf_weight=209.63893320783973 1410.7716740178876 789.40529844997218 104.66364686004817 1333.6570405263919 395.53973025176674 153.8884667493403 307.17079924978316 1556.5802223419305 4871.3807186368504 4993.4295302728424 641.82589652598836 388.52450480964035 1212.9978183549829 597.36241357121617 250.02587578073144 509.12727243523113 194.51481711119413 288.12673878367059 240.65354836732149 706.76481997128576 266.02872140461113 980.27336773276329 51.784290311858058 1109.115239248029 388.58356490917504 28.310268891975284 444.94672507699579 157.13374189590104 43.134425330907106 563.40207636030391 1189.7539407263976
leaf_count=44 1317 404 122 1497 382 148 431 2062 5715 5431 412 406 807 104 113 562 206 293 57 165 275 412 94 1298 151 49 210 154 56 522 1011
internal_value=0 -0.00128718 0.00299674 0.00111796 0.0205001 -0.00564872 0.00719518 -0.00975108 -0.00728529 -0.00351755 -0.00526812 0.0050246 0.00160139 0.0112006 0.0140175 0.00198597 0.0195182 0.0161159 0.0214859 0.0278185 0.0143659 0.0240168 0.0050688 0.00117995 0.0181018 0.0254134 0.019075 0.0285174 0.0365729 0.0112117 -0.00226483
internal_weight=0 24800.5 12514.7 11235.2 1577.97 12285.9 1384.7 2967.35 10901.2 6029.8 5635.26 8267.86 5314.2 2953.66 2565.13 759.153 1279.45 1077.53 394.542 1182.43 475.668 1084.94 3980.55 2767.55 468.678 416.894 1805.98 797.631 640.497 1008.35 2298.87
internal_count=24910 24044 11153 10413 866 12891 1128 3379 11763 6048 5843 7034 4907 2127 1721 675 740 697 205 484 319 534 3410 2603 294 200 1046 314 160 732 2309
cat_boundaries=0 1 2 3 4 5 6 7 8 9 10 11 12 13 14
cat_threshold=3670390 178 135184 276 151680 3670272 4 28 579 141 140 321 8 20
is_linear=0
shrinkage=0.05


Tree=3
num_leaves=32
num_cat=15
split_feature=6 3 6 1 3 0 3 1 3 6 6 7 6 6 3 5 5 1 7 5 5 5 7 0 1 5 0 6 4 1 3
split_gain=259.463 168.63 144.915 169.511 98.9635 85.4715 85.1652 102.202 84.9719 64.8468 80.5389 64.0771 111.885 62.7646 63.7062 69.6363 65.159 77.4881 62.7471 59.47 58.3766 80.5276 57.8346 57.149 57.0694 55.929 55.4802 51.3778 50.7777 81.6731 48.4968
threshold=21.500000000000004 0 71.500000000000014 1 2 3 4 5 6 61.500000000000007 60.500000000000007 75.500000000000014 51.500000000000007 36.500000000000007 7 7.5000000000000009 11.500000000000002 8 105.50000000000001 8.5000000000000018 12.500000000000002 2.5000000000000004 50.500000000000007 9 10 1.5000000000000002 11 37.500000000000007 12 13 14
decision_type=2 9 2 9 9 9 9 9 9 2 2 2 2 2 9 2 2 9 2 2 2 2 2 9 9 2 9 2 1 9 9
left_child=4 2 3 8 20 6 24 -8 -2 10 13 12 -7 14 15 -5 26 -18 23 -4 21 -1 -21 -15 -3 -13 -16 -25 29 -14 -30
right_child=1 5 19 9 -6 11 7 -9 -10 -11 -12 25 28 18 16 -17 17 -19 -20 22 -22 -23 -24 27 -26 -27 -28 -29 30 -31 -32
leaf_value=0.039663842523691151 0.00045077393434614246 0.00095961661667445851 0.007282278496498866 0.03813684193659183 -0.0019265406598817092 -0.016533431636132207 0.012608576290565799 -0.0074862996901610915 -0.017289067731200543 -0.010924709704167132 0.034189309619814937 0.019375560807338252 0.016059779586838057 -0.033144491751218939 0.0055928507693281532 -0.039029389958422957 0.033792674954394052 0.0019739826976001426 0.032739902164404498 0.03410510969090582 0.036782419411584555 -0.0027762645665609063 -0.018163340756540514 -0.034673727478902551 -0.016828222548591096 -0.0039964024805416651 -0.023931352928273995 0.0024266869485707028 0.0039548088101162169 -0.012380695817949008 -0.01516106128266247
leaf_weight=183.82072846591473 1225.135335785104 896.39585000649095 541.92965328413993 337.1783433072269 396.34325954597443 3538.0709110271418 1876.7962956227711 945.87992448778823 1505.848021624377 578.58297620643862 252.9933800958097 287.35219996795058 670.60842495993711 112.67799982288852 1231.9171393625438 32.01190072670579 428.0735234732274 354.38582441071048 156.43015637621284 610.25901219062507 680.91130925435573 285.16606920293998 57.949037961661816 95.661313435062766 903.53619758435525 2343.6746681248769 172.60182543564588 3806.7560996749671 498.19639381900197 393.16959875239991 981.38962495035958
leaf_count=35 1124 809 433 74 382 4503 1298 1022 1975 670 80 166 399 187 1029 51 125 325 45 188 165 284 78 154 1124 2337 246 3460 443 472 1227
internal_value=0 -0.00121507 0.00322053 0.00129858 0.0198947 -0.00503905 0.000459873 0.00587212 -0.00935826 0.0051542 0.00649426 -0.00795382 -0.0107834 0.00545279 0.0116222 0.0306166 0.00823809 0.0198387 0.00167236 0.0195902 0.0271963 0.0138583 0.0295722 0.000461949 -0.00801323 -0.00144379 0.00183404 0.00151335 -0.00278442 0.00553085 -0.00874115
internal_weight=0 24835.5 11500.4 10290.3 1546.24 13335.1 4622.61 2822.68 2730.98 7559.27 6980.69 8712.46 6081.43 6727.69 2556.17 369.19 2186.98 782.459 4171.53 1210.14 1149.9 468.987 668.208 4015.1 1799.93 2631.03 1404.52 3902.42 2543.36 1063.78 1479.59
internal_count=24910 24044 10244 9545 866 13800 4253 2320 3099 6446 5776 9547 7044 5696 1850 125 1725 450 3846 699 484 319 266 3801 1933 2503 1275 3614 2541 871 1670
cat_boundaries=0 1 2 3 4 5 6 7 8 9 10 11 12 13 14 15
cat_threshold=3146102 178 135184 286 305673 141 3146048 2097158 1025 1024 337 713 9 195 567432
is_linear=0
shrinkage=0.05


Tree=4
num_leaves=32
num_cat=13
split_feature=6 3 6 1 3 3 0 3 1 7 6 5 5 5 6 6 8 0 7 3 8 6 1 3 1 2 8 7 6 6 6
split_gain=238.892 151.891 138.056 151.005 93.5944 76.4534 68.841 80.7518 92.8513 66.5891 94.3057 57.0473 77.3191 56.9461 55.3105 78.5826 54.5574 54.5108 74.5101 71.7174 60.9737 59.8655 58.7082 52.9345 57.7087 59.1525 50.4637 49.4337 48.882 62.1969 48.0155
threshold=21.500000000000004 0 71.500000000000014 1 2 3 4 5 6 75.500000000000014 51.500000000000007 12.500000000000002 6.5000000000000009 8.5000000000000018 61.500000000000007 60.500000000000007 37.500000000000007 7 67.500000000000014 8 10.500000000000002 48.500000000000007 9 10 11 12 1054.5000000000002 99.500000000000014 39.500000000000007 25.500000000000004 26.500000000000004
decision_type=2 9 2 9 9 9 9 9 9 2 2 2 2 2 2 2 2 9 2 9 2 2 9 9 9 1 2 2 2 2 2
left_child=4 2 3 5 11 -2 7 8 26 10 -8 12 -1 -4 15 17 -15 19 20 21 -19 22 -5 24 25 -11 -3 -13 29 -20 -9
right_child=1 6 13 14 -6 -7 9 30 -10 23 -12 27 -14 16 -16 -17 -18 18 28 -21 -22 -23 -24 -25 -26 -27 -28 -29 -30 -31 -32
leaf_value=0.030400453528356332 0.00093637245137476773 0.0031923489647273048 0.0072736934295042979 0.014267772373120845 -0.0018290537457315303 -0.016143180612585628 -0.015220878292513382 0.016588675543288689 -0.0092859864470932248 0.00034322083592080218 -0.0028084268102659066 -0.01417675350025701 -0.011160220596913536 -0.025487999582490359 -0.0099470117510277595 0.034374936643129357 0.03319232577443116 0.029300434875645237 -0.0059131829903557856 0.034519588310569574 -0.0033897406410020453 0.020091665697257833 -0.022946271079193409 -0.0158523830829627 -0.0036597013117845843 0.026908593214576067 0.019113388604169373 0.040018540413385269 -0.0046798721545851431 0.018573837968942811 -0.010044359901019539
leaf_weight=272.96550209634006 1145.6422223914415 959.24488813290372 533.62908821366727 183.10299130901694 397.10756594128907 1532.1090829488821 3677.5033605461358 187.06232428923249 737.22548349713907 442.03431005170569 2620.7938404985471 45.187701998278499 189.66576288815122 42.390843410044909 569.66976447124034 239.99902624636889 603.89080872200429 149.76160130649805 318.3506830567494 329.13826913759112 3000.5764785903739 431.31789952749386 227.84629083238542 466.82405180321075 1424.9688578932546 398.41661218111403 1034.4287873122958 611.13306656479836 438.00394957524259 1398.5163089181297 1775.3540818986949
leaf_count=98 1037 830 426 113 382 1975 4590 112 829 412 2622 54 221 62 648 75 198 62 323 82 3110 235 309 563 1414 174 591 111 450 827 1975
internal_value=0 -0.00114847 0.00318697 0.00127476 0.0192954 -0.00885961 -0.00466782 0.000247863 0.00579918 -0.00722003 -0.0100559 0.0265712 0.0133618 0.0193621 0.00500449 0.00628005 0.0293434 0.00523896 0.00305923 0.014957 -0.00183571 0.00699705 -0.00657632 -0.000709237 0.00247031 0.0127844 0.0113959 0.0362872 0.0102296 0.0140333 -0.00746758
internal_weight=0 24867.8 11143.9 9964.03 1516.06 2677.75 13723.9 4693.32 2730.9 9030.54 6298.3 1118.95 462.631 1179.91 7286.28 6716.61 646.282 6476.61 5305.21 1171.41 3150.34 842.267 410.949 2732.24 2265.42 840.451 1993.67 656.321 2154.87 1716.87 1962.42
internal_count=24910 24044 9932 9246 866 3012 14112 4337 2250 9775 7212 484 319 686 6234 5586 260 5511 4772 739 3172 657 422 2563 2000 586 1421 165 1600 1150 2087
cat_boundaries=0 1 2 3 4 5 6 7 8 9 10 11 12 13
cat_threshold=3146038 178 135184 3145984 286 675968 1197 12 1048852 1281 154177 260 1
is_linear=0
shrinkage=0.05


Tree=5
num_leaves=32
num_cat=15
split_feature=6 6 1 3 3 4 7 3 0 3 1 5 4 8 5 3 0 8 6 5 5 8 5 3 0 7 6 7 6 1 3
split_gain=219.863 139.617 128.253 130.946 107.979 92.6647 92.0962 88.4254 87.3453 82.1361 76.0441 88.2849 79.4277 79.1389 74.5959 65.8525 65.7832 59.3518 56.2224 55.6658 74.5288 52.5545 53.2938 50.1821 49.1142 47.5608 45.0728 61.5292 44.0229 43.6837 45.7835
threshold=21.500000000000004 69.500000000000014 0 1 2 3 71.500000000000014 4 5 6 7 16.500000000000004 8 1530.5000000000002 7.5000000000000009 9 10 1561.0000000000002 37.500000000000007 12.500000000000002 1.5000000000000002 251.50000000000003 2.5000000000000004 11 12 99.500000000000014 32.500000000000007 54.500000000000007 36.500000000000007 13 14
decision_type=2 2 9 9 9 1 2 9 9 9 9 2 1 2 2 9 9 2 2 2 2 2 2 9 9 2 2 2 2 9 9
left_child=7 2 4 5 -2 8 15 19 -4 14 13 12 -12 -3 28 24 18 -13 -5 20 -1 -8 -23 -14 -7 -21 27 -26 -10 -11 -31
right_child=1 10 3 16 -6 6 21 -9 9 29 11 17 23 -15 -16 -17 -18 -19 -20 25 -22 22 -24 -25 26 -27 -28 -29 -30 30 -32
leaf_value=0.040993595371493968 0.00061795593156748093 0.029116632832215519 0.019521275639272292 0.039667106106329168 -0.013304068571297185 -0.034455178352669244 -0.0043522922483661937 -0.0017366645108295748 0.041812536387912852 -0.0036310300535331522 0.0091339148245784593 -0.031362326402825054 0.0045029753926852135 -0.022959955965159571 -0.034401200711927135 -0.019202818968864888 -0.0099766322618130773 0.044328183657469086 -0.023463277181850165 -0.013273353352169623 -0.0016368568004028262 -0.020121133748637908 0.020085696071566864 -0.027747281916319505 0.035708060266694132 0.0396109966365365 -0.0043333426548640306 -0.018303856060607953 -0.00068034222775982111 0.011298341432643898 0.0013460277349268605
leaf_weight=155.44493458233774 2144.6293181119254 691.93822603486478 957.88828054443002 125.81180143356323 3988.1632463169517 108.40600177878514 589.67154220258817 397.83456428861246 293.13107203319669 2166.911385142128 786.50399356288835 30.11221644282341 191.11205251305364 81.551584366708994 46.207873385865241 979.12155516742496 3406.3305290964199 185.12588082253933 49.004075786098838 45.832879332825541 301.14148801111151 93.409784816205502 700.3338615661487 323.77372674643993 167.9268207307905 587.15930366236717 1555.2144571412355 76.862425119616091 76.952913768589497 1774.1612591125304 3308.3313210156048
leaf_count=26 1999 276 551 24 4791 181 591 382 43 2187 596 47 162 107 70 1281 3891 21 70 54 293 120 394 489 46 111 1623 102 69 1326 2987
internal_value=0 -0.00108523 -0.00227687 2.32837e-05 -0.00844247 0.00237332 -0.00364468 0.0187041 0.00535458 0.00356121 0.0106789 0.00404905 -0.000830275 0.0233245 0.0248998 -0.00873529 -0.00842146 0.0337389 0.0207817 0.0259453 0.0128767 0.00695435 0.0153541 -0.0159191 -0.00324723 0.0357818 -0.00118774 0.0187486 0.0329768 0.00230325 0.00483548
internal_weight=0 24898.6 22608.5 16475.7 6132.79 12894.5 4270.95 1487.41 8623.58 7665.7 2290.12 1516.63 1301.39 773.49 416.292 2887.53 3581.15 215.238 174.816 1089.58 456.586 1383.42 793.744 514.886 1908.41 632.992 1800 244.789 370.084 7249.4 5082.49
internal_count=24910 24044 22346 15556 6790 11571 4338 866 7233 6682 1698 1315 1247 383 182 3233 3985 68 94 484 319 1105 514 651 1952 165 1771 148 112 6500 4313
cat_boundaries=0 1 2 3 4 5 6 7 8 9 10 11 12 13 14 15
cat_threshold=50 3801335 3174720 25 135184 260 2097158 66 19 3145968 16 1615872 1042 1160 80
is_linear=0
shrinkage=0.05


Tree=6
num_leaves=32
num_cat=13
split_feature=6 6 1 3 3 4 3 7 1 5 0 3 5 0 8 3 8 5 5 8 6 7 5 6 4 3 7 6 0 8 7
split_gain=202.256 127.093 114.558 118.216 95.5726 88.3375 83.4469 81.7257 79.0917 94.801 73.8577 76.2065 69.0302 65.0972 56.9631 55.8828 54.7929 54.2291 71.0043 50.0719 49.4325 61.1385 49.1258 48.4295 47.2412 46.4031 45.7576 42.8732 42.4891 41.2592 41.2485
threshold=21.500000000000004 69.500000000000014 0 1 2 3 4 71.500000000000014 5 16.500000000000004 6 7 7.5000000000000009 8 3223.5000000000005 9 1561.0000000000002 12.500000000000002 1.5000000000000002 164.50000000000003 32.500000000000007 55.500000000000007 2.5000000000000004 37.500000000000007 10 11 99.500000000000014 36.500000000000007 12 36.500000000000007 62.500000000000007
decision_type=2 2 9 9 9 1 9 2 9 2 9 9 2 9 2 9 2 2 2 2 2 2 2 2 1 9 2 2 9 2 2
left_child=6 2 4 13 -2 10 17 15 14 24 30 12 27 23 29 20 -11 18 -1 -9 21 -7 -21 -4 -10 -26 -19 -12 -22 -3 -5
right_child=1 8 3 5 -6 7 -8 19 9 16 11 -13 -14 -15 -16 -17 -18 26 -20 22 28 -23 -24 -25 25 -27 -28 -29 -30 -31 -32
leaf_value=0.040616718482156589 0.00093768650699030181 -0.019632701435881229 0.039248992456508688 0.0073641737842275708 -0.012299575252320631 0.036566929967490364 -0.0016490906236638113 -0.0094789058806411253 0.0057835693884246845 -0.028622983303623912 0.041462939636109579 0.0022691500927440678 -0.031547072741435526 -0.0099888787516502296 -0.022248846484929436 -0.016716628422709445 0.044599979031458736 -0.012439052735134182 -0.0015524038415168577 -0.01703442385270627 8.0184285677033966e-05 -0.019256038781940141 0.01622436533050256 -0.02025098796719162 0.0058037389966347913 -0.025782788969587207 0.039191218360535525 -0.00064587428866377458 -0.017163228410027893 0.02842717562287125 0.028221568834224248
leaf_weight=149.20153319090605 2034.3389821837191 47.391526348888874 120.91889901272953 450.32550591090694 4150.5420142690418 156.33060711994767 398.52607062458992 365.67585957888514 675.26562437275425 29.889479026198387 281.12721503153443 7405.5394448874285 47.825137904379517 3172.2565038281027 67.129099577665329 1178.6092248190544 175.9252422451973 46.445291755720973 301.63481850118842 126.80052249273285 1046.6946049511898 71.473911529406905 892.65531974425539 47.686162309721112 181.19264445593581 315.27174520399421 564.35593464318663 77.005285300314426 534.94104739418253 774.12209697812796 500.49518312886357
leaf_count=26 1879 62 24 361 4911 40 382 399 553 45 43 6645 70 3626 87 1489 19 54 293 155 998 96 566 66 149 464 111 69 698 319 211
internal_value=0 -0.00102612 -0.00215513 2.53556e-05 -0.00795107 0.00216233 0.01812 -0.00363684 0.0102637 0.00265018 0.00505749 0.00344242 0.0242762 -0.00835813 0.0217908 -0.0082989 0.0339662 0.0253181 0.0124032 0.00639404 -0.00270852 0.0190524 0.0120876 0.0211654 -0.00282787 -0.0143678 0.0352653 0.0324087 -0.00585989 0.0256547 0.0181522
internal_weight=0 24927.4 22661.2 16476.4 6184.88 13135.5 1460.16 4373.18 2266.19 1377.54 8762.32 7811.5 405.958 3340.86 888.643 2988.05 205.815 1061.64 450.836 1385.13 1809.44 227.805 1019.46 168.605 1171.73 496.464 610.801 358.133 1581.64 821.514 950.821
internal_count=24910 24044 22346 15556 6790 11840 866 4441 1698 1230 7399 6827 182 3716 468 3321 64 484 319 1120 1832 136 721 90 1166 613 165 112 1696 381 572
cat_boundaries=0 1 2 3 4 5 6 7 8 9 10 11 12 13
cat_threshold=50 391688 3174464 25 135184 82 260 2097158 16 3145840 19 1615872 653
is_linear=0
shrinkage=0.05


Tree=7
num_leaves=32
num_cat=15
split_feature=6 6 1 3 4 0 3 3 3 7 1 6 1 5 3 5 5 8 8 0 8 5 3 5 3 8 8 1 6 0 5
split_gain=185.967 115.673 102.379 106.406 101.773 90.165 84.7425 78.6594 76.57 74.0829 69.1366 81.1522 70.0741 63.9586 59.4214 52.7435 67.6896 50.4592 48.4635 61.1563 50.8282 48.1115 69.7823 57.8505 46.3256 47.3127 53.9114 55.5278 59.3173 50.7247 56.5096
threshold=21.500000000000004 69.500000000000014 0 1 2 3 4 5 6 71.500000000000014 7 78.500000000000014 8 7.5000000000000009 9 12.500000000000002 2.5000000000000004 251.50000000000003 269.50000000000006 10 314.00000000000006 16.500000000000004 11 11.500000000000002 12 2622.0000000000005 2254.5000000000005 13 37.500000000000007 14 12.500000000000002
decision_type=2 2 9 9 1 9 9 9 9 2 9 2 9 2 9 2 2 2 2 9 2 2 9 2 9 2 2 9 2 9 2
left_child=7 2 6 -4 5 14 -2 15 13 -6 -3 12 21 -7 -5 16 -1 -11 -19 20 -20 22 23 -12 -10 26 27 28 -26 -29 -31
right_child=1 10 3 4 9 8 -8 -9 24 17 11 -13 -14 -15 -16 -17 -18 18 19 -21 -22 -23 -24 -25 25 -27 -28 29 -30 30 -32
leaf_value=0.038069159170802017 0.00057476046741444017 0.037721882079439439 -0.009889239396030489 0.024431463445028227 -0.0081211229138425031 0.032200899862041575 -0.011707728732427411 -0.0015660663348144876 -0.003635306120062378 -0.0048627412109376322 0.024447392050421849 -0.014143916965841073 -0.01313442204298703 -0.028977819142477931 -0.00010572564221482064 0.034737810663557543 -0.0026011952736799417 0.038181949868109209 -0.035969926739300037 -0.017062179553642275 0.022075728078881432 0.040371974708255667 -0.003538647818111472 -0.034687357158041901 -0.0052730139582206209 -0.0030207756357812144 0.030286862758801186 -0.013113952930556722 0.017275508421473226 -0.0028241292846180096 0.022187779052276577
leaf_weight=159.2511442117393 2142.7462709298707 193.61426938325167 2314.2906627334305 866.0767257452826 3473.7800944239134 345.52308309823275 4091.5931853619986 399.18382008280605 2651.4931504882406 679.87853268487379 774.87198202963918 370.26114234700799 238.67575442953967 48.747864038217813 353.23194137308747 589.69259219290689 286.11517122655641 160.77102155983448 41.293509721755981 177.13975734310225 435.10534519189969 176.56787943094969 445.74553952855058 43.690110482275486 374.50463791564107 1452.2609127833275 246.02882585208863 539.79918767802883 1318.5842716204934 653.11062218388543 345.17200230201706
leaf_count=35 1999 37 2632 417 3851 109 4791 382 2646 693 375 451 280 69 339 165 284 38 65 221 231 34 449 72 398 1427 88 661 829 655 187
internal_value=0 -0.000970648 -0.00204056 2.66643e-05 0.00165285 0.00476685 -0.00749207 0.0175438 0.00281911 -0.00410842 0.00986051 0.00701065 0.011716 0.0240273 0.01738 0.0246904 0.0119414 0.00519306 0.0135888 0.00753885 0.016694 0.0158137 0.0125091 0.0210342 0.00168591 0.00454969 0.0077246 0.00600666 0.0122157 -0.000901703 0.00576637
internal_weight=0 24954.6 22711.1 16476.8 14162.5 9194.53 6234.34 1434.24 7975.22 4967.97 2243.43 2049.81 1679.55 394.271 1219.31 1035.06 445.366 1494.19 814.31 653.539 476.399 1440.88 1264.31 818.562 7580.95 4929.46 3477.2 3231.17 1693.09 1538.08 998.283
internal_count=24910 24044 22346 15556 12924 7825 6790 866 7069 5099 1698 1661 1210 178 756 484 319 1248 555 517 296 930 896 447 6891 4245 2818 2730 1227 1503 842
cat_boundaries=0 1 2 3 4 5 6 7 8 9 10 11 12 13 14 15
cat_threshold=50 387592 25 276 3174720 135184 2097158 64 30 1183904 193 561169 659584 836 1602
is_linear=0
shrinkage=0.05


Tree=8
num_leaves=32
num_cat=13
split_feature=6 3 6 1 3 0 3 1 0 5 5 7 6 1 8 7 3 4 7 6 6 0 3 6 1 8 7 5 6 6 7
split_gain=170.841 106.206 98.881 108.676 74.0535 60.4606 72.1794 81.6209 51.4548 51.2061 64.6889 50.773 60.0039 62.4801 48.9765 47.5489 54.0741 53.9042 53.1896 51.3561 50.9633 61.0729 47.0921 46.7891 46.4494 72.6255 60.2764 46.3379 46.1362 92.7308 45.5735
threshold=21.500000000000004 0 71.500000000000014 1 2 3 4 5 6 12.500000000000002 7.5000000000000009 75.500000000000014 69.500000000000014 7 37.500000000000007 67.500000000000014 8 9 50.500000000000007 25.500000000000004 39.500000000000007 10 11 72.500000000000014 12 657.50000000000011 93.500000000000014 1.5000000000000002 61.500000000000007 60.500000000000007 99.500000000000014
decision_type=2 9 2 9 9 9 9 9 9 2 2 2 2 9 2 2 9 1 2 2 2 9 9 2 9 2 2 2 2 2 2
left_child=4 2 3 22 9 6 7 -3 14 10 -1 12 -7 23 -4 16 18 -18 -5 -17 24 -22 -2 -14 25 26 -21 -13 29 -19 -11
right_child=1 5 8 15 -6 11 -8 -9 -10 30 -12 27 13 -15 -16 19 17 28 -20 20 21 -23 -24 -25 -26 -27 -28 -29 -30 -31 -32
leaf_value=0.026604896183623314 0.00027848255559700805 0.0154280168405776 -0.011459538285409528 0.027398973213245709 -0.0014873430184238997 -0.010491354028992619 -0.0053652027915734903 -0.0074988886907352004 -0.0074867532822365289 -0.013847006544681418 -0.012819057518707181 0.018440324819445169 0.037711201334351976 -0.0082093104944629888 0.024967986159961625 -0.0076697149361011482 -0.0091431868483897154 0.0025301045142237166 -0.022002747882671533 0.039546518906114686 0.021622921220269646 -0.008662414590642117 -0.01219650652449975 -0.010697126471589458 0.0092238115476736444 -0.0039076515024512905 -0.02197788110543383 -0.0029138191623256497 -0.014156997458972899 0.037159571677805536 0.038361857026374208
leaf_weight=271.42431359644979 1304.3203081269749 1248.2442729029572 103.32000859454274 329.63104202784598 399.80945295467973 5599.1472738209413 2023.7683980597649 556.96747939498164 190.91585130617023 45.421080563217402 168.73860319517553 285.17403672263026 191.23105950839818 329.29280134127475 862.89501452539116 386.68476150371134 1255.5726579499897 3054.5675015437882 65.275286755524576 526.1405198071152 234.91597775183618 509.9240463062888 1807.6262096082792 67.548502551391721 958.70260458858684 153.03949921950698 43.068786643445492 2327.3693338946905 359.27491891779937 206.37940799444914 524.1386002660729
leaf_count=117 1188 806 122 144 382 6473 2074 603 206 54 202 167 45 372 412 406 1417 2761 89 104 113 562 2191 75 732 154 56 2276 443 53 111
internal_value=0 -0.000916702 0.00237924 0.000942926 0.0169749 -0.00413909 0.00110681 0.00835197 0.0162959 0.0240616 0.0114915 -0.00642036 -0.0088956 0.0062979 0.0208568 0.00399829 0.00120194 -0.000257947 0.0187582 0.00925299 0.0119506 0.00106332 -0.00698368 0.0241424 0.0167748 0.0263059 0.0348913 -0.000582892 0.00284035 0.00472174 0.0341983
internal_weight=0 24981 12352.3 11195.1 1409.53 12628.7 3828.98 1805.21 1157.13 1009.72 440.163 8799.76 6187.22 588.072 966.215 8083.18 5270.7 4875.79 394.906 2812.48 2425.79 744.84 3111.95 258.78 1680.95 722.249 569.209 2612.54 3620.22 3260.95 569.56
internal_count=24910 24044 11153 10413 866 12891 3483 1409 740 484 319 9408 6965 492 534 7034 4907 4674 233 2127 1721 675 3379 120 1046 314 160 2443 3257 2814 165
cat_boundaries=0 1 2 3 4 5 6 7 8 9 10 11 12 13
cat_threshold=3670390 178 135184 284 151552 141 579 66 34 4 28 3670016 321
is_linear=0
shrinkage=0.05


Tree=9
num_leaves=32
num_cat=16
split_feature=6 6 3 3 4 3 0 1 1 6 6 7 3 3 6 3 2 1 3 6 5 6 3 1 7 8 8 3 8 8 8
split_gain=156.901 96.2693 81.579 80.8074 78.4069 73.9134 71.0448 94.3211 62.6412 59.4221 101.197 53.306 56.9863 51.8452 51.6012 50.8296 49.9002 47.4379 47.4285 51.8908 44.9113 44.0424 43.4015 52.8143 45.9256 74.0147 56.8718 102.511 48.7086 49.367 66.9541
threshold=21.500000000000004 71.500000000000014 0 1 2 3 4 5 6 61.500000000000007 60.500000000000007 71.500000000000014 7 8 83.500000000000014 9 10 11 12 69.500000000000014 12.500000000000002 26.500000000000004 13 14 67.500000000000014 2478.0000000000005 10.500000000000002 15 30.500000000000004 559.50000000000011 1054.5000000000002
decision_type=2 2 9 9 1 9 9 9 9 2 2 2 9 9 2 9 1 9 9 2 2 2 9 9 2 2 2 9 2 2 2
left_child=2 4 -1 14 5 -2 8 9 15 10 22 20 -13 -10 -3 21 -14 -18 19 -9 -6 -7 24 -24 26 28 -8 -28 -26 -30 -31
right_child=1 3 -4 -5 11 6 7 18 13 -11 -12 12 16 -15 -16 -17 17 -19 -20 -21 -22 -23 23 -25 25 -27 27 -29 29 30 -32
leaf_value=0.023418152741356543 -0.0098264516361549828 0.018394033304206265 -0.0043861838161999627 -0.0077034015415208216 -0.0064340359730316807 -0.035687240664069586 0.033584745999047913 -0.00064146076032489891 0.023620455430128365 -0.017306199821317172 0.038720088676318237 0.017113861135649881 -0.011877138105987284 -0.004417374068151245 -0.032275545543853139 0.0046150508718245256 0.014852640424590453 -0.0053923040646534359 -0.0092043493601092728 0.039481566088200928 -0.019461601825751296 0.021199882980781213 0.029982215411191473 -0.0057180022738777354 -0.014925298907149345 -0.010098810353068728 0.011978042639689643 -0.015443095352320333 0.037043283709717947 -0.021242442378571466 0.022765146223809502
leaf_weight=1030.1835492482642 1543.6605882978183 1301.9693502904847 355.90175640024245 467.44152444181964 5340.7486205734313 35.011046852683648 127.92979041580111 1384.2412663080613 179.54079927876592 297.14944509742782 221.63294878974557 424.83365514688194 870.27295911218971 1257.9773863644223 52.263403285294771 1114.8222371633165 527.73598426883109 620.05142445163801 3130.8165430976078 85.564068262232468 755.09344059717841 1206.5923192896298 102.40005093812943 1336.0640530216042 88.563319586217403 243.76522431336343 694.85587238334119 650.11547301191604 405.19525225833058 108.08164015412331 431.43246226618066
leaf_count=508 1763 784 358 499 5753 56 42 1320 83 380 48 251 1002 1270 80 936 349 638 3516 18 1008 647 34 1411 112 273 482 835 96 141 217
internal_value=0 -0.000866154 0.0164162 0.0102014 -0.00173578 0.000485868 0.00170744 -0.000644962 0.0074652 0.00432658 0.00579401 -0.00554037 0.000693727 -0.000776564 0.0163181 0.0124751 -0.00283373 0.00399845 -0.00573001 0.00168283 -0.00804776 0.0194392 0.0040517 -0.00298716 0.00771646 0.0146839 0.00172792 -0.00130221 0.0205305 0.0238544 0.013949
internal_weight=0 25005.8 1386.09 1821.67 23184.1 14645.4 13101.8 9307.81 3793.94 4707.19 4410.04 8538.74 2442.89 1437.52 1354.23 2356.43 2018.06 1147.79 4600.62 1469.81 6095.84 1241.6 4188.4 1438.46 2749.94 1277.04 1472.9 1344.97 1033.27 944.709 539.514
internal_count=24910 24044 866 1363 22681 13680 11917 8925 2992 4071 3691 9001 2240 1353 864 1639 1989 987 4854 1338 6761 703 3643 1445 2198 839 1359 1317 566 454 358
cat_boundaries=0 1 2 3 4 5 6 7 8 9 10 11 12 13 14 15 16
cat_threshold=659472 1212688 25 371208 284 837 1549 3670016 2113536 1183778 1 1029 3166304 1573205 768 1573120
is_linear=0
shrinkage=0.05


Tree=10
num_leaves=32
num_cat=10
split_feature=6 3 1 3 0 3 6 5 6 6 3 8 6 8 8 5 0 3 6 4 1 8 6 6 8 8 5 5 7 8 7
split_gain=144.007 88.3558 88.7278 76.4176 65.069 63.6896 77.4905 68.4659 63.3619 61.3135 101.072 57.7785 53.1197 56.3361 76.6979 51.5333 48.5552 50.2592 46.8198 52.0862 47.1479 55.1541 45.6021 44.809 46.7494 59.8866 43.9515 63.8062 46.6247 42.4641 41.2564
threshold=21.500000000000004 0 1 2 3 4 71.500000000000014 9.5000000000000018 71.500000000000014 33.500000000000007 5 2696.5000000000005 49.500000000000007 11.500000000000002 155.50000000000003 11.500000000000002 6 7 25.500000000000004 8 9 3734.0000000000005 25.500000000000004 28.500000000000004 160.50000000000003 1313.5000000000002 12.500000000000002 6.5000000000000009 99.500000000000014 3319.0000000000005 71.500000000000014
decision_type=2 9 9 9 9 9 2 2 2 2 9 2 2 2 2 2 9 9 2 1 9 2 2 2 2 2 2 2 2 2 2
left_child=3 2 4 26 12 -6 11 -8 9 18 -11 -7 13 -2 -15 -10 17 -3 -4 20 30 -22 -16 -24 -25 -26 27 -1 -28 -27 -20
right_child=1 16 8 -5 5 6 7 -9 15 10 -12 -13 -14 14 22 -17 -18 -19 19 -21 21 -23 23 24 25 29 28 -29 -30 -31 -32
leaf_value=0.027974764837681149 0.035284345573099819 -0.013943364962435366 -0.013757597542723904 -0.004154635733160281 0.028137285799673718 0.00760291403819475 0.0011949781371891361 0.040327996611978834 0.020392009799331649 0.0017848415722997724 -0.016327094149130191 -0.012911490104450144 -0.010930711284546323 -0.014640196162527472 -0.037785934572835772 -0.031834713276101524 -0.0056398535920963531 0.0024951695118624866 -0.027242326537914918 -0.011090120580628859 -0.010892804961592962 0.02926287420593698 0.032209801284906706 0.04762638894532692 -0.011926624811420435 0.02454829373611514 -0.015584016150006361 -0.0093752752017412996 0.037175794026344175 -0.020483694856422298 0.035542801404873842
leaf_weight=263.33430563285947 139.30743036046624 513.90111110708676 260.36112902127206 357.46623017638922 431.39075779169798 2767.8789069984923 173.13792094774544 315.34314954653382 423.87206736579537 1384.7895669239224 1731.3698199053761 391.8203174683731 785.31826132995775 473.38965224067215 48.413222812116146 53.155926484614611 9075.2144214701839 4126.4214524700074 28.481793332844973 216.71423555677757 233.19668089877814 135.02353358082473 213.60076047666371 63.194852292537689 353.64433508785442 306.46275517251343 45.742852469906211 202.10432704852428 495.15736387111247 63.135168977081776 321.63907714816742
leaf_count=107 41 625 308 358 165 2241 157 59 238 1235 2236 455 917 592 76 86 9547 3628 42 255 271 52 70 3 424 149 56 229 116 84 88
internal_value=0 -0.000816658 0.00245324 0.0158676 0.0062426 0.0101058 0.00790257 0.0264576 -0.00271325 -0.004632 -0.008325 0.00505901 -0.000214405 0.00485051 0.00206463 0.0145723 -0.00351339 0.000648585 0.00499476 0.0102163 0.0165679 0.00373066 0.00960708 0.0119014 0.00638558 0.00278207 0.0227945 0.0117565 0.032714 0.0168559 0.0295902
internal_weight=0 25030.2 11314.6 1363.81 6526.04 4079.57 3648.18 488.481 4788.6 4311.58 3116.16 3159.7 2446.47 1661.15 1521.84 477.028 13715.5 4640.32 1195.42 935.055 718.341 368.22 1048.45 1000.04 786.437 723.242 1006.34 465.439 540.9 369.598 350.121
internal_count=24910 24044 10244 866 5433 3077 2912 216 4811 4487 3471 2696 2356 1439 1398 324 13800 4253 1016 708 453 323 806 730 660 657 508 336 172 233 130
cat_boundaries=0 1 2 3 4 5 6 7 8 9 10
cat_threshold=3146102 1868 659472 1553 2097186 3145792 286 296968 21 1
is_linear=0
shrinkage=0.05


Tree=11
num_leaves=32
num_cat=14
split_feature=6 6 3 3 1 6 1 1 7 3 4 5 3 6 1 4 5 5 1 0 6 6 0 6 5 3 5 8 5 5 7
split_gain=132.116 80.4752 71.5096 67.4187 64.3369 69.8312 60.5536 58.9917 66.0615 98.2113 58.0364 57.8462 79.4601 74.9077 56.7351 53.8612 49.3557 49.2435 48.2939 46.1637 45.0334 86.1469 51.3471 62.2776 43.8821 61.3454 51.1469 44.8661 42.5017 59.4235 44.4988
threshold=21.500000000000004 69.500000000000014 0 1 2 78.500000000000014 3 4 69.500000000000014 5 6 10.500000000000002 7 51.500000000000007 8 9 3.5000000000000004 20.500000000000004 10 11 61.500000000000007 60.500000000000007 12 39.500000000000007 16.500000000000004 13 11.500000000000002 9155.5000000000018 12.500000000000002 6.5000000000000009 99.500000000000014
decision_type=2 2 9 9 9 2 9 9 2 9 1 2 9 2 9 1 2 2 9 9 2 2 9 2 2 9 2 2 2 2 2
left_child=2 3 28 18 -3 6 24 8 10 -10 -5 12 -12 19 16 -15 -11 -16 -2 -13 21 22 23 -14 25 26 -6 -27 29 -1 -30
right_child=1 4 -4 7 5 -7 -8 -9 9 14 11 13 20 15 17 -17 -18 -19 -20 -21 -22 -23 -24 -25 -26 27 -28 -29 30 -31 -32
leaf_value=0.027349914662343738 -0.0027629291789296644 0.036583971098030514 -0.0039361953199948136 -0.010093021007302881 0.022917545459184844 -0.013756688553372635 -0.012643339706759162 -0.0073012183424693627 -0.01628242746223333 -0.0053742117588619293 -0.0080951068551487794 0.004914589520796488 -0.034702785703812654 0.012039704586618852 0.0016118682103324383 -0.019602147531401659 0.021583871520688136 0.039356089498700592 0.0082098046350011205 -0.025388729290508227 -0.014615283142385424 0.03836063283308222 0.0025340992700972438 0.029417714070814102 0.039196978412457922 -0.0097093959224410688 -0.031903869029507141 0.039521801592729687 -0.014569876562056595 -0.0088212170561996744 0.036690071405165031
leaf_weight=256.06967473449185 1614.246444076125 176.3442608229816 358.95446392521262 2482.8019523550756 731.10064285527915 372.50993634667248 240.62520710960962 5465.4507712219493 524.07820684788749 210.38674129918218 1468.6098989152815 157.45993673009798 42.501553712412715 458.91099649271928 2717.6085374259856 178.93095237016678 879.7820557957748 89.252910140901804 2629.3750748565653 661.18786096991971 249.16705780103803 210.4925475269556 2498.1163141085999 347.38609818648547 157.36338169127703 391.0607294421643 45.174911154434085 52.489939544349909 46.461293663829565 204.00802085583564 477.08745944965631
leaf_count=107 1584 37 358 2843 375 451 280 5956 636 217 1611 137 68 314 2456 248 473 18 2036 978 310 46 2278 137 34 439 72 10 56 229 116
internal_value=0 -0.000771553 0.015328 -0.0016435 0.00843851 0.00573219 0.010255 -0.00293767 -0.00112358 0.00385773 -0.00364017 -0.00106829 0.00157044 -0.00980131 0.00659107 0.00304479 0.0162325 0.00280208 0.00403916 -0.0198102 0.00581749 0.00747938 0.00522859 0.0218671 0.0142443 0.011142 0.0194763 -0.00379774 0.0221726 0.0113109 0.0321411
internal_weight=0 25052.4 1342.58 22885.7 2166.67 1990.32 1617.81 18642.1 13176.7 4421.11 8755.57 6272.76 4816.27 1456.49 3897.03 637.842 1090.17 2806.86 4243.62 818.648 3347.66 3098.5 2888 389.888 1377.19 1219.83 776.276 443.551 983.626 460.078 523.549
internal_count=24910 24044 866 22346 1698 1661 1210 18726 12770 3800 8970 6127 4450 1677 3164 562 690 2474 3620 1115 2839 2529 2483 205 930 896 447 449 508 336 172
cat_boundaries=0 1 2 3 4 5 6 7 8 9 10 11 12 13 14
cat_threshold=659472 3145830 64 30 461 123528 36 571905 257 9 163 384 260 561169
is_linear=0
shrinkage=0.05


Tree=12
num_leaves=32
num_cat=15
split_feature=6 6 3 3 4 5 3 1 8 3 8 4 6 0 8 8 1 6 3 0 3 7 3 2 5 6 8 0 5 5 5
split_gain=121.148 73.7984 66.8526 66.8353 62.5439 61.9314 98.8875 90.0944 98.0325 86.3444 85.4854 86.9061 62.7368 50.5698 49.2564 55.6547 49.1408 72.0835 48.5033 48.336 43.6883 42.8647 50.1856 42.1034 45.5743 42.082 69.1725 45.216 54.4631 41.032 55.3125
threshold=21.500000000000004 71.500000000000014 0 1 2 8.5000000000000018 3 4 3789.0000000000005 5 37.500000000000007 6 40.500000000000007 7 574.00000000000011 36.500000000000007 8 78.500000000000014 9 10 11 71.500000000000014 12 13 10.500000000000002 23.500000000000004 1975.0000000000002 14 6.5000000000000009 12.500000000000002 6.5000000000000009
decision_type=2 2 9 9 1 2 9 9 2 9 2 1 2 9 2 2 9 2 9 9 9 2 9 1 2 2 2 9 2 2 2
left_child=2 4 29 16 5 9 7 8 10 14 -7 12 -12 -9 15 -2 -3 -18 -11 -16 -13 -6 -23 -24 -25 26 -20 28 -27 30 -1
right_child=1 3 -4 -5 21 6 -8 13 -10 18 11 20 -14 -15 19 -17 17 -19 25 -21 -22 22 23 24 -26 27 -28 -29 -30 -31 -32
leaf_value=0.026721887991102807 -0.010837642908584333 0.041241712493391675 -0.0037300301208755358 -0.0069563004959160768 -0.0070631789563312015 -0.033139939716870605 -0.017743996214224414 -0.0015833076474285161 -0.034101216306088304 -0.010033041091996433 0.039674988832758246 0.025547784233145323 0.0032826313810159682 -0.016778715367157315 -0.0061683121916965523 0.038397582584889879 0.017775414623541718 -0.012743372198647638 -0.023945151093641134 0.020752679312042256 -0.0096470544992320762 0.016373107259447916 -0.01069497391224687 -0.0060328620658131769 0.013933750745025175 0.0013320663991747163 0.032985908773343592 0.00039173310673609897 0.028965865655903335 0.03155976723524645 -0.008304624330775584
leaf_weight=249.16109975706786 69.036205025855452 149.84860118478537 360.37016337551177 473.70416930411011 6201.0215049937251 84.195394335314631 1010.0165892154328 2508.2565022645867 109.98651893157512 842.86367508070543 489.10358722601086 114.73307352140546 156.25880314223468 693.06833269901108 315.80647849105299 340.44629339128733 903.03721998864785 246.2411474455148 68.293862674385309 338.74989267531782 290.93690642621368 415.25487315375358 887.22338127181865 579.12444247212261 564.23943335330114 397.59238931117579 243.91546860896051 6257.1006192793138 323.28404373023659 507.04350912291557 205.81557839782909
leaf_count=107 78 17 358 499 6761 138 1281 2468 180 950 98 27 139 893 336 75 551 296 94 183 333 251 1002 604 383 366 71 5843 127 172 229
internal_value=0 -0.000729182 0.0147986 0.00910496 -0.00147742 0.000513667 -0.00370604 -0.000476389 0.0108832 0.00301774 0.0153374 0.0192207 0.0303925 -0.00491503 0.016342 0.0300968 0.0149003 0.0111396 0.00125291 0.00798681 0.000682029 -0.00484665 0.000753158 -0.00250939 0.00382048 0.0025697 0.0205326 0.00176969 0.0135369 0.0215541 0.0108771
internal_weight=0 25073.3 1322.39 1772.83 23300.5 14653.6 5456.56 4446.54 1245.21 9197.09 1135.23 1051.03 645.362 3201.32 1064.04 409.482 1299.13 1149.28 8133.05 654.556 405.67 8646.86 2445.84 2030.59 1143.36 7290.19 312.209 6977.98 720.876 962.02 454.977
internal_count=24910 24044 866 1363 22681 13680 5557 4276 915 8123 735 597 237 3361 672 153 864 847 7451 519 360 9001 2240 1989 987 6501 165 6336 493 508 336
cat_boundaries=0 1 2 3 4 5 6 7 8 9 10 11 12 13 14 15
cat_threshold=659472 1212688 25 1743184 1089 2101286 17 833 64 821760 707 524288 3670016 1 22
is_linear=0
shrinkage=0.05


Tree=13
num_leaves=32
num_cat=14
split_feature=6 3 3 6 1 0 3 5 6 7 0 8 0 6 3 6 0 6 5 5 7 6 8 1 0 8 0 3 8 8 4
split_gain=110.982 68.1062 62.4301 62.42 66.7893 68.2686 79.8711 47.3918 72.32 64.2197 73.7085 62.802 43.709 42.3444 78.0117 44.9406 40.8253 40.24 39.5384 51.457 43.8289 39.3511 59.1993 38.8508 70.9799 56.0956 42.5774 39.6025 54.8414 38.761 35.6793
threshold=21.500000000000004 0 1 69.500000000000014 2 3 4 7.5000000000000009 23.500000000000004 99.500000000000014 5 2420.5000000000005 6 33.500000000000007 7 25.500000000000004 8 32.500000000000007 12.500000000000002 6.5000000000000009 99.500000000000014 48.500000000000007 2622.0000000000005 9 10 559.50000000000011 11 12 9155.5000000000018 2622.0000000000005 13
decision_type=2 9 9 2 9 9 9 2 2 2 9 2 9 2 9 2 9 2 2 2 2 2 2 9 9 2 9 9 2 2 1
left_child=2 7 18 4 13 6 17 8 11 -9 -11 -2 -5 15 16 -3 -15 -6 19 -1 -20 22 -8 25 27 -10 -27 28 -25 -23 -7
right_child=1 3 -4 12 5 30 21 9 23 10 -12 -13 -14 14 -16 -17 -18 -19 20 -21 -22 29 -24 24 -26 26 -28 -29 -30 -31 -32
leaf_value=0.026091466700332907 -0.016644185504166503 -0.013222390564111664 -0.0035353704777321133 0.019308728812107597 -0.027898633293554128 0.0041213698493410235 -0.013397705621154679 -0.010260569801410296 -0.012866405596183612 0.029659298916871468 -0.0052417421506720284 0.038701110437423622 0.0014946882410167795 0.0082373405866910422 -0.014558283205429276 0.0085025981149289241 -0.0057965221285464774 0.030214438852542963 -0.015676283515467789 -0.0078224313376741555 0.035749954359630312 0.017296634442702252 0.018427358873167283 0.0021219427608202639 -0.011443100018203362 0.035422108225892625 0.0070038869094168361 -0.0059791700414787326 0.028375616181961823 -0.020999436174387407 -0.0040346395524101771
leaf_weight=242.59120959974825 69.023275829851627 306.06245455751196 361.71686657890677 788.2725725164637 31.451129632070661 3146.1535217206692 477.14660458918661 3690.6388473972329 284.73076954018325 218.60569013282657 443.46144093433395 199.13461063429713 621.8895566011779 854.40855478402227 1683.8182727405801 1071.1513963177567 1283.9874582905322 563.54226713441312 45.67858974635601 207.53191442089155 445.61260713543743 620.73121983825695 210.62539428286254 1758.6344343824312 1937.3301286261994 158.06270913709886 695.87776145618409 1359.2593159661628 224.2838467489928 73.944249158492312 2321.8375205746852
leaf_count=107 80 361 358 459 43 2778 560 4236 339 78 440 41 572 651 2115 847 1335 207 56 229 116 373 120 1581 2250 38 540 1413 91 96 2400
internal_value=0 -0.000687284 0.0142783 0.00162112 0.000509535 0.00354394 0.0114831 -0.00362455 -0.000984569 -0.00768825 0.00665092 0.0244553 0.0116002 -0.00383508 -0.00655099 0.00367459 -0.000176969 0.026694 0.020938 0.0104553 0.0309685 0.00479183 -0.0036515 -0.00204747 -0.00385189 0.00629733 0.0127609 0.000569445 0.00506589 0.0132202 0.000657093
internal_weight=0 25094.1 1303.13 14055 12644.9 7445.43 1977.44 11039 6686.34 4352.71 662.067 268.158 1410.16 5199.43 3822.21 1377.21 2138.4 594.993 941.414 450.123 491.291 1382.45 687.772 6418.18 5279.51 1138.67 853.94 3342.18 1982.92 694.675 5467.99
internal_count=24910 24044 866 12917 11886 6577 1399 11127 6373 4754 518 121 1031 5309 4101 1208 1986 250 508 336 172 1149 680 6252 5335 917 578 3085 1672 469 5178
cat_boundaries=0 1 2 3 4 5 6 7 8 9 10 11 12 13 14
cat_threshold=518793 659472 51 284 2101282 384 578 1577024 531 1360 271 128 223232 11
is_linear=0
shrinkage=0.05


Tree=14
num_leaves=32
num_cat=11
split_feature=6 3 1 3 0 3 6 5 6 8 8 8 6 8 0 6 3 8 5 5 5 5 7 8 5 4 6 3 8 3 0
split_gain=101.642 63.3825 68.5504 58.2533 52.3369 55.0538 63.6458 63.8349 51.3861 50.8281 50.2902 50.6601 50.0194 52.9985 46.129 42.055 74.3896 40.2358 39.1539 38.6398 38.0469 49.278 41.69 37.3593 35.2448 50.7694 64.9106 56.6206 47.4301 46.5812 52.2104
threshold=21.500000000000004 0 1 2 3 4 71.500000000000014 9.5000000000000018 71.500000000000014 2696.5000000000005 21.500000000000004 49.500000000000007 50.500000000000007 64.500000000000014 5 33.500000000000007 6 1053.0000000000002 13.500000000000002 20.500000000000004 12.500000000000002 1.5000000000000002 99.500000000000014 3387.0000000000005 7.5000000000000009 7 23.500000000000004 8 2420.5000000000005 9 10
decision_type=2 9 9 9 9 9 2 2 2 2 2 2 2 2 9 2 9 2 2 2 2 2 2 2 2 1 2 9 2 9 9
left_child=3 2 4 20 10 -6 9 23 15 17 -2 -12 -13 -14 -10 -4 -17 19 -19 -7 21 -1 -22 -8 25 26 28 -27 -3 30 -28
right_child=1 24 8 -5 5 6 7 -9 14 -11 11 12 13 -15 -16 16 -18 18 -20 -21 22 -23 -24 -25 -26 27 29 -29 -30 -31 -32
leaf_value=0.037473276802331319 0.019419787157124113 -0.014902056898069208 0.0041711467443408985 -0.0033515025665654414 0.026580967123030531 0.0018913588327073103 -0.018151449517373512 0.039200806943951692 0.027213220674323736 -0.012272851989808493 -0.024535392444493667 0.0050903954983807552 0.02490728454073091 -0.019842246751166095 -0.0046241461184810817 0.0013556580858444215 -0.014196258054705386 0.020244086526101681 -0.034581200007064765 0.0364215525496486 -0.014654751368856252 -3.6653636324761766e-05 0.035231300504914485 0.030769486302751017 -0.0059046680618185052 0.0026081682290249974 0.013067215465050762 -0.010895461894564015 0.039169308920007882 -0.0036988595187488747 -0.0015109204967883477
leaf_weight=119.7440049033612 286.13273711316288 51.616237688809633 1130.2922994933324 362.99792606756091 402.05800777859986 1866.6085284953588 104.17973586171865 282.42850889451802 253.31057648640126 391.02111316728406 240.15436694771051 1313.7501599864336 77.711796440184116 445.28922593966126 201.44495287165046 1419.7654623896815 1673.1199077765923 648.61056985007599 34.286579141393304 84.693040676414967 46.400301868095994 325.76119510421995 429.96338391583413 62.400828391313553 5673.9447921002866 1260.2610924085602 1246.3363567050546 2009.8549448982812 189.27693770825863 2560.8180985329673 1204.3056172619108
leaf_count=28 173 59 977 358 165 1718 135 59 108 449 346 1127 37 595 209 1282 2090 363 57 23 56 308 116 19 6002 1120 871 2305 38 2550 1167
internal_value=0 -0.00064771 0.00221583 0.0137706 0.00564321 0.00921557 0.00713542 0.0247221 -0.00235783 0.00454876 -0.000230964 -0.00293934 -0.000115661 -0.013193 0.0136068 -0.0040825 -0.00709879 0.00704576 0.0174914 0.00339009 0.0203284 0.0100454 0.0303721 0.000174259 -0.00284937 -0.000818605 0.0022267 -0.00569925 0.0275834 0.00101228 0.00592614
internal_weight=0 25113.7 10917.3 1284.87 6239.33 3876.29 3474.23 449.009 4677.93 3025.22 2363.04 2076.91 1836.75 523.001 454.756 4223.18 3092.89 2634.2 682.897 1951.3 921.869 445.505 476.364 166.581 14196.4 8522.47 5252.35 3270.12 240.893 5011.46 2450.64
internal_count=24910 24044 9932 866 5266 2988 2823 213 4666 2610 2278 2105 1759 632 317 4349 3372 2161 420 1741 508 336 172 154 14112 8110 4685 3425 97 4588 2038
cat_boundaries=0 1 2 3 4 5 6 7 8 9 10 11
cat_threshold=3146038 1868 659472 1553 2097186 513 3145984 25 551040 208960 468
is_linear=0
shrinkage=0.05


Tree=15
num_leaves=32
num_cat=12
split_feature=6 3 1 3 0 3 6 5 8 4 6 7 7 5 6 6 5 0 1 6 3 5 5 7 6 4 8 6 3 6 2
split_gain=93.0503 57.2525 62.2856 54.3045 47.9858 52.0491 59.6946 61.5052 47.3031 46.9429 55.2037 64.9068 51.6773 62.4011 49.3884 46.8862 43.7278 43.3206 41.0737 37.6889 65.8168 36.5518 46.7204 39.6511 35.1622 42.3073 34.8709 44.777 38.7559 51.5351 39.9089
threshold=21.500000000000004 0 1 2 3 4 71.500000000000014 9.5000000000000018 10.500000000000002 5 48.500000000000007 50.500000000000007 51.500000000000007 20.500000000000004 61.500000000000007 71.500000000000014 10.500000000000002 6 7 33.500000000000007 8 12.500000000000002 1.5000000000000002 99.500000000000014 25.500000000000004 9 1313.5000000000002 47.500000000000007 10 28.500000000000004 11
decision_type=2 9 9 9 9 9 2 2 2 1 2 2 2 2 2 2 2 9 9 2 9 2 2 2 2 1 2 2 9 2 1
left_child=3 2 4 21 8 -6 9 -8 -2 10 11 -7 -13 -14 16 19 -12 -17 -11 24 -21 22 -1 -23 -4 -26 28 -28 30 -30 -10
right_child=1 -3 15 -5 5 6 7 -9 26 18 14 12 13 -15 -16 17 -18 -19 -20 20 -22 23 -24 -25 25 -27 27 -29 29 -31 -32
leaf_value=0.036994953082168207 0.030022101012746771 -0.0026973855586193648 -0.012150959395788535 -0.0031777639160883277 0.025965831455800822 -0.024581008958600617 0.00017948618102837596 0.038769063024089667 -0.017441884722738929 0.024285222066174478 0.027401292932173051 0.040327937222508096 -0.0039207707834431694 0.046418046989266978 -0.0080292939233137361 0.026609110315781021 -0.0081700446872153797 -0.0043840053383898941 -0.0065265185995561047 0.0012901305195972771 -0.013296650713032246 -0.013714161386453899 -3.4819717740617448e-05 0.034701705516454399 0.015063135946433236 -0.010183709485036004 0.017112036303446727 -0.014172069795424597 0.039012659805043072 -0.0037751085672686965 -0.00015895737735455149
leaf_weight=115.33983821980655 122.63551921769977 14237.38612884382 259.85117936367169 364.21655908040702 391.51170204207301 200.45317454170436 166.59804063662887 271.57128782011569 710.98250386491418 110.55324823781848 685.87994639383396 103.39056104421616 522.06226910511032 69.794326711446047 154.23244776576757 246.51012362353504 98.848127171397209 202.3786213696003 1066.4858930136543 1417.8420498943888 1697.0413474189118 47.085293982177973 325.77313332899939 415.07895058998838 649.76155994529836 215.974771365989 424.16733756754547 156.61018932494335 104.6659140996635 214.78338791476563 629.99714664486237
leaf_count=28 48 14112 300 358 165 291 154 59 925 49 300 20 529 5 174 108 111 209 1131 1282 2090 56 308 116 427 250 266 192 23 214 610
internal_value=0 -0.000610838 0.00211646 0.013274 0.00539983 0.00884593 0.00683363 0.0240968 -0.000213957 0.00434472 0.00931501 0.000485672 0.00771288 0.0020154 0.0178368 -0.00223052 0.0229206 0.0131312 -0.00345232 -0.00386194 -0.00669554 0.0197244 0.00964753 0.0297691 0.00397959 0.00882118 -0.00186938 0.00867609 -0.00555793 0.00993314 -0.0092533
internal_weight=0 25132 10894.6 1267.49 6205.22 3841.38 3449.87 438.169 2363.84 3011.7 1834.66 895.7 695.247 591.857 938.961 4689.36 784.728 448.889 1177.04 4240.47 3114.88 903.277 441.113 462.164 1125.59 865.736 2241.21 580.778 1660.43 319.449 1340.98
internal_count=24910 24044 9932 866 5266 2988 2823 213 2278 2610 1430 845 554 534 585 4666 411 317 1180 4349 3372 508 336 172 977 677 2230 458 1772 237 1535
cat_boundaries=0 1 2 3 4 5 6 7 8 9 10 11 12
cat_threshold=3146038 1868 659472 1553 2097186 11 513 1280 3145984 21 304 1
is_linear=0
shrinkage=0.05


Tree=16
num_leaves=32
num_cat=13
split_feature=6 3 3 7 5 0 5 6 1 0 6 3 1 5 8 7 8 3 5 1 0 0 6 8 6 8 5 6 6 3 0
split_gain=85.1386 52.689 50.5757 43.2406 58.8888 47.8927 49.204 40.4957 47.9913 71.5387 75.6401 64.8486 44.0986 82.3866 59.4859 42.9311 46.0929 39.9705 48.2359 38.2164 61.3065 51.6356 42.2072 36.8101 36.5762 35.5549 38.161 35.3742 35.3703 54.2823 45.5223
threshold=21.500000000000004 0 1 99.500000000000014 7.5000000000000009 2 12.500000000000002 69.500000000000014 3 4 32.500000000000007 5 6 16.500000000000004 405.50000000000006 50.500000000000007 251.50000000000003 7 9.5000000000000018 8 9 10 23.500000000000004 36.500000000000007 37.500000000000007 186.50000000000003 1.5000000000000002 37.500000000000007 33.500000000000007 11 12
decision_type=2 9 9 2 2 9 2 2 9 9 2 9 9 2 2 2 2 9 2 9 9 9 2 2 2 2 2 2 2 9 9
left_child=2 3 -1 4 19 6 -5 8 28 10 -10 24 13 -9 23 25 -17 -11 -19 21 -21 -2 -22 -14 -12 26 -13 -6 -3 30 -30
right_child=1 7 -4 5 27 -7 -8 12 9 17 11 15 14 -15 -16 16 -18 18 -20 20 22 -23 -24 -25 -26 -27 -28 -29 29 -31 -32
leaf_value=0.019126595238486629 0.023258678714837604 0.0035967073485066014 -0.0030135409913720577 0.0056403320285844218 -0.018156793272609783 -0.0027321030525761943 0.039399210414080836 -0.005468921857462357 -0.017617468899143417 0.0024421392012690581 0.043700735592311572 0.029932204748194188 -0.013229076048203484 0.036501825319388094 -0.013912617576505637 -0.010341189762042834 0.022875919489322154 -0.0017501233050242811 -0.022775510991742159 -0.016113151895104396 0.03096653696006434 -0.00053728521045666694 -0.0015679281118403674 0.031423682155862276 0.017372535087789655 -0.011448459683545398 -0.0037763768137003871 -0.0066329215153098893 -0.006998041194047698 -0.012074318685878802 0.0065753998264133518
leaf_weight=885.5928334427299 332.167087206617 1483.7309168558568 365.37579481489956 282.91465125977993 905.26559498236747 668.90332407807 174.51530237495899 690.47673369338736 211.48381044808775 4315.257615436858 238.12304168194532 149.49325360357761 51.400403063744307 140.75977236032486 108.74222107976675 127.60769214853644 575.13470291346312 1035.7463242579252 370.31687781657092 766.69871383253485 102.45114130154252 690.47292450070381 3695.1261571879731 452.18864489905536 295.76309526525438 365.34683156874962 191.53391543490579 2518.8529251923319 1291.7991243130527 1751.5980763959233 1165.6009183168644
leaf_count=508 167 1304 358 226 1169 622 35 721 262 3938 28 53 63 38 132 143 285 1021 521 962 36 646 3589 163 179 412 189 2721 1371 2115 933
internal_value=0 -0.000575615 0.0127888 -0.00335866 -0.00451649 0.00587452 0.0181236 0.00130509 0.000458915 0.00298516 0.0107297 0.0138704 0.00926759 0.00161884 0.019309 0.00803727 0.0168442 5.51428e-05 -0.00723615 -0.00135212 -0.00330898 0.00734235 -0.0006884 0.0268661 0.0285801 -0.000610583 0.0110002 -0.00967959 -0.00303601 -0.00538135 -0.000559292
internal_weight=0 25149.5 1250.97 10137.4 9011.03 1126.33 457.43 15012.1 13568.5 7875.81 2154.49 1943 1443.57 831.237 612.331 1409.12 702.742 5721.32 1406.06 5586.92 4564.28 1022.64 3797.58 503.589 533.886 706.374 341.027 3424.12 5692.73 4209 2457.4
internal_count=24910 24044 866 10173 9290 883 261 13871 12754 7031 1551 1289 1117 759 358 1082 428 5480 1542 5400 4587 813 3625 226 207 654 242 3890 5723 4419 2304
cat_boundaries=0 1 2 3 4 5 6 7 8 9 10 11 12 13
cat_threshold=502409 659472 392 51 284 2101282 141 1048916 1360 1680 658 1593408 456
is_linear=0
shrinkage=0.05


Tree=17
num_leaves=32
num_cat=9
split_feature=6 3 1 3 0 3 6 5 8 8 6 5 0 7 8 5 5 7 8 8 6 7 4 7 5 6 5 6 3 6 1
split_gain=77.8901 47.969 51.1165 47.0666 42.725 47.6461 53.1466 59.2694 43.3434 43.0497 36.5988 44.4979 36.8662 35.9449 50.9873 35.7354 45.4135 38.4321 35.2368 33.8943 36.1799 65.218 47.5378 46.2717 55.0068 37.9282 40.7398 35.1979 33.1482 42.5593 39.7462
threshold=21.500000000000004 0 1 2 3 4 71.500000000000014 9.5000000000000018 10.500000000000002 2696.5000000000005 71.500000000000014 11.500000000000002 5 105.50000000000001 1054.5000000000002 12.500000000000002 7.5000000000000009 99.500000000000014 3387.0000000000005 2577.5000000000005 48.500000000000007 50.500000000000007 6 51.500000000000007 14.500000000000002 61.500000000000007 10.500000000000002 51.500000000000007 7 32.500000000000007 8
decision_type=2 9 9 9 9 9 2 2 2 2 2 2 9 2 2 2 2 2 2 2 2 2 1 2 2 2 2 2 9 2 9
left_child=3 2 4 15 8 -6 9 18 -2 19 -4 12 -12 28 -15 16 -1 -17 -8 20 21 -7 25 -23 -25 26 -22 -24 30 -30 -10
right_child=1 -3 10 -5 5 6 7 -9 13 -11 11 -13 -14 14 -16 17 -18 -19 -20 -21 22 23 27 24 -26 -27 -28 -29 29 -31 -32
leaf_value=0.022445958713346884 0.02905105422623866 -0.0024944143492667686 -0.003335210396022636 -0.0028582599653593837 0.024896216379834177 -0.01844751784374794 -0.017329128382053159 0.038058597237577797 0.00083760786641651121 -0.011258328006452704 0.030732014612238623 -0.03085910848363559 -0.00045304372209378812 -0.036276473298970352 0.038237566633550102 -0.014059945841980529 -0.010482806902717372 0.033855657944324463 0.030274687696107323 0.042199947462627313 0.028578655658191249 0.036864102829016573 0.017690742581249856 -0.0038497270927387306 0.025865969211469404 -0.0052988368012971106 -0.010554986947299193 -0.01180340253221723 0.025916063061891481 -0.0019356560950723866 -0.015473630682977592
leaf_weight=246.78775445511565 119.33774914965034 13981.964847077499 4416.4070626150351 366.47853332012892 374.4042059276253 360.12993357307278 107.67999192886055 255.41387902572751 726.33520410535857 402.39426555181853 215.76309665292501 53.797278571873903 172.34776971116662 28.976613193750381 110.52134851366282 46.831135744228959 181.86986644007266 393.32665960304439 60.835538972169161 64.10213577747345 578.86188818712253 110.38454294577241 154.75440910086036 717.73808374721557 198.88927950616926 132.01000957284123 75.138319654390216 292.05511810397729 188.92259842529893 500.61945560312597 765.88487717090175
leaf_count=126 49 13800 4487 358 165 477 138 59 694 455 75 86 163 45 23 56 210 116 19 9 238 28 96 722 94 141 87 349 87 490 968
internal_value=0 -0.000543062 0.00189707 0.0123167 0.00485676 0.00811072 0.00625481 0.0228728 -0.000334656 0.00399257 -0.00195843 0.0117568 0.0176639 -0.00184684 0.0227595 0.0185372 0.00847502 0.0287576 -0.000143746 0.00627898 0.00540011 -0.000139069 0.0116327 0.00628094 0.00259797 0.0189074 0.0240826 -0.00155322 -0.00342012 0.00561382 -0.00758144
internal_weight=0 25165.7 11183.7 1235.29 6325.39 3884.79 3510.39 423.929 2440.6 3086.46 4858.32 441.908 388.111 2321.26 139.498 868.815 428.658 440.158 168.516 2684.06 2619.96 1387.14 1232.82 1027.01 916.627 786.01 654 446.81 2181.76 689.542 1492.22
internal_count=24910 24044 10244 866 5433 3077 2912 216 2356 2696 4811 324 238 2307 68 508 336 172 157 2241 2232 1321 911 844 816 466 325 445 2239 577 1662
cat_boundaries=0 1 2 3 4 5 6 7 8 9
cat_threshold=3146102 1868 659472 1553 2097186 513 9 112 8
is_linear=0
shrinkage=0.05


Tree=18
num_leaves=32
num_cat=12
split_feature=6 3 3 1 2 5 5 7 5 0 5 2 5 4 1 3 3 0 5 0 8 6 7 5 6 8 8 8 7 7 8
split_gain=71.2098 44.3038 43.7555 43.2311 54.8757 34.1574 44.0123 36.4621 31.2857 30.1506 47.2884 40.1817 32.3019 29.3766 43.0241 92.2675 41.829 48.3297 44.0727 38.7922 61.4602 44.2804 57.9921 35.5334 31.4216 42.7613 29.832 95.8138 47.9616 44.7073 44.1095
threshold=21.500000000000004 0 1 2 3 12.500000000000002 1.5000000000000002 99.500000000000014 15.500000000000002 4 16.500000000000004 5 4.5000000000000009 6 7 8 9 10 8.5000000000000018 11 3432.0000000000005 56.500000000000007 70.500000000000014 1.0000000180025095e-35 23.500000000000004 2420.5000000000005 559.50000000000011 41.500000000000007 50.500000000000007 67.500000000000014 21.500000000000004
decision_type=2 9 9 9 1 2 2 2 2 9 2 1 2 1 9 9 9 9 2 9 2 2 2 2 2 2 2 2 2 2 2
left_child=2 3 5 4 -2 6 -1 -7 -9 10 11 -5 -11 14 15 -3 17 -16 -19 20 21 22 23 -17 25 -21 27 28 30 -29 -26
right_child=1 13 -4 9 -6 7 -8 8 -10 12 -12 -13 -14 -15 16 19 -18 18 -20 24 -22 -23 -24 -25 26 -27 -28 29 -30 -31 -32
leaf_value=0.035931968079918157 -0.00266167019684449 -0.011749800166165003 -0.0027113890981047984 0.011280231626806556 0.026268040845708107 -0.013165568018066712 -0.0011819335119511048 0.038430500186995287 -0.0067918524459497035 0.0064719682430554402 0.035406410290776721 -0.0047618645173497422 -0.0088209945675681006 -0.0036981444402057286 -0.0078545262185230752 0.03894159794015585 -0.0044523492089155884 0.020035998974311423 -0.011743291585787042 -0.0085198186106058577 -0.017406779192039007 0.037386575013188816 0.025311730047543436 -0.014854388086226021 0.019723706376504252 0.038325845998790943 -0.00025247777012307287 0.010309819325544011 -0.018867562862290639 0.040125710998668768 -0.011097160100361398
leaf_weight=106.62472270056605 258.25234881322831 884.73973704967648 367.52751499973238 866.48245442064945 448.76193909719586 47.494230110198259 318.47175231319852 337.09322302229702 43.139990196796134 539.88198064174503 130.19414994865656 710.34834951139055 957.99128267541528 8453.0484848450869 391.00579020305304 36.171591576188803 5556.3346874466515 579.02814706135541 134.42755943234079 74.333791766315699 128.32537166192196 249.73391610942781 346.31831360794604 202.76191578945145 287.3535351146711 141.33786343038082 2829.711224672501 240.6136697283946 275.89185976609588 263.31006719172001 194.77173707523616
leaf_count=28 249 1035 358 602 193 56 308 69 47 436 37 726 1055 8650 432 7 5732 328 161 78 164 59 165 256 173 30 2649 184 360 51 232
internal_value=0 -0.000512027 0.0118553 0.00437175 0.0154819 0.0179541 0.00812715 0.0281403 0.0332997 0.00188028 0.00640716 0.00405341 -0.00328697 -0.00141166 9.81227e-05 0.00310909 -0.00268487 0.00616717 0.013854 0.00562087 0.0146567 0.01976 0.0122385 -0.00671034 0.00357077 0.0221799 0.00259861 0.00899174 -0.00224156 0.0258892 0.00727252
internal_weight=0 25181.1 1220.35 3911.91 707.014 852.824 425.096 427.727 380.233 3204.9 1707.02 1576.83 1497.87 21269.2 12816.2 6155.37 6660.8 1104.46 713.456 5270.63 963.311 834.986 585.252 238.934 4307.32 215.672 4091.65 1261.94 758.017 503.924 482.125
internal_count=24910 24044 866 3298 442 508 336 172 116 2856 1365 1328 1491 20746 12096 5443 6653 921 489 4408 651 487 428 263 3757 108 3649 1000 765 235 405
cat_boundaries=0 1 2 3 4 5 6 7 8 9 10 11 12
cat_threshold=3145986 659472 1360 1 90 1 25 837 387584 86112 657 400
is_linear=0
shrinkage=0.05


Tree=19
num_leaves=32
num_cat=13
split_feature=6 1 6 1 5 3 8 1 3 3 7 4 3 5 3 1 0 6 6 6 3 6 8 6 3 8 8 6 7 5 5
split_gain=65.1007 42.7009 41.8307 52.4016 52.5976 51.6713 47.3383 37.1257 50.3206 44.6986 42.5458 49.8423 48.155 40.0178 39.3502 53.228 44.9888 40.7134 62.8735 49.4183 38.7341 44.9256 64.49 57.0091 55.4666 76.5965 81.0122 58.7994 48.3306 47.2361 48.5844
threshold=21.500000000000004 0 69.500000000000014 1 16.500000000000004 2 1561.0000000000002 3 4 5 69.500000000000014 6 7 16.500000000000004 8 9 10 51.500000000000007 47.500000000000007 35.500000000000007 11 51.500000000000007 1756.0000000000002 61.500000000000007 12 11.500000000000002 8502.0000000000018 40.500000000000007 58.500000000000007 11.500000000000002 12.500000000000002
decision_type=2 9 2 9 2 9 2 9 9 9 2 1 9 2 9 9 9 2 2 2 9 2 2 2 9 2 2 2 2 2 2
left_child=1 -1 7 5 -5 -4 -6 9 -9 -2 11 13 -12 20 16 -16 -13 18 19 -18 -10 24 23 28 29 -26 -27 -28 -23 -22 -31
right_child=2 -3 3 4 6 -7 -8 8 10 -11 12 14 -14 -15 15 -17 17 -19 -20 -21 21 22 -24 -25 25 26 27 -29 -30 30 -32
leaf_value=0.023338556254364814 0.0014992134734205373 0.0038639901085796751 0.023016159022324324 -0.0039281760655747152 -0.029351326266876643 -0.0066905451168065193 0.041957271225561088 -0.011042158022336015 0.018580835418830349 -0.0071928266459496005 -0.010836336149302291 -0.028404948282222727 0.0061908713895861773 -0.025017235619892716 0.014344958729937692 -0.013377131142856963 0.012077457407978396 -0.0095662195614091266 0.019844075996958463 -0.011678455032833612 0.0006148923934827682 0.019318419781241658 -0.0057273952574945957 -0.0069832991738660493 0.025976301620949271 -0.012999253480201915 0.031260929057592868 -0.026229486100813083 -0.019125852788863262 0.035790963233434114 -0.0035638037821165108
leaf_weight=453.21572172991 2233.2625923177111 752.96151467657182 625.56556057743728 1099.610711861169 28.985022738575935 190.20975171495229 118.11911419034004 932.7910451926291 336.92201921157539 4373.4168493321049 448.60750011447817 127.10869292449206 4552.9759459382622 136.63526664534584 186.32567336410284 1695.6625637190882 367.85508079035208 614.44221580727026 512.33714752458036 540.70744727645069 1098.5093005259987 1240.1577598580043 715.08815106097609 311.49477470014244 164.42097836825997 1868.2761075105518 186.7755343914032 58.376360854599625 87.521524192765355 221.68991016969085 121.35060547385365
leaf_count=224 2047 642 319 1119 44 197 19 1084 195 4743 502 195 3719 201 122 2044 270 701 296 635 1017 701 744 343 77 2258 67 81 115 62 127
internal_value=0 0.011407 -0.00048382 0.00633919 -0.00017049 0.0160925 0.0279068 -0.00109215 0.00017547 -0.00425682 0.000853158 -0.000941037 0.00465436 0.00175546 -0.00529742 -0.0105712 -0.000680094 0.00118176 0.00583784 -0.00206026 0.00232883 0.0013944 0.00680175 0.0122676 -0.00202454 -0.00686564 -0.00945317 0.0175711 0.0167841 0.00563363 0.0218692
internal_weight=0 1206.18 25195.2 2062.49 1246.71 815.775 147.104 23132.7 16526 6606.68 15593.2 10591.7 5001.58 6547.22 4044.44 1881.99 2162.45 2035.34 1420.9 908.563 6410.58 6073.66 2354.26 1639.17 3719.4 2277.85 2113.43 245.152 1327.68 1441.55 343.041
internal_count=24910 866 24044 1698 1182 516 63 22346 15556 6790 14472 10251 4221 5988 4263 2166 2097 1902 1201 905 5787 5592 1903 1159 3689 2483 2406 148 816 1206 189
cat_boundaries=0 1 2 3 4 5 6 7 8 9 10 11 12 13
cat_threshold=40 114 1183760 50 369160 1077572 25 16548 3162352 1152 1042 38 1069440
is_linear=0
shrinkage=0.05


Tree=20
num_leaves=32
num_cat=15
split_feature=6 3 6 1 6 1 1 3 3 7 1 4 6 6 5 1 3 0 7 8 5 6 8 4 8 8 0 6 0 3 5
split_gain=59.5265 40.8228 38.0166 49.81 52.3117 45.0656 33.3829 45.8452 39.9415 38.8098 59.4239 42.1905 41.1876 62.9395 38.9723 37.0202 60.5258 55.6609 47.8369 38.3536 37.9889 38.1736 36.6747 37.7913 49.3952 49.8581 34.8658 43.0493 34.8597 33.2471 32.8799
threshold=21.500000000000004 0 69.500000000000014 1 78.500000000000014 2 3 4 5 62.500000000000007 6 7 41.500000000000007 37.500000000000007 4.5000000000000009 8 9 10 71.500000000000014 3432.0000000000005 7.5000000000000009 28.500000000000004 37.500000000000007 11 314.00000000000006 645.50000000000011 12 37.500000000000007 13 14 12.500000000000002
decision_type=2 9 2 9 2 9 9 9 9 2 9 1 2 2 2 9 9 9 2 2 2 2 2 1 2 2 9 2 9 9 2
left_child=1 30 6 -4 5 -5 8 9 -2 11 -11 28 13 15 -15 16 18 -17 -12 22 21 29 -20 -24 -25 -26 27 -9 -8 -19 -1
right_child=2 -3 3 4 -6 -7 7 26 -10 10 12 -13 -14 14 -16 17 -18 20 19 -21 -22 -23 23 24 25 -27 -28 -29 -30 -31 -32
leaf_value=0.0073152648150976414 0.001426770840092633 -0.0030780157897279201 0.033600449189806945 0.011663459015108095 -0.012814746454491805 -0.011441569502457116 -0.0036597335645365391 0.037542635721387337 -0.0067838529610688399 0.030711721993474148 -0.026324709660637914 0.0016088326471125015 -0.0040217658600412041 -0.0084813373244495491 0.024726226666417335 -0.017051076291264334 -0.011806171855272884 0.034390061904685736 -0.030945299091210993 -0.0019896143898752842 -0.0045264812774159641 -0.0020140901058664116 0.040921272981870982 -0.025878332382650915 0.039881676217966205 -0.0093417500514032595 -0.0056210967200705352 -0.017743070939976621 -0.020563683734554743 0.0067194669398576035 0.027244394325011335
leaf_weight=417.01090321899392 2229.9169651267002 364.9198198504746 142.44320068042725 1283.8047797605395 378.09593033790588 245.5273265093565 1666.3035151150543 104.35594271309674 4404.9874873267254 205.15658271312714 58.958625894039869 5507.5358289713622 1247.6452576545416 103.4518069177866 605.37062710791361 406.8464032150805 228.64930547168478 214.2161353379488 27.178848410025239 153.87688686978072 738.17343497974798 317.22173628769815 298.41328210756183 59.96441787853837 168.01201853109524 74.146785456687212 3673.8540084472625 53.141966282390058 367.67302617616951 244.15583477914333 410.88776737591252
leaf_count=336 2047 358 37 930 451 280 1690 24 4743 67 87 5056 1258 112 286 507 262 55 41 151 758 309 43 83 32 79 3891 70 500 195 172
internal_value=0 0.0109748 -0.00045603 0.00607041 0.00381835 0.0079555 -0.0010337 0.000170259 -0.00402636 0.00161754 0.00496403 -0.00066623 0.00382627 0.00648396 0.0198796 0.00330813 0.0107116 -0.000864659 0.0169038 0.020381 0.00356902 0.01132 0.0258649 0.0284359 0.0142769 0.0248099 -0.00461619 0.0177608 -0.00680104 0.0205479 0.0170008
internal_weight=0 1192.82 25209.1 2049.87 1907.43 1529.33 23159.2 16524.3 6634.9 12693 5151.44 7541.51 4946.28 3698.64 708.822 2989.81 1069.2 1920.61 840.551 781.592 1513.77 775.594 627.715 600.537 302.123 242.159 3831.35 157.498 2033.98 458.372 827.899
internal_count=24910 866 24044 1698 1661 1210 22346 15556 6790 11571 4325 7246 4258 3000 398 2602 778 1824 516 429 1317 559 278 237 194 111 3985 94 2190 250 508
cat_boundaries=0 1 2 3 4 5 6 7 8 9 10 11 12 13 14 15
cat_threshold=659472 64 30 50 3801335 1077572 1280 36 65 2228305 392 17 16 585 1048581
is_linear=0
shrinkage=0.05


Tree=21
num_leaves=32
num_cat=8
split_feature=6 1 3 0 6 6 6 5 8 8 1 8 1 3 0 6 6 6 5 8 8 8 7 6 8 8 8 1 6 7 5
split_gain=54.3012 40.3078 35.6911 36.6794 39.9354 35.5822 51.0355 51.2094 49.7529 66.4684 39.6741 38.5204 36.1839 52.4438 39.6863 49.0403 65.5122 37.6052 35.3912 39.4655 34.7541 41.5293 33.1919 37.651 32.6198 53.8578 88.7978 45.5841 44.8795 39.3041 31.5887
threshold=21.500000000000004 0 1 2 71.500000000000014 33.500000000000007 30.500000000000004 5.5000000000000009 314.00000000000006 559.50000000000011 3 3734.0000000000005 4 5 6 47.500000000000007 36.500000000000007 66.500000000000014 8.5000000000000018 34.500000000000007 43.500000000000007 2622.0000000000005 139.50000000000003 20.500000000000004 21.500000000000004 19.500000000000004 11.500000000000002 7 46.500000000000007 105.50000000000001 2.5000000000000004
decision_type=2 9 9 9 2 2 2 2 2 2 9 2 9 9 9 2 2 2 2 2 2 2 2 2 2 2 2 9 2 2 2
left_child=1 -1 -2 30 5 6 8 -8 -5 -10 -9 -11 14 -14 17 16 -16 24 -6 -20 -17 -22 23 -3 25 26 28 29 -7 -26 -4
right_child=2 22 3 4 18 12 7 10 9 11 -12 -13 13 -15 15 20 -18 -19 19 -21 21 -23 -24 -25 27 -27 -28 -29 -30 -31 -32
leaf_value=0.022386757128248228 -0.0023948733746736437 0.006968387228913419 0.0079783295265148674 -0.0098674120708074197 0.0030285430506384321 0.03833834625058638 0.025651096250813129 0.025790232009223452 0.027672367873159916 -0.0074993093780266439 -0.0066503801212405332 0.017371505799785587 0.0017991614518495479 -0.010313362692631053 0.020240143073520539 -0.020529307671609442 -0.01604901592680396 -0.026626146649409956 -0.026892352706028418 0.026015386881400954 0.022416042296667715 -0.008373423342026648 0.039632830581096616 -0.02010956184755875 -0.0050743953991406439 0.039151044728313295 -0.045584625425042435 0.016195620797245427 -0.026091817979809008 0.028495787481790182 -0.011245154701992237
leaf_weight=437.24917083187029 12042.705908361007 513.57591617852449 276.04804451018572 643.92293842509389 547.14079028600827 107.18891445174813 544.17234274186194 122.17805268231314 300.07660357654095 528.70200256630778 320.09487261576578 220.66602245345712 1839.5528838573955 1727.5917236678652 194.893409460783 61.676488016964868 343.68415143853053 133.11383134080097 38.365323334932327 433.61133110895753 804.81561100669205 126.77001857571304 57.875006884336472 171.16067589726299 2266.0257803751156 138.26216114684939 73.233534913510084 315.4016280900687 36.140548065304756 90.679907694458961 946.19729987368919
leaf_count=224 11905 413 218 735 480 25 246 53 128 554 358 130 1613 2024 106 85 411 193 57 201 410 133 8 221 2414 29 136 200 54 33 1113
internal_value=0 0.0105462 -0.000428356 0.00136922 0.00221408 0.00133398 0.00634023 0.0153807 0.00107382 0.0077872 0.00274411 -0.000175613 -0.000290406 -0.00407945 0.00259349 0.00917215 -0.00291717 -0.000614403 0.0116825 0.0217147 0.0158197 0.0182262 0.00322953 0.000199828 0.000527473 0.0147714 -0.000793534 -0.00136395 0.0220923 -0.00376672 -0.00684745
internal_weight=0 1179.86 25222.9 13180.2 11958 10938.8 2679.81 986.445 1693.37 1049.44 442.273 749.368 8259.03 3567.14 4691.89 1531.84 538.578 3160.05 1019.12 471.977 993.262 931.586 742.612 684.737 3026.93 354.825 216.563 2672.11 143.329 2356.71 1222.25
internal_count=24910 866 24044 12139 10808 10070 2204 657 1547 812 411 684 7866 3637 4229 1145 517 3084 738 258 628 543 642 634 2891 244 215 2647 79 2447 1331
cat_boundaries=0 1 2 3 4 5 6 7 8
cat_threshold=40 506505 1296 1 1868 3686400 579 1036
is_linear=0
shrinkage=0.05


Tree=22
num_leaves=32
num_cat=14
split_feature=6 1 6 1 6 3 8 7 6 3 0 3 8 1 0 3 6 8 7 8 0 8 7 3 1 8 6 5 1 3 8
split_gain=49.632 37.8178 32.1991 47.0604 46.7374 40.7776 51.0642 31.3326 35.5007 28.5081 37.4072 86.5268 37.1127 34.6922 44.2392 45.2293 42.8886 43.9021 32.1722 35.1565 31.4454 31.0975 28.46 45.0261 38.2394 27.835 27.7373 27.368 26.6345 35.3542 27.8786
threshold=21.500000000000004 0 69.500000000000014 1 78.500000000000014 2 9155.5000000000018 139.50000000000003 18.500000000000004 3 4 5 3432.0000000000005 6 7 8 48.500000000000007 1601.5000000000002 50.500000000000007 79.500000000000014 9 421.50000000000006 75.500000000000014 10 11 52.500000000000007 51.500000000000007 11.500000000000002 12 13 61.500000000000007
decision_type=2 9 2 9 2 9 2 2 2 9 9 9 2 9 9 9 2 2 2 2 9 2 2 9 9 2 2 2 9 9 2
left_child=1 -1 9 -4 5 6 -5 8 -3 13 11 12 21 14 15 26 17 -17 19 -18 -15 25 -12 -24 -25 -11 -2 -19 30 -30 -7
right_child=2 7 3 4 -6 28 -8 -9 -10 10 22 -13 -14 20 -16 16 18 27 -20 -21 -22 -23 23 24 -26 -27 -28 -29 29 -31 -32
leaf_value=0.021775901308653853 0.031554786681828505 0.027424155271475084 0.032948876785519207 -0.020247303347786971 -0.01212778773989069 0.030315375466963376 0.03523122547092418 0.039213699175038579 -0.0045671466192540571 0.029577922000975955 -0.0051227292025053505 -0.016872637442349275 -0.019723195852013296 -0.02086611368491444 0.0012153921263036633 -0.020830411694678197 0.028213293296102344 -0.007459659789781828 0.028253676611197737 -0.010385390133781211 -0.0013930939470716596 0.028513732674203065 -0.013613008183552986 0.0074277592945292794 -0.0054689606393313111 -0.011055757076671183 -0.0068754088326883414 0.036966493766095482 -0.0068666870503365646 0.019929250313310165 0.0099821012484546008
leaf_weight=427.56933403597213 338.84129733685404 101.87880116701126 136.6179073639214 226.34320810437202 382.27660825755447 274.32578164711595 50.782818619161844 55.626114338636398 582.76823981257621 66.104928387794644 7701.9045738105197 262.15914830053225 62.389566974656191 206.60564150754362 5108.4176925756037 234.36260786093771 89.504119651508518 69.614056695252657 234.52240132540464 173.05510360561311 4967.3224547630525 407.23685718793422 462.38765831245109 1730.5708244028501 850.84180307202041 116.28715023258701 54.505102777853608 69.052792083472013 342.57900603674352 179.55297239357606 437.30432223738171
leaf_count=224 109 43 37 299 451 105 14 8 591 27 8070 337 81 283 4773 301 38 71 95 189 4820 170 537 1367 875 135 52 16 360 101 331
internal_value=0 0.0101402 -0.000403265 0.00563564 0.00347224 0.00744225 -0.00972987 0.00308375 0.000193314 -0.000931483 -0.00267405 0.00698879 0.0166928 0.0008299 0.00329743 0.0116399 0.0051193 -0.0076362 0.0147945 0.00277256 -0.00220944 0.0208291 -0.00350184 0.000588085 0.00317226 0.00367123 0.0255793 0.0146635 0.0112868 0.00254937 0.0175734
internal_weight=0 1167.84 25235.5 2029.78 1893.16 1510.89 277.126 740.273 684.647 23205.7 11659.9 914.178 652.019 11545.8 6371.88 1263.46 870.111 373.029 497.082 262.559 5173.93 589.629 10745.7 3043.8 2581.41 182.392 393.346 138.667 1233.76 522.132 711.63
internal_count=24910 866 24044 1698 1661 1210 313 642 634 22346 11599 750 413 10747 5644 871 710 388 322 227 5103 332 10849 2779 2242 162 161 87 897 461 436
cat_boundaries=0 1 2 3 4 5 6 7 8 9 10 11 12 13 14
cat_threshold=40 64 149664 3686518 272 135296 1868 12 2113570 256 368776 263 26 1052689
is_linear=0
shrinkage=0.05


Tree=23
num_leaves=32
num_cat=10
split_feature=6 3 1 3 8 8 3 0 4 3 6 0 7 8 8 8 8 5 7 0 5 5 7 5 8 8 6 6 3 6 8
split_gain=45.3555 36.5988 30.2919 46.1955 47.2091 42.7923 36.8281 34.4746 35.2716 65.2005 57.5362 35.4887 35.2702 43.8613 31.7438 30.8548 32.8528 30.3713 32.5699 31.2767 29.9398 40.8289 35.6629 31.4178 26.6676 55.0532 60.6452 75.086 35.5189 34.9941 33.3931
threshold=21.500000000000004 0 1 2 176.50000000000003 645.50000000000011 3 4 5 6 34.500000000000007 7 105.50000000000001 10.500000000000002 19.500000000000004 47.500000000000007 601.00000000000011 11.500000000000002 65.500000000000014 8 12.500000000000002 1.5000000000000002 99.500000000000014 15.500000000000002 71.500000000000014 34.500000000000007 69.500000000000014 36.500000000000007 9 30.500000000000004 4073.0000000000005
decision_type=2 9 9 9 2 2 9 9 1 9 2 9 2 2 2 2 2 2 2 9 2 2 2 2 2 2 2 2 9 2 2
left_child=1 20 3 4 -2 -6 -4 -5 9 -9 -11 14 13 -13 -12 -15 -17 19 -19 -7 21 -1 -22 -24 25 28 27 -27 -8 -30 -26
right_child=2 -3 6 7 5 17 24 8 -10 10 11 12 -14 15 -16 16 -18 18 -20 -21 22 -23 23 -25 30 26 -28 -29 29 -31 -32
leaf_value=0.034615819973699391 -0.010627401989915828 -0.0035254720941273118 -0.0061435754989132511 -0.014208763951738857 0.022426575058100803 0.01289124363958883 -0.029014471607149851 -0.011626906293195119 -0.0022210069660377136 -0.0098888791918009256 -0.0090289769563997278 0.033060936446061361 0.038513865032015267 -0.01803528927504458 0.023656748820645876 0.028353588002461794 -0.0030296729842324141 0.026288725836693245 -0.026429481453816753 -0.0082539596186533351 -0.015682072911327921 -0.0024711586357686324 0.036987621936281523 -0.009638808436284254 -0.0026144025587158041 0.018939766403858714 0.028794816497409982 -0.0049621632803000647 -0.032613575076212667 0.0014015942724036538 0.0056105884140619537
leaf_weight=97.502759367227554 262.25765084743034 361.78560438752174 3498.8609582746285 386.36333817243576 629.22904949821532 282.38382185995579 121.62145889177918 440.29032992664725 3456.995573044871 320.59374458529055 82.163037306629121 100.35973979631672 74.002264292445034 213.12469095177948 774.39188594557345 113.18273284286261 316.8037640620023 240.39197269175202 33.364088701084256 425.16355196619406 45.674562927335501 310.64684898790438 299.71462367661297 41.080632879631594 9356.7535989627941 561.81161690037698 332.465879868716 791.45356496411841 82.310927964746952 929.04282306175446 1421.5101695064222
leaf_count=28 295 358 3669 482 324 187 185 511 3412 369 94 33 17 283 396 46 322 108 48 459 56 308 69 47 9299 331 136 837 131 879 1191
internal_value=0 0.00974594 -0.000380458 0.00212632 0.00899702 0.0122485 -0.00157598 6.57661e-05 0.00102431 0.00562213 0.00946867 0.0132324 0.00552726 0.00231824 0.0202846 -0.00247926 0.00523115 0.00572216 0.0198637 0.000250681 0.0156359 0.00638854 0.0258066 0.0313671 -0.000396966 0.00393277 0.00966142 0.00496079 -0.00459078 -0.00135341 -0.00152964
internal_weight=0 1156.41 25246.9 8151.06 1872.79 1610.53 17095.8 6278.27 5891.91 2434.91 1994.62 1674.03 817.473 743.471 856.555 643.111 429.986 981.303 273.756 707.547 794.619 408.15 386.47 340.795 13597 2818.71 1685.73 1353.27 1132.98 1011.35 10778.3
internal_count=24910 866 24044 7386 1421 1126 16658 5965 5483 2071 1560 1191 701 684 490 651 368 802 156 646 508 336 172 116 12989 2499 1304 1168 1195 1010 10490
cat_boundaries=0 1 2 3 4 5 6 7 8 9 10
cat_threshold=659472 1860 3146148 361389 768 9 616456 208 540 673792
is_linear=0
shrinkage=0.05


Tree=24
num_leaves=32
num_cat=13
split_feature=6 1 7 7 3 6 5 7 1 0 5 0 7 6 6 8 2 8 4 7 8 6 0 4 6 5 1 3 3 1 6
split_gain=41.3909 34.5148 28.4824 33.155 28.2567 34.0225 43.3169 25.8482 25.6533 42.1338 41.3969 28.4296 27.2563 28.6813 29.4455 26.7399 23.361 34.9911 22.0102 21.8355 21.9643 31.6314 21.6543 28.8223 33.7618 33.8307 79.4182 84.0519 55.5658 61.9073 55.491
threshold=21.500000000000004 0 139.50000000000003 105.50000000000001 1 77.500000000000014 13.500000000000002 99.500000000000014 2 3 4.5000000000000009 4 75.500000000000014 72.500000000000014 73.500000000000014 323.50000000000006 5 3543.0000000000005 6 111.00000000000001 132.50000000000003 20.500000000000004 7 8 79.500000000000014 10.500000000000002 9 10 11 12 69.500000000000014
decision_type=2 9 2 2 9 2 2 2 9 9 2 9 2 2 2 2 1 2 1 2 2 2 9 1 2 2 9 9 9 9 2
left_child=1 19 3 7 5 8 -7 -3 9 -2 16 -12 13 -11 -15 -14 18 -18 -10 20 -1 -22 -6 24 25 28 27 -27 -24 -30 -31
right_child=4 2 -4 -5 22 6 -8 -9 10 12 11 -13 15 14 -16 -17 17 -19 -20 -21 21 -23 23 -25 -26 26 -28 -29 29 30 -32
leaf_value=0.036253877979018766 0.030641569318603758 -0.0097559445715956622 0.038421572435429902 -0.028442256797287492 -0.0058181203423116534 -0.0068870986201697258 0.046924756661914716 0.012038897658031816 0.0010763815351246208 -0.0024399668910954279 -0.0022576935942288019 -0.019742342635746993 -0.032646010937183299 0.045346736163201964 -0.016937497150679971 0.021403019501009399 -0.009995209919421856 0.018696190119068059 0.020422044464117679 -0.021374645135675843 -0.009699747539192588 0.031108738077080141 -0.0068856458194442999 -0.002930519220292113 -0.02457391150559891 0.016236229037744614 -0.0083207937409125014 -0.024145547027067775 0.011257237745659822 -0.00025474024001946388 0.018587252283739777
leaf_weight=192.78164410404861 168.21692518796772 211.69442015723325 51.820508152246475 89.23761623352766 2148.7971665066434 60.646439921110868 97.553257130086422 380.65280166454613 260.83033333811909 866.70535285980441 776.48706378857605 327.67147864867002 24.804584886878729 64.470877379179001 26.890757463872433 295.48573906830279 373.36314082937315 148.54421930387616 353.44634891441092 28.021155226975679 87.94007078721188 103.22232668334618 1224.0547247796785 7599.0317259015283 127.39039415773004 740.80476263246965 2175.3269104248611 147.12339398590848 2349.1503202244639 4472.214935327298 428.1701221363619
leaf_count=50 55 239 8 131 2285 66 6 264 225 846 761 436 37 6 29 147 417 84 183 39 99 36 1309 7656 174 460 2435 213 1733 4230 251
internal_value=0 0.00935813 0.00265033 -3.04556e-05 -0.000359935 0.00358117 0.0262958 0.00424981 0.00261624 0.00777764 -0.000747829 -0.00764571 0.00455453 0.000368815 0.0270144 0.0172172 0.00594904 -0.00182912 0.0125576 0.0207322 0.0243452 0.0123357 -0.00106884 -0.00053632 0.00102463 0.00130818 -0.00319505 0.00935087 0.00293612 0.00459765 0.00138874
internal_weight=0 1145.37 733.405 681.585 25257.2 3845.12 158.2 592.347 3686.92 1446.57 2240.34 1104.16 1278.36 958.067 91.3616 320.29 1136.18 521.907 614.277 411.965 383.944 191.162 21412.1 19263.3 11664.2 11536.8 3063.26 887.928 8473.59 7249.54 4900.39
internal_count=24910 866 642 634 24044 3298 72 503 3226 1120 2106 1197 1065 881 35 184 909 501 408 224 185 135 20746 18461 10805 10631 3108 673 7523 6214 4481
cat_boundaries=0 1 2 3 4 5 6 7 8 9 10 11 12 13
cat_threshold=40 3145986 1364 516 1097 1 20 1536 25 65 657488 829952 772
is_linear=0
shrinkage=0.05


Tree=25
num_leaves=32
num_cat=15
split_feature=6 3 5 5 7 5 3 6 5 1 7 2 7 4 0 5 3 4 6 6 0 1 0 3 6 6 3 2 6 3 5
split_gain=37.7741 32.8532 27.3811 37.0107 33.0523 29.78 25.7203 37.6626 34.5267 24.6071 39.5171 27.7327 24.0303 23.1819 23.0065 25.0835 22.8007 20.8208 33.9382 32.3019 43.5359 31.7629 49.2842 67.5987 34.3845 64.3423 30.9629 27.7474 27.078 41.0756 28.2123
threshold=21.500000000000004 0 12.500000000000002 7.5000000000000009 99.500000000000014 15.500000000000002 1 77.500000000000014 13.500000000000002 2 59.500000000000007 3 63.500000000000007 4 5 15.500000000000002 6 7 79.500000000000014 69.500000000000014 8 9 10 11 61.500000000000007 60.500000000000007 12 13 28.500000000000004 14 7.5000000000000009
decision_type=2 9 2 2 2 2 9 2 2 9 2 1 2 1 9 2 9 1 2 2 9 9 9 9 2 2 9 1 2 9 2
left_child=1 2 3 -1 -4 -6 7 9 -9 10 -2 12 -12 -3 15 -11 -15 18 19 21 -21 22 23 -8 25 28 -23 -27 29 30 -24
right_child=6 13 4 -5 5 -7 17 8 -10 14 11 -13 -14 16 -16 -17 -18 -19 -20 20 -22 26 24 -25 -26 27 -28 -29 -30 -31 -32
leaf_value=0.01950174731344214 -0.00096219163576177508 0.014298493152936399 -0.014800721849063806 -0.010956864088316136 0.03617637299021844 -0.0092633166081806471 0.021340531335461117 -0.0055306845052318461 0.046777012333451579 0.0043362300211138094 0.030938330423608985 0.035497281054225609 -0.021549463492922756 0.0044885983903981798 -0.007039802038089191 -0.031974475720288109 -0.025535963058158147 -0.0028553279868893458 -0.024035016599390575 0.016997797757366224 -0.0069712126298612622 0.0075335512234657584 0.022759988969778822 -0.013031567284886525 -0.013173270547377573 0.03640096777730667 -0.0057159725239683892 -0.012777739461153485 -0.0010606919899034048 -0.0043789862113026946 0.0026522396508820586
leaf_weight=222.96359298750758 289.43025197274983 114.64459934458137 46.295780744403601 180.45547792885918 282.12566923722625 41.340919379144907 609.34155897516757 47.721363291144371 93.08133664727211 1881.1412245378015 39.345975980162621 199.96250657178462 48.917208341881633 114.14471581950784 714.93239149590954 48.795676471665502 132.97825326956809 8740.3004438027856 141.82478050328791 612.68571801669896 269.08831784222275 502.1690328628174 436.85738424770534 181.17405037814751 442.43395579047501 176.48314313590527 3253.8755396308261 34.247808534651995 5745.1238559441408 468.12586833327077 290.40444407239556
leaf_count=126 275 75 56 210 69 47 332 50 6 1567 12 50 61 94 760 76 189 8805 194 371 296 403 219 222 536 43 3442 43 5556 468 257
internal_value=0 0.00898494 0.0146953 0.00587715 0.0247135 0.0303689 -0.000339441 0.00372522 0.0290487 0.00263032 0.0118825 0.0251931 0.00184855 -0.00352807 0.000562538 0.00340055 -0.0120326 -0.00096482 0.000291621 0.000556791 0.00979696 -0.000114344 0.00159749 0.0133986 0.000352964 0.0011903 -0.00392926 0.0284085 0.000363889 0.00721054 0.0145309
internal_weight=0 1134.95 773.181 403.419 369.762 323.467 25267.5 3363.33 140.803 3222.53 577.656 288.226 88.2632 361.768 2644.87 1929.94 247.123 21904.1 13163.8 13022 881.774 12140.2 8384.19 790.516 7593.68 7151.24 3756.04 210.731 6940.51 1195.39 727.262
internal_count=24910 866 508 336 172 116 24044 2857 56 2801 398 123 73 358 2403 1643 283 21187 12382 12188 667 11521 7676 554 7122 6586 3845 86 6500 944 476
cat_boundaries=0 1 2 3 4 5 6 7 8 9 10 11 12 13 14 15
cat_threshold=659472 3145730 1360 1 4 89 1048577 25 200 845 260 135344 24644 1 2165
is_linear=0
shrinkage=0.05


Tree=26
num_leaves=32
num_cat=12
split_feature=6 3 5 5 5 7 6 3 1 8 8 8 3 8 8 5 4 5 3 3 8 1 8 8 4 6 3 0 8 0 6
split_gain=34.447 32.3923 24.7206 33.7711 30.9184 28.6106 24.1076 39.8962 32.9993 46.8383 43.6264 32.3922 56.2483 31.8797 31.3386 30.9455 25.3133 33.9206 62.1488 45.5058 44.7207 42.7804 73.8946 60.2941 69.8953 54.532 43.0239 38.8567 35.4221 33.6565 53.2492
threshold=21.500000000000004 0 12.500000000000002 1.5000000000000002 15.500000000000002 99.500000000000014 71.500000000000014 1 2 3860.5000000000005 50.500000000000007 64.500000000000014 3 1561.0000000000002 37.500000000000007 12.500000000000002 4 8.5000000000000018 5 6 2622.0000000000005 7 3789.0000000000005 37.500000000000007 8 40.500000000000007 9 10 23.500000000000004 11 39.500000000000007
decision_type=2 9 2 2 2 2 2 9 9 2 2 2 9 2 2 2 1 2 9 9 2 9 2 2 1 2 9 9 2 9 2
left_child=1 2 3 -1 5 -4 16 8 10 11 -8 14 -13 -12 -10 -14 17 19 21 20 27 22 23 -19 25 -25 -26 -2 -29 30 -21
right_child=6 -3 4 -5 -6 -7 7 -9 9 -11 13 12 15 -15 -16 -17 -18 18 -20 29 -22 -23 -24 24 26 -27 -28 28 -30 -31 -32
leaf_value=0.032737541299280068 -0.0074481034844886681 -0.0042948033760566674 -0.010956410833477058 -0.0014243934498324581 -0.011925099660635959 0.035500148357001764 -0.032212703872221714 -0.0090339875172408251 -0.010873199292735723 0.027307772349253974 0.032484113015534687 -0.024131099719329505 -0.0065918502765936584 -0.012033642594538605 0.025446142970891841 0.035546625629878911 -0.0028147558356541773 -0.02644900527084873 -0.014650164767713907 -0.0066532412899721859 -0.00060638840399156364 -0.0030280910865493611 -0.029846928962325117 0.037006587479780209 0.024120466300305211 0.0026958351758936466 -0.0098639809126462204 -0.015796690571960103 0.01755952778106808 -0.0020665776328714926 0.012096402001406993
leaf_weight=92.686681041494012 206.71733730891719 340.86230738647282 37.731880363076925 329.61011070630047 51.675330529920757 272.41657999157906 34.057996727526188 359.27879820764065 92.815887482836843 174.06841164454818 322.56430680863559 261.81574279488996 96.303619327722117 45.94281218200922 164.94353535026312 79.566194832324982 8979.9118622384267 93.526396635919809 877.08203951176256 556.89664485119283 975.17332350835204 3491.9174983464763 117.09905545634683 407.89900341629982 121.37794524803758 161.71937677077949 309.89185682451352 84.350746832787991 1410.2754015680403 4668.6251597952214 1183.2649760446511
leaf_count=30 223 341 43 321 61 70 52 392 109 70 111 369 105 53 80 22 9001 141 1071 598 912 3525 182 103 33 145 357 102 854 4586 848
internal_value=0 0.00862159 0.0141112 0.00607355 0.0238823 0.0298484 -0.000320278 0.00555848 0.00967486 0.00406551 0.0213985 -0.00169352 -0.00997456 0.026934 0.012368 0.0118012 -0.000725863 0.000554711 -0.00251309 0.00243967 0.00790088 -0.000218194 0.00783919 0.0119431 0.0155306 0.0267951 3.05712e-05 0.0128235 0.0155728 0.000146342 0.0060612
internal_weight=0 1124.98 784.121 422.297 361.824 310.148 25277.1 1631.36 1272.08 869.513 402.565 695.445 437.686 368.507 257.759 175.87 23645.7 14665.8 5580.51 9085.3 2676.52 4703.43 1211.51 1094.41 1000.89 569.618 431.27 1701.34 1494.63 6408.79 1740.16
internal_count=24910 866 525 351 174 113 24044 1363 971 755 216 685 496 164 189 127 22681 13680 5557 8123 2091 4486 961 779 638 248 390 1179 956 6032 1446
cat_boundaries=0 1 2 3 4 5 6 7 8 9 10 11 12
cat_threshold=659476 1222928 66 1179664 25 1743312 2183271 1089 17 557056 1664 406
is_linear=0
shrinkage=0.05


Tree=27
num_leaves=32
num_cat=12
split_feature=7 3 5 8 3 8 0 1 0 8 8 5 8 3 7 6 6 1 0 0 1 7 3 3 8 6 6 5 6 8 5
split_gain=32.5989 59.9014 50.5155 46.9748 35.0447 45.0889 42.433 37.4111 40.542 34.194 75.1969 33.831 33.3078 42.9671 40.0238 35.3384 30.5823 29.5324 52.5621 34.0591 29.4122 28.5263 26.6309 26.5153 25.8406 37.4317 24.9951 46.5075 27.7433 27.7731 24.9566
threshold=96.500000000000014 0 11.500000000000002 16836.500000000004 1 8502.0000000000018 2 3 4 36.500000000000007 43.500000000000007 15.500000000000002 11.500000000000002 5 56.500000000000007 43.500000000000007 46.500000000000007 6 7 8 9 50.500000000000007 10 11 1601.5000000000002 55.500000000000007 24.500000000000004 6.5000000000000009 30.500000000000004 1251.5000000000002 16.500000000000004
decision_type=2 9 2 2 9 2 9 9 9 2 2 2 2 9 2 2 2 9 9 9 9 2 9 9 2 2 2 2 2 2 2
left_child=3 2 -2 4 5 17 21 9 12 -6 -11 -4 16 20 15 -15 -9 18 -1 -19 -14 -7 -10 -12 -16 -26 27 -24 29 -28 -30
right_child=1 -3 11 -5 7 6 -8 8 22 10 23 -13 13 14 24 -17 -18 19 -20 -21 -22 -23 26 -25 25 -27 28 -29 30 -31 -32
leaf_value=0.033603312217565427 0.0022787041516169303 -0.007113642705187783 0.021945253937471834 -0.018523033809313787 -0.016702987585577686 -0.023588178776249212 -0.0016819824350737646 0.034348800639978881 0.017387378079348401 0.026134232269069718 -0.0096858863709350044 -0.0024334018651739836 -0.00096068472301774881 -0.032927602821893359 0.021533463980401436 0.001325002843161767 -0.026508891167697519 -0.013141026027709647 -0.0027222088037322113 -0.003540563079590363 -0.011958120142396961 0.035303168788661091 0.03194034834776889 -0.00070869063399938955 -0.015088393026619113 0.02837115633717846 -0.019615992963881876 -0.0079039623101004614 0.0035286789443855558 0.0042097220881769397 0.017746867967635357
leaf_weight=127.22283571586013 1165.0982861858793 744.63580911513418 810.91448899637908 358.27368764812127 392.03641389077529 23.101536575704813 290.87855252349982 108.61787384003401 385.55237376783043 236.7407598849386 1054.7408267520368 172.59990145452321 1259.6061737538548 92.249139520339668 402.2266695164144 409.86134984280216 25.487234193831682 1161.187810429954 363.65657489281148 4516.4746209041914 1181.1271664004307 187.11516157351434 204.876599451527 3642.2339190531056 141.34624619589886 76.287017971277237 252.81547038955614 113.98183695366606 5938.0709183108993 236.94986189156771 325.54977814666927
leaf_count=32 1006 766 416 453 499 34 281 34 225 110 1173 170 1249 146 218 377 37 1403 367 4609 1404 52 71 3485 172 30 335 127 5220 204 205
internal_value=0 0.00506781 0.0092794 -0.00055668 -0.000278629 -0.00333374 0.0110852 0.00095922 0.00260469 -0.00248557 -0.00136089 0.017667 -0.00167518 -0.0026005 0.00547587 -0.00496798 0.0227825 -0.00451045 0.00717532 -0.00552369 -0.00630968 0.0275221 0.0047256 -0.00274672 0.0140241 0.000145489 0.00401175 0.0176973 0.00337154 -0.00808904 0.00426766
internal_weight=0 2893.25 2148.61 23508.3 23150 6669.64 501.095 16480.4 11154.6 5325.75 4933.72 983.514 3696.81 3562.7 1121.97 502.11 134.105 6168.54 490.879 5677.66 2440.73 210.217 7457.8 4696.97 619.86 217.633 7072.24 318.858 6753.39 489.765 6263.62
internal_count=24910 2358 1592 22552 22099 6778 367 15321 10054 5267 4768 586 3667 3596 943 523 71 6411 399 6012 2653 86 6387 4658 420 202 6162 198 5964 539 5425
cat_boundaries=0 1 2 3 4 5 6 7 8 9 10 11 12
cat_threshold=2755345 502344 524 3 1537 544944 320 128 1668 56 2097186 2097571
is_linear=0
shrinkage=0.05


Tree=28
num_leaves=32
num_cat=10
split_feature=7 3 5 8 5 3 6 8 8 5 7 6 3 8 0 6 8 4 3 1 7 0 0 5 6 6 1 6 8 6 6
split_gain=29.5518 54.5077 47 41.5532 32.5206 50.556 32.2006 40.5661 71.1319 31.7217 31.6148 31.1127 54.1716 40.4215 38.7843 38.0792 36.4996 31.3342 68.2277 60.7695 47.1187 45.8608 41.2264 74.1692 39.0747 31.2738 28.2222 38.6982 33.3139 29.2615 46.6795
threshold=96.500000000000014 0 11.500000000000002 16836.500000000004 7.5000000000000009 1 71.500000000000014 3319.0000000000005 3022.0000000000005 15.500000000000002 50.500000000000007 33.500000000000007 2 59.500000000000007 3 30.500000000000004 2254.5000000000005 4 5 6 54.500000000000007 7 8 6.5000000000000009 62.500000000000007 23.500000000000004 9 63.500000000000007 43.500000000000007 38.500000000000007 34.500000000000007
decision_type=2 9 2 2 2 9 2 2 2 2 2 2 9 2 9 2 2 1 9 9 2 9 9 2 2 2 9 2 2 2 2
left_child=3 2 -2 4 11 -6 7 8 26 -4 -8 12 13 -1 15 -15 -14 18 21 20 -20 -13 23 -19 -24 -18 28 -28 -7 30 -30
right_child=1 -3 9 -5 5 6 10 -9 -10 -11 -12 17 16 14 -16 -17 25 22 19 -21 -22 -23 24 -25 -26 -27 27 -29 29 -31 -32
leaf_value=-0.010474726528648629 0.0021698375282310721 -0.0067141254724780962 0.021322780139164731 -0.01726546215925669 -0.0083482246059933055 -0.040281345761274699 0.017053665498548459 -0.012701063609370343 0.020411747775462175 -0.0023059655264888916 -0.014176689233896565 -0.01758773995765715 -0.01102182989214376 0.010031784246206767 -0.0063163713164361259 0.027036942797567243 0.034021621438870546 -0.0040332388231002127 0.015910940697243321 -0.0090921445030029014 -0.01559183439224001 0.011625960395228624 -0.0052831540760726117 0.038196057412939514 0.0047019632514995599 0.0011923055977181669 -0.0015199643713611122 -0.022432178432697136 -0.0087759673460034906 0.0013115926247384885 0.0418649319788129
leaf_weight=186.85491660889238 1162.4463958765846 749.95176989398897 793.31260538520291 364.97184777865186 2641.3231710832333 30.460334554314613 447.69775438029319 689.78096224926412 402.186647354858 173.02041742717847 98.945584032684565 136.47626884840429 601.42411426454782 774.36531535629183 202.19406954664737 572.65894138254225 90.747631818056107 259.0997747220099 545.62960678036325 1375.9710240229033 151.69571208208799 2003.079698407324 4706.6779025364085 173.67078606039286 1237.3604693736415 361.62330936989747 4787.4644901052234 231.94111258350313 64.652275154367089 230.03422394441441 153.65575347095728
leaf_count=215 1006 766 416 453 2946 55 284 824 222 170 120 180 694 577 221 249 28 269 355 1548 187 1445 4879 38 1058 326 4741 323 73 218 24
internal_value=0 0.00484122 0.00890179 -0.000525783 -0.000261961 -0.00245373 -0.000260122 -0.00122777 0.000113508 0.0170921 0.0114008 0.00133984 0.00603735 0.0114277 0.0141432 0.017134 -0.00292373 0.000102275 0.00344379 -0.00301694 0.00892979 0.00968935 -0.0021074 0.0126217 -0.00319919 0.00777801 -0.00137128 -0.00248135 0.0101066 0.0137554 0.0268675
internal_weight=0 2878.73 2128.78 23522.6 23157.7 9778.14 7136.82 6590.18 5900.39 966.333 546.643 13379.5 2789.87 1736.07 1549.22 1347.02 1053.8 10589.7 4212.85 2073.3 697.325 2139.56 6376.81 432.771 5944.04 452.371 5498.21 5019.41 478.803 448.342 218.308
internal_count=24910 2358 1592 22552 22099 9830 6884 6480 5656 586 404 12269 2310 1262 1047 826 1048 9959 3715 2090 542 1625 6244 307 5937 354 5434 5064 370 315 97
