tree
version=v3
num_class=1
num_tree_per_iteration=1
label_index=0
max_feature_idx=29
objective=binary sigmoid:1
feature_names=Column_0 Column_1 Column_2 Column_3 Column_4 Column_5 Column_6 Column_7 Column_8 Column_9 Column_10 Column_11 Column_12 Column_13 Column_14 Column_15 Column_16 Column_17 Column_18 Column_19 Column_20 Column_21 Column_22 Column_23 Column_24 Column_25 Column_26 Column_27 Column_28 Column_29
feature_infos=[7.6909999999999998:28.109999999999999] [9.7100000000000009:39.280000000000001] [47.920000000000002:188.5] [170.40000000000001:2501] [0.052630000000000003:0.16339999999999999] [0.019380000000000001:0.34539999999999998] [0:0.42680000000000001] [0:0.20119999999999999] [0.106:0.30399999999999999] [0.049959999999999997:0.097439999999999999] [0.1115:2.8730000000000002] [0.36020000000000002:4.8849999999999998] [0.75700000000000001:21.98] [6.8019999999999996:542.20000000000005] [0.0017129999999999999:0.031130000000000001] [0.0022520000000000001:0.13539999999999999] [0:0.39600000000000002] [0:0.052789999999999997] [0.0078820000000000001:0.078950000000000006] [0.00089479999999999996:0.029839999999999998] [8.6780000000000008:36.039999999999999] [12.02:49.539999999999999] [54.490000000000002:251.19999999999999] [223.59999999999999:4254] [0.071169999999999997:0.22259999999999999] [0.027289999999999998:1.0580000000000001] [0:1.252] [0:0.29099999999999998] [0.1565:0.66379999999999995] [0.055039999999999999:0.20749999999999999]
tree_sizes=1137 1254 1673 1578 1790 1992 2400 2518 2321 2412 2427 2413 2312 2727 2416 2529 2204 2532 2529 2514 2539 2620 2751 2732 2720 2850 2620 2749 2762 2764 3073 3160 2854 2645 2649 3266 2859 3280 3086

Tree=0
num_leaves=10
num_cat=0
split_feature=27 23 20 13 21 0 1 0 0
split_gain=348.912 59.4329 12.2423 8.81066 2.10618 2.83541 0.18319 2.84217e-14 2.84217e-14
threshold=0.14235000000000003 963.25000000000011 16.275000000000002 35.490000000000009 30.080000000000002 12.550000000000002 17.525000000000002 13.675000000000002 16.715000000000003
decision_type=2 2 2 2 2 2 2 2 2
left_child=1 3 -2 4 7 -6 -4 -1 -8
right_child=2 -3 6 -5 5 -7 8 -9 -10
leaf_value=0.64741641089713009 0.37479464780218086 0.28116697158775383 0.24454202765681621 0.49898900654543549 0.64741641089713009 0.5413968363602053 0.22333811274943133 0.64741641089713009 0.22333811274943127
leaf_weight=49.754962921142578 6.6025543212890616 5.1877212524414054 4.7161102294921866 4.7161102294921866 5.4235267639160138 4.7161102294921875 10.139636993408205 9.6680259704589826 19.807662963867188
leaf_count=211 28 22 20 20 23 20 43 41 84
internal_value=0.485902 0.608406 0.249994 0.631261 0.640229 0.598105 0.226223 0.647416 0.223338
internal_weight=0 79.4665 41.266 74.2787 69.5626 10.1396 34.6634 59.423 29.9473
internal_count=512 337 175 315 295 43 147 252 127
shrinkage=1


Tree=1
num_leaves=11
num_cat=0
split_feature=7 27 20 9 13 21 21 20 27 1
split_gain=282.741 27.2669 23.0765 19.3348 2.60242 1.15572 0.320342 0.0829984 0.0077935 0.000117049
threshold=0.05012500000000001 0.14655000000000004 16.850000000000005 0.062485000000000006 32.850000000000009 23.795000000000005 30.080000000000002 16.850000000000005 0.11370000000000001 19.550000000000001
decision_type=2 2 2 2 2 2 2 2 2 2
left_child=2 3 4 -2 6 -3 8 -7 -1 -9
right_child=1 5 -4 -5 -6 7 -8 9 -10 -11
leaf_value=0.15233962738620296 -0.16812081807228982 -0.17915992231796485 -0.083427512214327815 0.1150880468759523 0.072092557062685733 -0.23923888241138602 0.13198603823735233 -0.22555913331835875 0.15665345086472185 -0.22502432749063173
leaf_weight=47.812419712543488 5.0396891385316831 5.8947203755378714 4.7735809981822959 4.6208778023719788 4.6408763080835334 4.8613587021827689 8.6893112957477552 4.9357295036315945 4.5900646597146979 23.950100004673004
leaf_count=212 21 24 20 20 20 20 38 20 20 97
internal_value=0 -0.183302 0.128868 -0.0326553 0.144285 -0.220014 0.149769 -0.22715 0.152717 -0.225116
internal_weight=0 49.3025 70.5063 9.66057 65.7327 39.6419 61.0918 33.7472 52.4025 28.8858
internal_count=512 202 310 41 290 161 270 137 232 117
shrinkage=0.1


Tree=2
num_leaves=15
num_cat=0
split_feature=7 22 20 21 13 21 17 27 20 27 1 1 0 0
split_gain=232.07 22.6068 19.9502 7.71258 2.43271 0.316335 0.20848 0.0765375 0.0218598 0.00501787 0.00221218 6.61881e-08 1.42109e-14 7.10543e-15
threshold=0.05012500000000001 103.25000000000001 16.850000000000005 22.010000000000002 32.850000000000009 30.080000000000002 0.021440000000000004 0.14910000000000004 17.290000000000003 0.11370000000000001 18.880000000000006 20.675000000000004 13.795000000000002 17.715000000000003
decision_type=2 2 2 2 2 2 2 2 2 2 2 2 2 2
left_child=2 -2 4 -3 5 9 7 -5 -9 12 -10 -12 -1 -13
right_child=1 3 -4 6 -6 -7 -8 8 10 -11 11 13 -14 -15
leaf_value=0.14494385739989232 0.031856642689812878 -0.067057243655486917 -0.073929314120407139 -0.21468727772790444 0.066284763110108225 0.12419856926385311 -0.18166390747202035 -0.20757258524787497 -0.20218610585660746 0.14849216686319308 -0.19981817885691205 -0.19983152139057259 0.14494385739989232 -0.19983152139057259
leaf_weight=40.646608620882034 5.3212205171585074 4.8404564857482901 4.8440699577331534 5.2082677483558646 4.5477368980646125 8.3294022232294065 4.9966853708028784 4.986987546086314 4.9984499514102962 4.3694090843200675 4.9999957531690624 5.7499958872795096 4.7064494192600241 8.7499937415122968
leaf_count=190 23 20 20 21 20 38 20 20 20 20 20 23 22 35
internal_value=0 -0.162949 0.121587 -0.186228 0.136717 0.142234 -0.200761 -0.203512 -0.201538 0.145256 -0.200309 -0.199828 0.144944 -0.199832
internal_weight=0 49.8521 67.4437 44.5308 62.5996 58.0519 39.6904 34.6937 29.4854 49.7225 24.4984 19.5 45.3531 14.5
internal_count=512 202 310 179 290 270 159 139 118 232 98 78 212 58
shrinkage=0.1


Tree=3
num_leaves=14
num_cat=0
split_feature=7 21 20 20 13 21 27 21 27 18 18 7 25
split_gain=193.29 19.7892 17.397 7.24541 2.3184 0.320501 0.0667229 0.0154451 0.00330554 0.000758514 0.000189555 0.000113307 6.49099e-05
threshold=0.05012500000000001 21.185000000000006 16.850000000000005 15.780000000000001 32.850000000000009 30.080000000000002 0.14840000000000003 24.950000000000003 0.11370000000000001 0.024275000000000001 0.014020000000000001 0.086390000000000008 0.41460000000000008
decision_type=2 2 2 2 2 2 2 2 2 2 2 2 2
left_child=2 -2 4 -3 5 8 -5 -8 -1 10 -9 -12 -13
right_child=1 3 -4 6 -6 -7 7 9 -10 -11 11 12 -14
leaf_value=0.13887962561044989 0.037505404298022682 -0.064189888788052527 -0.065821625856835694 -0.1954710321000166 0.060973913837370879 0.11742436348011487 -0.18805654810346645 -0.18241200847692712 0.14184253716447751 -0.18323132253916447 -0.18139208016520264 -0.18170016972449396 -0.18217354230286187
leaf_weight=42.73471736907959 5.1769994199275962 5.7335156351327887 4.8937658369541159 4.9679178446531287 4.4544683247804633 7.9487468451261512 5.2212057560682288 5.4476243406534257 4.1291712224483481 5.2037407308816901 6.1841248124837902 6.1866012960672361 5.4472289681434631
leaf_count=212 22 24 20 20 20 38 21 22 20 21 25 25 22
internal_value=0 -0.147516 0.11539 -0.169094 0.130353 0.135991 -0.184652 -0.183057 0.139141 -0.18214 -0.181896 -0.181738 -0.181922
internal_weight=0 49.569 64.1609 44.392 59.2671 54.8126 38.6584 33.6905 46.8639 28.4693 23.2656 17.818 11.6338
internal_count=512 202 310 180 290 270 156 136 232 115 94 72 47
shrinkage=0.1


Tree=4
num_leaves=16
num_cat=0
split_feature=27 23 13 22 21 27 21 7 0 10 10 17 22 28 27
split_gain=165.03 32.6523 6.19756 5.28554 1.95006 2.68624 0.119834 0.0734414 0.0107763 0.00264519 0.00201252 0.000375183 3.73194e-05 1.96728e-05 6.38554e-06
threshold=0.14235000000000003 963.25000000000011 35.490000000000009 113.15000000000002 30.080000000000002 0.075775000000000023 23.795000000000005 0.045085000000000007 13.970000000000002 0.38945000000000002 0.37870000000000009 0.019505000000000005 144.30000000000004 0.2970000000000001 0.098330000000000015
decision_type=2 2 2 2 2 2 2 2 2 2 2 2 2 2 2
left_child=1 2 4 -2 7 -6 -5 8 10 -8 14 12 -11 -14 -1
right_child=3 -3 -4 6 5 -7 9 -9 -10 11 -12 -13 13 -15 -16
leaf_value=0.13383820918447356 -0.081576767255224475 -0.13640862664055475 0.0070212042439801075 -0.18554989440894967 0.13755762047797412 0.026442949002810454 -0.17083419588120013 0.14746486876657403 0.1395573855263714 -0.16789388361384294 0.13616975574713328 -0.16906328410409963 -0.16834074538964638 -0.16808325745222796 0.13370618221301775
leaf_weight=31.358497262001038 8.1670995205640775 5.444435089826583 4.5712665170431128 4.9333092272281638 4.5561629235744459 4.1642906069755554 4.8391534835100201 4.9073637425899497 3.9256165474653235 6.9846856445074144 4.0727284252643576 4.8324948549270621 4.8230583071708661 7.7115364223718643 4.1478466987609854
leaf_count=166 34 22 20 20 23 20 20 23 20 29 21 20 20 32 22
internal_value=0 0.0983486 0.119062 -0.15384 0.128027 0.0844969 -0.171135 0.135868 0.13456 -0.168699 0.134064 -0.168274 -0.168079 -0.168182 0.133823
internal_weight=0 67.1482 61.7038 42.2913 57.1325 8.72045 34.1242 48.4121 43.5047 29.1909 39.5791 24.3518 19.5193 12.5346 35.5063
internal_count=512 337 315 175 295 43 141 252 229 121 209 101 81 52 188
shrinkage=0.1


Tree=5
num_leaves=18
num_cat=0
split_feature=7 27 20 21 13 27 21 23 1 27 17 1 0 10 9 21 27
split_gain=140.677 16.1323 13.9497 12.2023 1.05899 0.997282 0.317941 0.142843 0.0574326 0.00817173 0.000253658 9.0423e-06 2.59438e-06 8.84667e-07 3.84421e-07 1.26667e-07 1.68004e-09
threshold=0.048770000000000008 0.14655000000000004 16.850000000000005 24.120000000000001 32.355000000000011 0.16110000000000002 30.080000000000002 892.80000000000007 17.805000000000003 0.10975000000000001 0.019815000000000003 20.235000000000003 13.760000000000002 0.37085000000000007 0.063060000000000019 16.875000000000004 0.093610000000000013
decision_type=2 2 2 2 2 2 2 2 2 2 2 2 2 2 2 2 2
left_child=2 3 4 -2 6 -3 9 -7 -9 12 11 -10 13 15 -13 -1 -17
right_child=1 5 -4 -5 -6 7 -8 8 10 -11 -12 14 -14 -15 -16 16 -18
leaf_value=0.12957946375613055 0.1132653871721777 -0.12002135290413836 -0.054450277119679674 -0.11013693481427672 0.074406184406994036 -0.17857834244993304 0.10731119236173206 -0.169811007901604 -0.15741697617690317 0.13440179845420536 -0.15836960496085362 -0.15759466434341129 0.12950321075348553 0.12954421427665161 -0.15755817694861374 0.12959935331697742 0.12960170216424369
leaf_weight=3.5232677757740047 4.3556058555841428 6.5945872366428366 4.8815097957849494 5.5735075920820236 4.2323895394802085 4.8566945344209698 7.252099782228469 4.7989366799592998 4.6341078579425874 3.8924265801906577 4.654312163591384 7.6526721864938718 3.6942424923181525 3.5210016369819632 4.6371897757053375 22.381039485335354 3.5247247815132132
leaf_count=20 20 28 20 24 20 20 38 20 20 21 20 33 21 20 20 127 20
internal_value=0 -0.125581 0.107182 -0.012137 0.122349 -0.155357 0.126595 -0.162818 -0.159916 0.130045 -0.157716 -0.157536 0.129583 0.129592 -0.157581 0.129597 0.1296
internal_weight=0 47.7576 56.9027 9.92911 52.0212 37.8285 47.7888 31.2339 26.3772 40.5367 21.5783 16.924 36.6443 32.95 12.2899 29.429 25.9058
internal_count=512 205 307 44 287 161 267 133 113 229 93 73 208 187 53 167 147
shrinkage=0.1


Tree=6
num_leaves=22
num_cat=0
split_feature=7 22 20 1 13 21 17 20 27 27 1 27 12 28 28 0 10 13 27 10 11
split_gain=120.181 14.3647 12.4039 4.96301 1.13977 0.33923 0.216443 0.166808 0.020844 0.00569304 0.000134439 3.1393e-05 5.27048e-06 1.00587e-06 1.40283e-06 1.17977e-06 6.19475e-07 9.89682e-08 4.02149e-10 5.39409e-11 1.40314e-11
threshold=0.048770000000000008 104.10000000000001 16.850000000000005 16.890000000000004 32.850000000000009 30.080000000000002 0.021440000000000004 16.98 0.15970000000000004 0.10975000000000001 19.275000000000002 0.18225000000000002 3.8435000000000006 0.26380000000000009 0.27390000000000009 13.675000000000002 0.33610000000000001 19.715000000000003 0.083645000000000011 0.21685000000000001 0.97640000000000005
decision_type=2 2 2 2 2 2 2 2 2 2 2 2 2 2 2 2 2 2 2 2 2
left_child=2 -2 4 -3 5 9 7 -5 -9 13 -10 -12 -13 15 -15 16 19 18 20 -1 -16
right_child=1 3 -4 6 -6 -7 -8 8 10 -11 11 12 -14 14 17 -17 -18 -19 -20 -21 -22
leaf_value=0.12600199360531289 0.030836818643356512 -0.040782289679005289 -0.048867535889182981 -0.1714437690125338 0.066585863813253807 0.10224037733881873 -0.13108099327638215 -0.15583451981480786 -0.14983710639723907 0.13015832847726 -0.14943604807397376 -0.14903588512950805 -0.14917787541660021 0.12606941211087833 0.12600174733407044 0.12592228024981597 0.12595158030850614 0.12598341935903115 0.12600291515776407 0.12600152113338856 0.12600146432480239
leaf_weight=4.0944149941205996 5.7234608530998221 4.6081847995519629 4.8944806456565848 4.6969091445207622 3.9410704225301734 6.8705443739891043 4.7119201123714438 6.632407575845721 4.4374317973852184 3.6308501809835425 4.4270935803651801 4.4152220040559751 6.408532977104187 3.2802673280239132 3.2755137681961042 3.269609034061431 3.2717815935611716 3.9289841353893271 3.4393801391124725 5.8958949595689774 3.7668170481920242
leaf_count=25 26 20 20 20 19 38 21 29 20 21 20 20 29 20 20 20 20 24 21 36 23
internal_value=0 -0.117418 0.102878 -0.138453 0.11814 0.122683 -0.15105 -0.154084 -0.150986 0.126393 -0.149353 -0.149212 -0.14912 0.125994 0.12601 0.125976 0.125989 0.125997 0.126002 0.126002 0.126002
internal_weight=0 46.0612 53.5596 40.3377 48.6651 44.7241 35.7295 31.0176 26.3207 37.8535 19.6883 15.2508 10.8238 34.2227 17.691 16.5317 13.2621 14.4107 10.4817 9.99031 7.04233
internal_count=512 205 307 179 287 268 159 138 118 230 89 69 49 209 108 101 81 88 64 61 43
shrinkage=0.1


Tree=7
num_leaves=23
num_cat=0
split_feature=27 23 13 13 21 27 24 22 2 7 1 13 17 26 27 3 10 28 28 11 17 10
split_gain=104.885 22.237 5.35023 4.20997 2.03441 2.81155 0.699642 0.136213 0.104939 0.0368609 0.0329146 0.00223164 0.000183544 6.83364e-05 8.9038e-06 4.37891e-07 1.07822e-07 8.0675e-11 3.87374e-10 3.811e-11 1.58806e-11 3.93818e-12
threshold=0.14235000000000003 963.25000000000011 35.490000000000009 24.195000000000004 30.080000000000002 0.079185000000000019 0.13145000000000004 117.80000000000003 94.265000000000015 0.043620000000000006 18.165000000000003 28.565000000000005 0.018190000000000001 0.39705000000000007 0.098855000000000012 567.60000000000002 0.34755000000000008 0.27455000000000002 0.26075000000000009 0.77295000000000014 0.0093190000000000026 0.22415000000000002
decision_type=2 2 2 2 2 2 2 2 2 2 2 2 2 2 2 2 2 2 2 2 2 2
left_child=1 2 4 -2 8 -6 -5 -8 9 11 -9 14 13 -12 15 16 17 18 20 -19 -1 -21
right_child=3 -3 -4 6 5 -7 7 10 -10 -11 12 -13 -14 -15 -16 -17 -18 19 -20 21 -22 -23
leaf_value=0.12292331474716241 -0.03935960291086596 -0.11045759868687764 0.0016359579867434425 -0.11245166879318172 0.12699898876348156 0.0053061245074519977 -0.16316935924828954 -0.1524059082850745 0.14340410073748025 0.13405509126907217 -0.14283674694424792 0.12567676682983872 -0.14325014695752691 -0.14233793649140658 0.12273496789353718 0.12288031717877353 0.12290306028243347 0.12292374959445625 0.12292209805358892 0.1229232380454223 0.12292360467557145 0.12292339227093962
leaf_weight=5.0063679218292361 4.6746690869331351 5.1885796785354605 4.4295075982809058 6.9122025966644278 4.0001512467861167 3.6135613769292831 4.9455616176128414 4.4302404373884228 3.0827661454677573 3.4318333715200415 4.1987111866474169 3.1993274539709082 4.635600507259368 7.9409185647964478 3.0182979404926291 3.0305766016244879 3.0324784517288199 3.0341991484165174 3.0340617150068274 3.034156545996666 3.0341863483190536 3.6410033106803894
leaf_count=33 21 22 20 32 24 19 22 20 16 19 20 20 22 38 20 20 20 20 20 20 20 24
internal_value=0 0.0868831 0.106718 -0.128187 0.116581 0.0692421 -0.140746 -0.148225 0.125687 0.124191 -0.14474 0.123167 -0.142715 -0.14251 0.122898 0.122916 0.122921 0.122923 0.122923 0.122923 0.122923 0.122923
internal_weight=0 56.8111 51.6225 37.7379 47.193 7.61371 33.0632 26.151 39.5793 36.4965 21.2055 33.0647 16.7752 12.1396 29.8653 26.847 23.8165 20.784 11.0746 9.70936 8.04055 6.67516
internal_count=512 337 315 175 295 43 154 122 252 236 100 217 80 58 197 177 157 137 73 64 53 44
shrinkage=0.1


Tree=8
num_leaves=21
num_cat=0
split_feature=7 22 21 20 13 21 21 27 27 24 3 14 2 13 10 27 14 21 28 28
split_gain=90.2865 12.0789 20.5983 10.0824 1.10906 0.36135 0.0439514 0.00848077 0.00697468 0.000566873 0.000400959 5.43563e-05 2.5912e-06 1.76569e-06 1.96914e-08 2.01766e-09 1.60998e-10 3.32605e-11 3.51044e-11 9.10294e-11
threshold=0.048770000000000008 115.35000000000001 25.740000000000006 16.850000000000005 32.850000000000009 30.080000000000002 24.195000000000004 0.10975000000000001 0.15380000000000002 0.13250000000000003 796.00000000000011 0.0063815000000000009 88.385000000000019 26.050000000000004 0.3312500000000001 0.092875000000000013 0.0043555000000000009 17.465000000000003 0.27390000000000009 0.25030000000000002
decision_type=2 2 2 2 2 2 2 2 2 2 2 2 2 2 2 2 2 2 2 2
left_child=3 2 -2 4 5 7 -3 12 -8 -10 -11 -12 13 14 15 16 -1 -18 19 -19
right_child=1 6 -4 -5 -6 -7 8 -9 9 10 11 -13 -14 -15 -16 -17 17 18 -20 -21
leaf_value=0.12027249280223938 0.11503927173914469 -0.14830574437250796 -0.1428257725673292 -0.041180852435961264 0.059650414945863532 0.094484694424500706 -0.14190562417534855 0.12566771718216715 -0.13847284744438093 -0.13801896996201521 -0.13665945898228379 -0.13707827556892582 0.12015928411702836 0.12019723964114747 0.12026325372201191 0.12027469431053313 0.12027197280351712 0.12027177690478026 0.12027177667365269 0.12027100525884103
leaf_weight=2.8028801977634599 5.8036257326602918 5.1784799844026592 6.6441573202610016 4.8142701238393775 3.757503777742385 6.2250027656555167 4.1482045054435757 3.2070381343364707 4.012029483914378 3.9867040812969234 6.2813515365123731 6.1162914037704468 2.792028233408927 3.7744927555322638 2.8020319044589987 2.8030820190906516 2.8028325736522666 3.363378092646597 5.3253469616174698 2.802744060754776
leaf_count=20 28 24 30 20 19 38 20 21 20 20 32 31 20 27 20 20 20 24 38 20
internal_value=0 -0.1053 -0.0225994 0.0959682 0.111519 0.116555 -0.139934 0.120786 -0.138168 -0.137407 -0.137147 -0.136866 0.120251 0.120261 0.120271 0.120272 0.120272 0.120272 0.120272 0.120271
internal_weight=0 42.1708 12.4478 47.2726 42.4584 38.7009 29.7231 32.4759 24.5446 20.3964 16.3843 12.3976 29.2688 26.4768 22.7023 19.9003 17.0972 14.2943 11.4915 6.16612
internal_count=512 205 58 307 287 268 147 230 123 103 83 63 209 189 162 142 122 102 82 44
shrinkage=0.1


Tree=9
num_leaves=22
num_cat=0
split_feature=27 23 21 3 25 4 23 18 18 13 23 27 28 1 21 29 27 22 12 10 28
split_gain=78.6993 17.4907 10.8373 6.25812 0.577229 0.998913 0.283509 0.25535 0.924181 0.0636954 0.0236929 0.0055754 0.00406442 0.00205767 0.00166619 0.000296974 6.63576e-05 4.15894e-07 2.93296e-07 4.85461e-11 1.46567e-11
threshold=0.11065000000000001 727.10000000000002 21.185000000000006 691.60000000000014 0.21610000000000004 0.090840000000000018 861.75000000000011 0.016490000000000001 0.015365000000000002 31.005000000000006 1033.5000000000002 0.097660000000000011 0.23280000000000003 19.075000000000003 28.900000000000002 0.080015000000000017 0.20190000000000002 89.010000000000005 2.4595000000000007 0.29555000000000003 0.27535000000000004
decision_type=2 2 2 2 2 2 2 2 2 2 2 2 2 2 2 2 2 2 2 2 2
left_child=3 -2 -3 7 -4 -6 -7 8 12 11 -8 14 -1 -12 17 -15 -17 18 19 20 -9
right_child=1 2 4 -5 5 6 10 9 -10 -11 13 -13 -14 15 -16 16 -18 -19 -20 -21 -22
leaf_value=0.12321446063674593 0.062449489171297334 0.029790272556982869 -0.16698962758668123 -0.037771167811897377 -0.080955117899384435 -0.1601064092119473 -0.12450444093464839 0.11797433860337342 0.054937203780380153 0.13392180526225414 -0.13539511268204027 0.12303916722695377 0.11854166948109855 -0.13352407909847125 0.1205945026650066 -0.13273251259850211 -0.13221206307953112 0.11792613513793784 0.11793713732266922 0.11797499113187709 0.11797460674344261
leaf_weight=2.9246604144573194 6.4731333106756201 4.5400017872452727 4.7734194695949546 2.87863665819168 3.7032864987850216 4.2544565647840527 3.6715595573186901 3.4869165420532351 2.966172829270362 3.2613736540079108 3.821045175194743 2.9082711637020102 5.1202747523784637 3.7546369582414618 2.8089262247085562 5.013624578714369 4.7907022386789322 2.9647186994552603 2.5791749507188788 2.5829665660858145 4.9075630307197571
leaf_count=20 36 21 23 13 20 20 20 27 21 18 20 20 39 20 20 27 26 23 20 20 38
internal_value=0 -0.0895899 -0.115271 0.104183 -0.134766 -0.129463 -0.136562 0.115376 0.102649 0.120871 -0.131803 0.118957 0.12024 -0.133345 0.118343 -0.132768 -0.132478 0.11796 0.117967 0.117975 0.117974
internal_weight=0 44.7959 38.3227 39.3897 33.7827 29.0093 25.306 36.511 11.0111 25.4999 21.0516 22.2385 8.04494 17.38 19.3303 13.559 9.80433 16.5213 13.5566 10.9774 8.39448
internal_count=512 233 197 279 176 153 133 266 80 186 113 168 59 93 148 73 53 128 105 85 65
shrinkage=0.1


Tree=10
num_leaves=22
num_cat=0
split_feature=27 23 1 20 22 13 23 21 7 4 13 21 20 16 18 18 1 26 26 6 5
split_gain=69.3518 15.074 5.04041 8.24376 3.82611 0.577199 0.107424 0.0457921 0.0213039 0.00261214 0.00113489 0.000383879 0.000204881 9.76921e-05 4.73543e-05 0.000115465 2.88693e-05 8.97038e-07 1.9972e-07 1.05972e-07 6.37907e-10
threshold=0.14235000000000003 963.25000000000011 21.445000000000004 14.485000000000001 113.15000000000002 35.490000000000009 830.00000000000011 23.795000000000005 0.047625000000000008 0.093680000000000013 28.015000000000004 27.050000000000001 19.025000000000002 0.052020000000000004 0.016490000000000001 0.014875000000000001 20.525000000000002 0.19760000000000003 0.15385000000000001 0.026220000000000004 0.047385000000000004
decision_type=2 2 2 2 2 2 2 2 2 2 2 2 2 2 2 2 2 2 2 2 2
left_child=1 2 5 -4 -2 6 8 -6 10 -9 11 14 -11 16 15 -1 -14 18 19 20 -16
right_child=4 -3 3 -5 7 -7 -8 9 -10 12 -12 -13 13 -15 17 -17 -18 -19 -20 -21 -22
leaf_value=0.11595811785278148 -0.048020455658409039 -0.090317174077864312 0.12011345291209004 -0.070108584256734038 -0.14063316412254084 0.070324473876301877 0.13981400550316755 -0.13130063876661532 0.12560799659298202 -0.12905860080744846 0.11842778412392359 0.11735221988020093 -0.12781220310515842 -0.12864447579623531 0.11597260188916401 0.11682711390948813 -0.12817317223935895 0.11590744558901295 0.11599829813218981 0.11595112234686483 0.11597474756480462
leaf_weight=4.0348290428519418 7.1985057890415183 4.7736928910017005 4.8841744884848577 4.2700754329562187 3.9661038219928768 2.6431878954172126 2.2996424734592429 3.7689357697963741 2.8091361448168746 3.653661489486697 2.5668978467583647 2.612030752003192 3.4046250432729703 3.8066212534904471 2.3751706555485708 2.4620238617062569 6.3442680835723877 2.6048905700445166 2.3778566867113105 3.2033217996358871 3.3255629763007164
leaf_count=34 34 22 36 23 20 13 13 21 18 21 20 21 20 22 20 20 37 22 20 27 28
internal_value=0 0.0781655 0.0971037 0.0313828 -0.112245 0.115163 0.119027 -0.130779 0.117342 -0.128916 0.116433 0.116211 -0.128394 -0.128215 0.116065 0.116287 -0.128047 0.11596 0.115973 0.115966 0.115974
internal_weight=0 47.2425 42.4688 9.15425 32.1427 33.3146 30.6714 24.9442 28.3717 20.9781 25.5626 22.9957 17.2092 13.5555 20.3837 6.49685 9.74889 13.8868 11.2819 8.90406 5.70073
internal_count=512 337 315 59 175 256 243 141 230 121 212 192 100 79 171 54 57 117 95 75 48
shrinkage=0.1


Tree=11
num_leaves=22
num_cat=0
split_feature=7 22 21 20 13 21 21 27 27 13 24 22 1 18 18 15 21 13 27 12 12
split_gain=61.1629 8.88869 15.135 7.12906 1.71851 0.400003 0.0280153 0.0182672 0.00671084 0.000352647 0.000349864 0.000158391 4.77706e-05 2.75747e-05 0.000114375 9.7176e-06 6.76951e-06 1.02052e-06 5.42815e-07 4.51317e-08 2.39676e-09
threshold=0.048770000000000008 115.35000000000001 25.740000000000006 16.850000000000005 34.405000000000008 30.080000000000002 23.795000000000005 0.12105 0.15380000000000002 28.365000000000006 0.13250000000000003 130.15000000000003 23.075000000000003 0.016490000000000001 0.015015000000000002 0.025220000000000003 26.795000000000005 18.805000000000003 0.083020000000000024 2.1135000000000006 1.3555000000000004
decision_type=2 2 2 2 2 2 2 2 2 2 2 2 2 2 2 2 2 2 2 2 2
left_child=3 2 -2 4 5 7 -3 9 -8 13 -10 -12 15 14 17 -13 18 -1 19 20 -15
right_child=1 6 -4 -5 -6 -7 8 -9 10 -11 11 12 -14 16 -16 -17 -18 -19 -20 -21 -22
leaf_value=0.11422151554331571 0.10476274742372067 -0.13543749827715401 -0.12789180504724593 -0.028509221753588505 0.027942201895057861 0.085538483334045429 -0.1298863130785026 0.12416283329857697 -0.12607407402919193 0.11564422254414777 -0.12555570921191211 -0.12446713503981915 -0.12504315889602621 0.11422134508530157 0.11503530384063039 -0.12470915459607904 0.11439698157318517 0.11412463034763363 0.11417256750720886 0.1142092717482015 0.1142254231331546
leaf_weight=2.1800255551934375 5.2145943716168386 3.7191367149353054 6.029001846909523 4.6516230702400199 2.7736528366804114 5.50076800584793 3.6742377430200603 2.0978199020028105 3.4430391341447857 2.1792510598897925 3.2380682677030554 3.1583576500415784 3.6830218434333801 2.1800961643457395 2.381687268614769 3.4948373436927795 2.1970704048871985 2.1687923818826675 3.3703508749604216 3.0501866042613983 4.2521076872944832
leaf_count=20 28 20 30 20 15 39 21 15 21 19 20 20 23 20 21 22 20 20 31 28 39
internal_value=0 -0.0935604 -0.0199905 0.0876683 0.103409 0.110042 -0.127447 0.115215 -0.126011 0.114431 -0.125174 -0.124945 -0.124754 0.11431 0.114478 -0.124594 0.114235 0.114173 0.114207 0.114219 0.114224
internal_weight=0 35.6543 11.2436 38.9834 34.3318 31.5582 24.4107 26.0574 20.6916 23.9596 17.0173 13.5743 10.3362 21.7803 6.73051 6.65319 15.0498 4.34882 12.8527 9.48239 6.4322
internal_count=512 205 58 307 287 272 147 233 127 218 106 85 65 199 61 42 138 40 118 87 59
shrinkage=0.1


Tree=12
num_leaves=21
num_cat=0
split_feature=27 23 21 13 26 1 0 13 13 27 21 24 27 25 15 18 18 13 21 14
split_gain=53.682 12.5789 8.1455 4.71221 0.736384 1.33039 0.524816 0.550123 0.135578 0.0744312 0.00594909 0.000636415 0.000234256 5.89503e-05 9.86212e-06 8.2202e-06 2.17135e-05 2.89818e-07 5.29514e-08 2.17522e-09
threshold=0.11065000000000001 727.10000000000002 21.830000000000002 43.815000000000005 0.21640000000000004 19.335000000000004 13.970000000000002 31.850000000000005 32.850000000000009 0.15125000000000002 28.455000000000002 0.12805000000000002 0.087895000000000015 0.40870000000000006 0.022125000000000002 0.016490000000000001 0.014490000000000001 25.740000000000006 22.555000000000003 0.0087060000000000019
decision_type=2 2 2 2 2 2 2 2 2 2 2 2 2 2 2 2 2 2 2 2
left_child=3 -2 -3 4 8 -6 -4 -8 10 -9 12 -11 15 14 -13 16 -1 18 19 -17
right_child=1 2 6 -5 5 -7 7 9 -10 11 -12 13 -14 -15 -16 17 -18 -19 -20 -21
leaf_value=0.11262550539413269 0.056058511523673749 0.01680702770716376 -0.15709471972836306 -0.031326902407702459 0.1182758892136145 0.018673059853469422 -0.08297122462544082 -0.13819671624857285 0.13873829744203761 -0.12352439620940812 0.11705813599461873 -0.12162995841828306 0.11387699026275884 -0.12218977291737135 -0.1218675096362923 0.1126899662654616 0.11307400888641386 0.11263945629127113 0.11267258186624676 0.11268573441930402
leaf_weight=2.2892060354352166 5.8436579331755629 4.7997613921761504 4.162192419171336 2.623717561364173 3.124683514237403 2.3492397740483284 3.6637923419475582 3.589745461940768 2.4034330248832694 3.2268439233303097 4.1927546411752692 3.2161204963922483 1.981617122888564 5.788841187953949 3.8275810033082962 3.0977877378463727 2.0425964817404747 1.9922825917601574 3.6933798938989639 1.9980553239583967
leaf_count=23 36 25 22 13 28 18 22 20 15 21 35 22 19 39 26 31 20 20 37 20
internal_value=0 -0.0789445 -0.103388 0.0970386 0.108586 0.0755294 -0.124385 -0.118546 0.116224 -0.125179 0.113683 -0.122269 0.112855 -0.121953 -0.121759 0.112721 0.112837 0.112674 0.112682 0.112688
internal_weight=0 38.1185 32.2749 31.7888 29.165 5.47392 27.4751 23.3129 23.6911 19.6491 21.2877 16.0594 17.0949 12.8325 7.0437 15.1133 4.3318 10.7815 8.78922 5.09584
internal_count=512 233 197 279 266 46 172 150 220 128 205 108 170 87 48 151 43 108 88 51
shrinkage=0.1


Tree=13
num_leaves=25
num_cat=0
split_feature=27 23 1 20 20 13 0 27 2 21 7 10 13 21 24 4 1 1 18 18 24 27 6 9
split_gain=47.6478 11.1555 6.51342 6.93969 2.29608 0.917552 0.180074 0.162295 0.0598408 0.035965 0.0060519 0.00170357 0.000574105 0.000262625 0.000224529 4.67997e-05 2.40645e-05 1.8723e-05 7.46671e-06 8.37164e-06 6.10809e-06 7.19914e-07 1.778e-08 4.21238e-09
threshold=0.14655000000000004 963.25000000000011 21.300000000000004 14.485000000000001 16.275000000000002 35.490000000000009 11.860000000000001 0.13405000000000003 94.060000000000016 23.795000000000005 0.043620000000000006 0.38945000000000002 28.365000000000006 27.050000000000001 0.13250000000000003 0.11215000000000001 20.570000000000004 18.670000000000005 0.016490000000000001 0.014145000000000001 0.14690000000000003 0.08679000000000002 0.038865000000000004 0.060780000000000008
decision_type=2 2 2 2 2 2 2 2 2 2 2 2 2 2 2 2 2 2 2 2 2 2 2 2
left_child=1 2 5 6 -2 7 -4 8 10 -6 12 -11 13 17 -13 16 -16 18 19 -1 -18 22 23 -20
right_child=4 -3 3 -5 9 -7 -8 -9 -10 11 -12 14 -14 -15 15 -17 20 -19 21 -21 -22 -23 -24 -25
leaf_value=0.11134898043195288 -0.042308772754916617 -0.07857007962194873 0.079525519952973925 -0.074864196220218407 -0.13126019365070715 0.047414070752997389 0.11887016456431897 0.14296352846514712 0.13033247994511857 -0.12216635658365681 0.11778218417264719 -0.12033435346524379 0.11337546691872039 0.11263995766248874 -0.11898517647271137 -0.11969940960135328 -0.11945175005707054 0.11170608658263084 0.1113319430858144 0.11163705206468365 -0.11924218651262485 0.11126223430332 0.11132415408841917 0.11133759917062713
leaf_weight=2.1961848214268889 4.4024571329355267 4.6314789652824393 2.3338486030697805 4.5174128338694572 3.4157430380582836 2.096929356455802 2.3192759826779366 2.0895702913403502 2.008736513555049 3.0460632294416454 1.8123086467385281 2.9465719163417807 1.9177255332469929 1.9607335999608029 2.6794773712754232 2.8839466571807852 2.8620544373989105 1.8725977391004551 2.194196552038191 1.8659097552299497 2.705657422542572 1.8194923028349874 1.918866842985153 3.2926068902015686
leaf_count=24 22 24 21 25 20 11 19 13 14 21 15 21 19 20 20 21 21 20 24 20 20 20 21 36
internal_value=0 0.0675644 0.0862526 0.0134235 -0.107844 0.110947 0.0991362 0.116287 0.113848 -0.121891 0.11226 -0.120022 0.111735 0.111551 -0.119558 -0.119353 -0.119231 0.11141 0.111368 0.111481 -0.11935 0.111319 0.111332 0.111335
internal_weight=0 40.8479 36.2164 9.17054 24.942 27.0459 4.65312 24.9489 22.8594 20.5395 20.8506 17.1238 19.0383 17.1206 14.0777 11.1311 8.24719 15.1599 13.2873 4.06209 5.56771 9.22516 7.40567 5.4868
internal_count=512 346 322 65 166 257 40 246 233 144 219 124 204 185 103 82 61 165 145 44 41 101 81 60
shrinkage=0.1


Tree=14
num_leaves=22
num_cat=0
split_feature=7 27 1 20 13 27 21 0 27 21 1 23 24 8 25 18 13 13 14 26 18
split_gain=42.4009 6.79901 7.96523 5.26985 1.75988 0.561007 0.435636 0.103846 0.0190774 0.0119932 0.000206031 0.000116805 6.56689e-05 5.25362e-05 6.33757e-06 4.83052e-06 6.51147e-06 5.13208e-07 7.22573e-07 8.70569e-07 2.62348e-08
threshold=0.048770000000000008 0.15125000000000002 20.235000000000003 16.850000000000005 34.405000000000008 0.16350000000000003 30.080000000000002 14.430000000000001 0.12105 24.515000000000004 19.275000000000002 1270.5000000000002 0.13640000000000005 0.14615000000000003 0.39415000000000006 0.016490000000000001 17.885000000000002 25.740000000000006 0.0088145000000000012 0.19335000000000005 0.019395000000000006
decision_type=2 2 2 2 2 2 2 2 2 2 2 2 2 2 2 2 2 2 2 2 2
left_child=3 2 -2 4 6 -3 8 -7 10 -9 13 -11 -13 -1 -14 16 -15 18 19 20 -17
right_child=1 5 -4 -5 -6 7 -8 9 -10 11 -12 12 14 15 -16 17 -18 -19 -20 -21 -22
leaf_value=0.11071581877460424 0.072999029411203328 -0.080421843593784237 -0.12618948558002305 -0.02032761393932888 0.017990118600909735 -0.13827964104085064 0.077827438509052091 -0.12466969631894601 0.12111158543893526 -0.11808694421289026 0.11108922293263256 -0.1177415346566027 -0.11704453444923442 0.11039430744011086 -0.11725458583907825 0.11012511237384544 0.11011974608522851 0.11006978285195955 0.11018032316473184 0.11004951139284187 0.11014118574043086
leaf_weight=1.9004793912172449 4.9007822722196597 3.7872195094823864 3.400585800409317 4.4538367092609397 2.5656241849064818 3.5001563951373127 4.7936113625764838 2.9593069553375235 1.8202211931347836 2.5861693397164336 3.3666786924004546 2.5575300604104978 3.3590727746486664 1.7038697153329843 2.509476013481617 1.6697428226470927 1.7518931552767751 1.8283786848187444 2.0121276006102562 1.6594644263386724 2.5914976596832275
leaf_count=22 31 26 21 20 15 20 39 20 15 20 38 20 27 20 20 20 21 22 24 20 31
internal_value=0 -0.0853444 -0.00859687 0.0806246 0.0968779 -0.115313 0.104942 -0.122877 0.111344 -0.119018 0.110382 -0.117499 -0.117319 0.110224 -0.117134 0.110154 0.110255 0.110118 0.110129 0.110111 0.110135
internal_weight=0 29.5603 8.30137 32.1174 27.6636 21.2589 25.098 17.4717 20.3044 13.9716 18.4841 11.0122 8.42608 15.1175 5.86855 13.217 3.45576 9.76121 7.93283 5.9207 4.26124
internal_count=512 205 52 307 287 153 272 127 233 107 218 87 67 180 47 158 41 117 95 71 51
shrinkage=0.1


Tree=15
num_leaves=23
num_cat=0
split_feature=27 22 21 10 25 21 13 28 4 21 27 22 1 1 4 9 1 18 18 13 18 21
split_gain=37.378 10.0268 11.3929 3.92863 2.64145 1.98683 0.771727 0.235468 0.0251657 0.0144312 0.00920602 0.000363036 0.000357508 6.1137e-05 4.29375e-05 3.68019e-05 5.52461e-06 5.06138e-06 6.34293e-06 2.64865e-07 3.5401e-07 2.45626e-08
threshold=0.11065000000000001 116.05000000000003 27.610000000000003 0.52120000000000011 0.32575000000000004 31.460000000000004 33.065000000000005 0.32955000000000007 0.090745000000000006 24.195000000000004 0.098855000000000012 130.15000000000003 20.975000000000005 21.890000000000004 0.10095000000000003 0.056435000000000006 20.385000000000002 0.016490000000000001 0.013920000000000002 20.755000000000003 0.022780000000000005 21.830000000000002
decision_type=2 2 2 2 2 2 2 2 2 2 2 2 2 2 2 2 2 2 2 2 2 2
left_child=3 2 4 5 -2 6 7 10 -3 -10 12 -11 15 16 -15 -1 -13 18 -17 20 21 -19
right_child=1 8 -4 -5 -6 -7 -8 -9 9 11 -12 13 -14 14 -16 17 -18 19 -20 -21 -22 -23
leaf_value=0.10963419437939122 0.13350558302507634 -0.12706697156718327 -0.10308291579577077 -0.054781939129740609 0.012547269949240561 0.033778889724334009 0.16687255758276484 0.069173495901608983 -0.12362827674040762 -0.1167413375625096 0.11726895132749911 -0.11510316785883623 0.11072217543695478 -0.1160223016510234 -0.11541693338398994 0.10908029215861739 -0.11531775026747018 0.10908162405959994 0.10935687538513689 0.10905257432803978 0.1091306808890983 0.10906524155201287
leaf_weight=1.5819793865084815 4.0373611450195295 3.1442879289388683 6.4344652444124222 1.7228724062442768 3.2657244354486465 3.6626426279544821 2.4141995608806601 1.5338541939854611 2.8751568868756285 2.9203790277242652 1.6359962299466122 2.2792576849460584 1.7054409161210049 2.3740015253424644 2.3133732751011848 1.6018528267741197 2.5334098190069199 1.8317708745598777 1.7189124450087545 2.8924301564693451 1.5327760577201841 1.8290043622255323
leaf_count=20 26 21 39 11 21 30 15 18 20 24 16 20 20 20 20 21 22 24 22 38 20 24
internal_value=0 -0.0707375 -0.00606347 0.0910671 0.0794166 0.101563 0.113806 0.106635 -0.118919 -0.117244 0.110153 -0.115766 0.109361 -0.115466 -0.115724 0.109182 -0.115216 0.10912 0.109223 0.109077 0.10909 0.109073
internal_weight=0 32.1774 13.7376 25.6637 7.30309 23.9409 20.2782 17.864 18.4399 15.2956 16.3302 12.4204 14.6942 9.50004 4.68737 12.9887 4.81267 11.4067 3.32077 8.08598 5.19355 3.66078
internal_count=512 233 86 279 47 268 238 223 147 126 205 106 189 82 40 169 42 149 43 106 68 48
shrinkage=0.1


Tree=16
num_leaves=20
num_cat=0
split_feature=7 22 21 20 13 21 27 21 27 1 24 13 10 1 28 1 18 18 26
split_gain=32.9029 5.91124 9.53625 4.76573 1.78001 0.435872 0.0133365 0.0105263 0.00300353 0.000111241 9.31566e-05 5.97486e-05 3.01508e-05 9.02384e-06 6.13296e-06 2.42802e-06 1.15926e-06 1.34981e-06 1.72309e-07
threshold=0.048770000000000008 115.35000000000001 25.740000000000006 16.850000000000005 34.405000000000008 30.080000000000002 0.12105 24.195000000000004 0.15380000000000002 19.275000000000002 0.13250000000000003 45.07500000000001 0.37480000000000008 23.075000000000003 0.32040000000000007 14.350000000000001 0.015435000000000003 0.018175000000000004 0.14285000000000003
decision_type=2 2 2 2 2 2 2 2 2 2 2 2 2 2 2 2 2 2 2
left_child=3 2 -2 4 5 6 9 -3 -9 12 -10 -12 14 -13 15 -1 -17 -18 -19
right_child=1 7 -4 -5 -6 -7 -8 8 10 -11 11 13 -14 -15 -16 16 17 18 -20
leaf_value=0.10824995551790893 0.092363673190928808 -0.12101066424435575 -0.11176166034487277 -0.020868037727003776 0.011916571331797942 0.074315781079219809 0.11787272063541632 -0.11777222212654337 -0.11450602925444829 0.1089382965317981 -0.11422036640306521 -0.11353539402606985 0.10867264546644269 -0.1137781414255134 0.10837643138456435 0.10807205245074812 0.10823847283077635 0.10814209070086395 0.10809744433217119
leaf_weight=2.2512325197458392 4.3105567470192927 3.2005211412906673 4.8793445900082588 4.3540124595165244 2.4423834234476081 4.5058089345693579 1.6330362185835827 2.4871040210127822 2.2092825770378104 2.8199409469962111 2.2830510884523374 4.0944746658205986 1.4504515230655659 2.4463307410478592 1.4971402809023846 2.2803911790251732 1.4759803935885427 2.2975216209888463 1.3858720809221265
leaf_count=32 28 24 30 20 15 39 15 20 20 38 21 39 20 23 21 33 21 33 20
internal_value=0 -0.0804436 -0.0160159 0.0753981 0.0928335 0.101984 0.109278 -0.115854 -0.114633 0.10837 -0.113925 -0.11378 0.108244 -0.113626 0.108188 0.108159 0.108131 0.108158 0.108125
internal_weight=0 25.9107 9.1899 28.3938 24.0398 21.5974 17.0916 16.7208 13.5202 15.4585 11.0331 8.82386 12.6386 6.54081 11.1881 9.691 7.43977 5.15937 3.68339
internal_count=512 205 58 307 287 272 233 147 123 218 103 83 180 62 160 139 107 74 53
shrinkage=0.1


Tree=17
num_leaves=23
num_cat=0
split_feature=27 22 21 12 24 21 13 28 27 21 27 1 24 13 10 1 10 10 18 18 20 12
split_gain=29.1431 8.36202 8.81882 3.75953 2.55679 2.06297 0.662834 0.269642 0.0167297 0.00785602 0.00773317 0.000242674 6.60394e-05 4.62715e-05 2.07635e-05 6.45922e-06 3.34793e-06 8.73206e-07 7.61951e-07 1.10473e-06 2.6142e-07 7.2273e-08
threshold=0.11065000000000001 116.05000000000003 27.610000000000003 3.7665000000000002 0.13845000000000005 31.460000000000004 33.065000000000005 0.32955000000000007 0.15380000000000002 24.120000000000001 0.098855000000000012 21.125000000000004 0.13250000000000003 45.07500000000001 0.36435000000000006 23.075000000000003 0.18150000000000002 0.67585000000000017 0.015435000000000003 0.018000000000000006 11.965000000000002 1.9950000000000003
decision_type=2 2 2 2 2 2 2 2 2 2 2 2 2 2 2 2 2 2 2 2 2 2
left_child=3 2 4 5 -2 6 7 10 -3 -10 11 14 -11 -14 16 17 -1 -15 -18 -20 -21 -22
right_child=1 8 -4 -5 -6 -7 -8 -9 9 12 -12 -13 13 15 -16 -17 18 -19 19 20 21 -23
leaf_value=0.10745529839359368 0.12827926987945915 -0.12189507126450685 -0.094507459743203334 -0.062651049830819872 0.0050249103175304989 0.026964097884349766 0.16223192764299812 0.061601986433795525 -0.11873947432006787 -0.112937236724115 0.11534502412525005 0.10880679416289057 -0.11271646303268433 -0.11213055523469705 0.10776764159058315 -0.11229662777639043 0.10725829764120456 -0.11203526477136233 0.1074105697426679 0.10734327467445189 0.10730366399063002 0.10727188226902742
leaf_weight=2.127654343843469 3.6804244890809077 3.0676944181323043 6.0021631345152855 1.5729177296161641 3.1011502370238304 3.4411155804991713 2.2598543167114249 1.3550944253802288 2.4487777426838866 2.0253823399543753 1.4205971285700787 1.3713845461606968 1.9964034780859927 1.9293236210942271 1.3193149790167797 2.2412339299917221 1.8923038132488725 1.9173213690519331 1.3482206687331197 1.33783233910799 1.6492388322949412 1.2638277560472486
leaf_count=33 26 24 39 10 21 30 15 18 20 20 16 19 20 20 20 23 30 20 21 21 26 20
internal_value=0 -0.0662038 -0.00622228 0.0864134 0.0719162 0.0976932 0.111725 0.104159 -0.115275 -0.113658 0.108359 0.107553 -0.112427 -0.112299 0.107396 -0.112162 0.107345 -0.112083 0.107313 0.107332 0.107307 0.10729
internal_weight=0 28.4099 12.7837 22.3594 6.78157 20.7864 17.3453 15.0855 15.6261 12.5584 13.7304 12.3098 10.1097 8.08428 10.9384 6.08788 9.61908 3.84664 7.49142 5.59912 4.2509 2.91307
internal_count=512 233 86 279 47 269 239 224 147 123 206 190 103 83 171 63 151 40 118 88 67 46
shrinkage=0.1


Tree=18
num_leaves=23
num_cat=0
split_feature=27 23 1 10 21 27 27 6 9 1 1 27 13 1 10 28 24 18 18 26 22 6
split_gain=25.8629 8.29744 7.88392 1.58262 1.94916 1.17833 0.167731 0.080577 0.0675774 0.0109948 0.00377841 0.00204788 0.000673144 0.000315966 3.25069e-05 1.92092e-05 1.08718e-05 1.41562e-06 3.73967e-06 1.96472e-07 6.06794e-09 2.75222e-10
threshold=0.15125000000000002 750.05000000000007 19.625000000000004 0.49095000000000005 33.190000000000005 0.16110000000000002 0.13100000000000003 0.24435000000000004 0.073640000000000025 22.255000000000003 18.725000000000005 0.10625000000000001 43.815000000000005 19.915000000000003 0.37085000000000007 0.32040000000000007 0.14370000000000002 0.016490000000000001 0.014580000000000001 0.17760000000000001 84.385000000000005 0.021405000000000004
decision_type=2 2 2 2 2 2 2 2 2 2 2 2 2 2 2 2 2 2 2 2 2 2
left_child=1 3 -3 4 6 -2 9 8 10 11 -7 13 -12 14 15 17 -14 18 -1 20 21 -19
right_child=5 2 -4 -5 -6 7 -8 -9 -10 -11 12 -13 16 -15 -16 -17 -18 19 -20 -21 -22 -23
leaf_value=0.10653949827833752 -0.04150182660136649 0.072350486908613482 -0.096115904520552867 -0.0065767916326850738 0.0065964235730766362 -0.11612308996406871 0.14429092297655144 -0.095094780965212677 -0.1325040225874709 0.11599871075521716 -0.11316128466316047 0.11080696268350315 -0.1110999361533359 0.10812142960571541 0.10719155512779249 0.10700154562294539 -0.11080119494555832 0.10656644949893981 0.10677520570627903 0.10651582873839181 0.10655685278513397 0.10656443254886772
leaf_weight=1.5555365458130963 2.7589092627167728 5.344700098037718 5.7842313423752785 1.4988255128264416 1.9879113510251034 2.5084292069077474 1.413669280707835 2.0823327451944342 2.1400806456804267 1.6515303775668133 1.9405939579010008 1.5312258675694455 2.6061240434646606 1.8708243444561947 1.2264580577611912 1.2819691486656664 2.2873489037156105 1.4455382376909263 1.1865606494247911 1.1485275812447069 1.1549409739673135 1.2717309854924677
leaf_count=27 23 38 38 12 18 23 11 22 14 16 20 19 29 28 20 21 26 25 20 20 20 22
internal_value=0 0.0541402 -0.0152095 0.0922999 0.100214 -0.101077 0.111332 -0.113193 -0.116475 0.108292 -0.112804 0.107361 -0.111585 0.106926 0.106708 0.106643 -0.11096 0.106584 0.106641 0.106552 0.106563 0.106566
internal_weight=0 31.3542 11.1289 20.2252 18.7264 16.3238 16.7385 13.5649 11.4826 15.3248 9.3425 13.6733 6.83407 12.1421 10.2713 9.0448 4.89347 7.76283 2.7421 5.02074 3.87221 2.71727
internal_count=512 355 76 279 267 157 249 134 112 238 98 222 75 203 175 155 55 134 47 87 67 47
shrinkage=0.1


Tree=19
num_leaves=23
num_cat=0
split_feature=7 23 21 20 13 15 25 13 21 27 1 7 1 1 4 20 28 8 14 18 8 7
split_gain=22.8461 4.75838 6.98389 4.10253 1.74261 0.532992 2.66419 0.44736 0.0422732 0.0314421 0.00778765 0.00263206 0.000915902 0.000194388 4.88801e-05 1.10246e-05 1.23185e-05 8.80978e-06 5.16015e-06 4.64832e-06 3.0272e-06 1.6752e-07
threshold=0.048770000000000008 810.55000000000007 25.890000000000004 16.850000000000005 34.405000000000008 0.012035000000000002 0.14085 34.935000000000009 24.195000000000004 0.11845000000000001 23.850000000000005 0.066120000000000012 19.075000000000003 20.705000000000002 0.094370000000000009 11.145000000000001 0.31970000000000004 0.18745000000000003 0.0066650000000000008 0.016490000000000001 0.15270000000000003 0.028760000000000004
decision_type=2 2 2 2 2 2 2 2 2 2 2 2 2 2 2 2 2 2 2 2 2 2
left_child=3 2 -2 4 5 6 12 -3 -9 10 13 -10 20 15 -13 -7 19 -16 -19 -17 -1 -21
right_child=1 7 -4 -5 -6 9 -8 8 11 -11 -12 14 -14 -15 17 16 -18 18 -20 21 -22 -23
leaf_value=0.1061118609149535 0.11215066696673626 -0.067447468526263141 -0.098398746246981195 -0.021834301982630342 0.0054969676711676772 0.10638854100383087 -0.069884890431505295 -0.12518658618853878 -0.11400190895704537 0.12055704059505322 0.11410522003355728 -0.1104244904321865 0.10920754567289347 0.10743267345935488 -0.10965672540492495 0.10609302815543312 0.10634102558065171 -0.1097814842369675 -0.11001777786216194 0.10590637973377459 0.10590483306104599 0.10585509881376554
leaf_weight=1.0766973346471886 2.8941592797637012 2.4976987764239302 3.4573558270931244 4.1715615540742865 2.2944832891225806 1.1126943565905074 1.060607813298702 2.6067022979259482 2.0566719174385053 2.309950239956378 1.5276482328772534 1.7864871248602865 1.218588665127754 1.30875002220273 2.007027842104435 1.8339683860540388 1.1192103400826452 1.6224949434399607 2.1472992897033691 1.6319772340357306 2.0530503839254379 1.0448803566396234
leaf_count=20 22 26 22 20 15 20 13 23 20 21 15 21 18 21 25 34 20 20 26 31 39 20
internal_value=0 -0.0748052 -0.00245888 0.0682111 0.0873832 0.0982449 0.0722206 -0.106013 -0.113891 0.110085 0.107559 -0.11083 0.106882 0.106317 -0.109967 0.106101 0.106044 -0.109826 -0.109916 0.10597 0.105976 0.105886
internal_weight=0 21.0759 6.35152 23.7641 19.5925 17.298 5.40894 14.7244 12.2267 11.8891 9.57913 9.61998 4.34834 8.05148 7.56331 6.74273 5.63004 5.77682 3.76979 4.51083 3.12975 2.67686
internal_count=512 205 44 307 287 272 90 161 135 182 161 112 77 146 92 125 105 71 46 85 59 51
shrinkage=0.1


Tree=20
num_leaves=23
num_cat=0
split_feature=27 22 21 10 25 21 13 25 27 27 21 21 13 24 23 15 1 10 5 4 17 7
split_gain=20.4668 6.64119 6.53145 3.30489 2.3263 2.09351 0.492366 0.310519 0.0142881 0.00696335 0.00286491 9.66898e-05 6.9228e-05 1.91829e-05 1.07429e-05 9.66525e-06 5.13034e-06 4.50875e-06 6.4822e-06 1.10058e-06 1.04646e-06 1.22729e-07
threshold=0.11065000000000001 116.05000000000003 27.610000000000003 0.52525000000000011 0.32575000000000004 31.460000000000004 33.065000000000005 0.27620000000000006 0.15380000000000002 0.098855000000000012 24.120000000000001 27.985000000000003 45.07500000000001 0.13450000000000004 622.50000000000011 0.012485000000000001 23.075000000000003 0.20150000000000004 0.059495000000000006 0.094140000000000015 0.0092675000000000014 0.013295000000000001
decision_type=2 2 2 2 2 2 2 2 2 2 2 2 2 2 2 2 2 2 2 2 2 2
left_child=3 2 4 5 -2 6 7 9 -3 11 -10 14 -12 -14 17 -16 -15 18 -1 21 -21 -19
right_child=1 8 -4 -5 -6 -7 -8 -9 10 -11 12 -13 13 16 15 -17 -18 19 -20 20 -22 -23
leaf_value=0.10534200048547754 0.12327209072067101 -0.1182920230304117 -0.085812152813764239 -0.065337465397928923 -0.0014158900926574778 0.019097804801149199 0.15293034429792673 0.049982219135799096 -0.11336232873938348 0.11452471831920763 -0.1095879243300697 0.10650996443931987 -0.10917851747608283 -0.10868575064027999 0.10588389207457083 0.10544519564277861 -0.10890514371274454 0.1053341632584331 0.10569994352274048 0.10547989643437544 0.10533491836169989 0.10528922185433881
leaf_weight=0.96234274655580732 3.2524671107530612 2.5512881204485884 5.3640190958976746 1.4388543553650368 2.771169152110815 3.1587807163596144 2.1826579160988322 1.0756933838129032 1.9014530181884746 0.95669518411159593 1.7469001635909078 0.99456958845257837 1.536649592220783 2.7927399724721909 1.0326914452016356 0.97765393555164326 1.7237263768911359 1.0094083771109583 1.0667722821235655 0.98252540826797474 1.0093248598277567 1.5267179794609544
leaf_count=20 26 24 39 10 21 30 16 17 20 13 22 18 20 38 20 20 23 21 21 20 21 32
internal_value=0 -0.060536 -0.00555718 0.0801627 0.0659095 0.0925243 0.109359 0.101157 -0.111633 0.106391 -0.109882 0.105577 -0.109033 -0.108873 0.105468 0.105671 -0.108769 0.105406 0.10553 0.105351 0.105406 0.105307
internal_weight=0 23.6404 11.3877 18.3747 6.02364 16.9358 13.7771 11.5944 12.2528 10.5187 9.70147 9.56201 7.80002 6.05312 8.56744 2.01035 4.51647 6.55709 2.02912 4.52798 1.99185 2.53613
internal_count=512 233 86 279 47 269 239 223 147 206 123 193 103 81 175 40 61 135 41 94 41 53
shrinkage=0.1


Tree=21
num_leaves=24
num_cat=0
split_feature=27 13 14 27 21 27 28 1 2 6 27 20 27 1 21 10 10 24 10 27 26 11 17
split_gain=18.1132 6.48682 3.08753 2.9095 2.32394 1.09371 0.912379 0.250118 0.17977 0.0939423 0.0545844 0.0461078 0.00190452 0.00116186 0.000142657 5.14114e-05 1.42887e-05 4.82419e-06 3.82448e-06 3.40051e-06 7.95069e-07 2.182e-07 1.0622e-07
threshold=0.15125000000000002 34.405000000000008 0.0035135000000000006 0.10935000000000002 33.190000000000005 0.16110000000000002 0.33795000000000003 22.700000000000003 97.405000000000015 0.2526500000000001 0.12385 17.050000000000001 0.10055000000000001 18.120000000000005 27.985000000000003 0.37870000000000009 0.4472000000000001 0.14370000000000002 0.19775000000000004 0.069775000000000018 0.16155000000000003 0.85575000000000012 0.0062855000000000012
decision_type=2 2 2 2 2 2 2 2 2 2 2 2 2 2 2 2 2 2 2 2 2 2 2
left_child=1 2 -1 -3 6 -2 7 8 10 11 12 -7 14 -13 15 18 -15 -18 19 -4 21 -20 -23
right_child=5 3 4 -5 -6 9 -8 -9 -10 -11 -12 13 -14 16 -16 -17 17 -19 20 -21 -22 22 -24
leaf_value=-0.058089205021067458 -0.034038471933382546 0.029655159149233463 0.1048493526986982 -0.10204640429694536 -0.0097451107892088402 -0.1249309780673033 0.014399913596170847 0.071964209370958696 0.14318922140441634 -0.085372990836440343 0.12531536599395915 -0.11100801821685076 0.10907733864690455 -0.10823257885524046 0.10623574279493855 0.10566468302068732 -0.10796831374793675 -0.10774428272022851 0.1048372708891457 0.10511456678552566 0.1048861160882517 0.10480706540442851 0.10476354668837021
leaf_weight=1.5499390587210715 2.3731383606791487 3.3438032045960417 0.92478433623910472 3.3658728152513504 2.1097099408507338 2.3404471352696401 1.1099838353693474 1.6766142994165409 1.7128235548734654 1.4436860308051098 1.6515148617327202 1.640543185174465 1.4170089438557614 1.4010289609432218 1.0069972388446329 0.92891592532396305 1.9806122034788134 1.8674656450748441 0.87964249774813685 1.013034254312515 1.3290322981774805 0.87495664507150683 1.5623539984226225
leaf_count=16 23 22 21 27 19 18 17 17 11 19 17 20 22 20 19 19 29 28 20 22 30 20 36
internal_value=0 0.048535 0.0773981 -0.0364122 0.088938 -0.0954422 0.101879 0.108362 0.11295 -0.109094 0.108481 -0.112805 0.105683 -0.108685 0.105118 0.104968 -0.107959 -0.10786 0.10487 0.104988 0.104821 0.104795 0.104779
internal_weight=0 26.457 19.7473 6.70968 18.1974 13.0469 16.0877 14.9777 13.3011 10.6738 11.5882 9.2301 9.93673 6.88965 8.51972 7.51272 5.24911 3.84808 6.5838 1.93782 4.64599 3.31695 2.43731
internal_count=512 355 306 49 290 157 271 254 237 134 226 115 209 97 187 168 77 57 149 43 106 76 56
shrinkage=0.1


Tree=22
num_leaves=25
num_cat=0
split_feature=26 23 21 13 7 24 21 7 2 7 1 13 21 27 21 6 14 25 18 1 15 17 4 26
split_gain=16.2235 7.883 6.60217 3.25732 2.99942 1.70004 0.202469 0.0966292 0.0607275 0.0462839 0.00690684 0.00237771 0.00205542 0.000600773 0.000305136 5.58687e-05 1.99632e-05 5.49532e-06 3.50995e-06 2.28189e-06 1.20529e-06 1.18825e-06 1.65291e-06 8.35619e-08
threshold=0.20695000000000002 963.25000000000011 25.740000000000006 43.815000000000005 0.044240000000000008 0.13750000000000004 31.685000000000006 0.055570000000000008 96.075000000000017 0.053725000000000002 23.760000000000002 30.525000000000002 24.835000000000004 0.16110000000000002 28.455000000000002 0.045315000000000008 0.0048455000000000008 0.38585000000000008 0.017015000000000006 14.020000000000001 0.024175000000000006 0.0076545000000000007 0.087035000000000015 0.12760000000000002
decision_type=2 2 2 2 2 2 2 2 2 2 2 2 2 2 2 2 2 2 2 2 2 2 2 2
left_child=3 2 5 8 -4 9 -6 -3 10 -2 11 14 -9 -14 15 16 -1 20 -19 -18 -15 22 -21 -23
right_child=1 7 4 -5 6 -7 -8 12 -10 -11 -12 -13 13 17 -16 -17 19 18 -20 21 -22 23 -24 -25
leaf_value=0.10482973489348615 0.11365173731357157 -0.13450603781821521 0.024403976301153412 -0.028849273365281383 -0.088708494143139138 0.0093407468055760785 -0.13056755565779823 -0.1111980846050281 0.13189648978000695 0.13613030898568568 0.11214666264017437 0.11000414513767601 -0.10941236268904853 -0.1069768691985164 0.10655830960120685 0.10536456955991802 0.10453228718230345 -0.10737360216864696 -0.10714544890483511 0.10430613045219367 -0.1071137306741315 0.10431298313935891 0.1044935024430205 0.10426968092124969
leaf_weight=1.3036908507347087 2.1258924677968047 1.7012712359428395 2.6810034178197384 2.0169227346777907 2.4469635896384716 2.0133061371743679 2.189448282122612 2.1587197892367822 1.0457536689937104 1.6094744727015493 1.8611221387982357 1.0030269362032411 1.5146739967167375 1.218724098056555 0.89494971185922612 0.82215719297528256 0.86667702347040165 1.2763860039412978 1.4294321835041044 0.87070287019014392 1.3632513731718061 1.0303615406155584 1.0250874124467371 0.78529177233576763
leaf_count=30 32 11 28 10 22 25 18 26 9 11 21 15 20 20 17 18 21 20 23 22 22 26 25 20
internal_value=0 -0.0488526 0.00321483 0.0883758 -0.0597903 0.0834132 -0.108476 -0.112658 0.10892 0.123337 0.106623 0.105428 -0.10851 -0.107656 0.104824 0.104592 0.104484 -0.107153 -0.107253 0.104386 -0.107049 0.104352 0.104407 0.104294
internal_weight=0 23.7285 13.0661 13.5257 7.31742 5.74867 4.63641 10.6625 11.5088 3.73537 10.4631 8.60195 8.96119 6.80247 7.59892 6.70397 5.88181 5.28779 2.70582 4.57812 2.58198 3.71144 1.89579 1.81565
internal_count=512 278 136 234 68 68 40 142 224 43 215 194 131 105 179 162 144 85 43 114 42 93 47 46
shrinkage=0.1


Tree=23
num_leaves=25
num_cat=0
split_feature=26 23 21 4 13 27 27 7 2 2 1 13 21 27 21 6 14 25 18 25 10 15 21 7
split_gain=14.2931 7.15549 5.81553 3.41959 3.04372 1.364 0.247116 0.0731086 0.0459628 0.036908 0.0050139 0.00195801 0.00148847 0.000443801 0.00022598 3.53241e-05 1.66501e-05 3.98736e-06 2.54454e-06 2.4246e-06 4.44645e-06 8.73762e-07 3.64927e-07 8.79771e-08
threshold=0.20695000000000002 963.25000000000011 27.330000000000002 0.10900000000000001 43.815000000000005 0.1358 0.14655000000000004 0.052865000000000002 96.075000000000017 88.055000000000021 23.760000000000002 31.005000000000006 24.835000000000004 0.16110000000000002 28.455000000000002 0.045995000000000008 0.004147500000000001 0.38585000000000008 0.017015000000000006 0.14660000000000004 0.23675000000000004 0.024175000000000006 22.745000000000001 0.013295000000000001
decision_type=2 2 2 2 2 2 2 2 2 2 2 2 2 2 2 2 2 2 2 2 2 2 2 2
left_child=4 2 3 6 8 -4 9 -3 10 -2 11 14 -9 -14 15 16 -1 21 -19 22 -21 -15 23 -18
right_child=1 7 5 -5 -6 -7 -8 12 -10 -11 -12 -13 13 17 -16 -17 19 18 -20 20 -22 -23 -24 -25
leaf_value=0.10446192697182451 0.10634686171310144 -0.13154178873440589 -0.021077375815970609 -0.063605783990010975 -0.025869389358020342 -0.12038791830065199 0.068959771904641518 -0.11003825952930957 0.12883671280679948 0.12614532155298322 0.11087913367774915 0.10943293502310558 -0.1084219601247511 -0.1062690834170061 0.10590467104763815 0.10478171823006449 0.10390312917995306 -0.1066231236397943 -0.10641957330094949 0.10420853930307178 0.10390815483710213 -0.10639119757723431 0.10395601535295702 0.10385695740468129
leaf_weight=0.81085042282938591 1.7771788612008115 1.5154306069016446 2.6365635804831982 1.6015998721122739 2.0239307731389991 2.9088360294699669 1.5082869008183477 1.9728235080838183 0.96755295619368631 2.0025819204747677 1.7022767663002012 0.84623365849256504 1.4506239406764505 1.1097164116799834 0.81452669575810421 0.73738006129860867 0.79503921046853088 1.1626352667808535 1.3017749041318891 0.96056675910949696 1.0119159519672392 1.2414698414504526 0.98659589514136303 0.85809817537665367
leaf_count=20 38 10 23 15 10 31 10 26 9 19 21 13 21 20 17 18 22 20 23 25 28 22 27 24
internal_value=0 -0.0472395 0.00305534 0.0644088 0.0864097 -0.0731707 0.103181 -0.111356 0.108071 0.116836 0.105961 0.10489 -0.107643 -0.106889 0.104339 0.104132 0.104044 -0.106427 -0.106516 0.103971 0.104054 -0.106334 0.103908 0.103879
internal_weight=0 22.1895 12.435 6.88965 12.515 5.5454 5.28805 9.75447 10.491 3.77976 9.52348 7.82121 8.23904 6.26622 6.97497 6.16045 5.42307 4.8156 2.46441 4.61222 1.97248 2.35119 2.63973 1.65314
internal_count=512 278 136 82 234 54 67 142 224 57 215 194 132 106 181 164 146 85 43 126 53 42 73 46
shrinkage=0.1


Tree=24
num_leaves=25
num_cat=0
split_feature=27 23 1 28 21 17 27 20 27 6 22 1 5 21 4 1 14 16 13 29 24 18 14 8
split_gain=12.643 6.49756 6.46206 2.16871 2.31853 1.64987 2.21853 0.187766 0.121405 0.105109 0.0308687 0.00826202 0.00110053 0.00050845 0.00016697 1.72723e-05 6.93544e-06 8.33309e-06 6.85889e-06 2.36401e-06 1.96386e-06 4.62556e-07 3.74341e-07 5.11055e-08
threshold=0.16110000000000002 786.30000000000007 16.675000000000004 0.20950000000000002 33.190000000000005 0.0099225000000000025 0.1358 15.745000000000003 0.14525000000000002 0.2526500000000001 110.50000000000001 21.300000000000004 0.11375 24.950000000000003 0.10995000000000001 19.075000000000003 0.0043555000000000009 0.023345000000000001 45.07500000000001 0.078780000000000017 0.13675000000000001 0.016210000000000006 0.0061635000000000006 0.17135000000000003
decision_type=2 2 2 2 2 2 2 2 2 2 2 2 2 2 2 2 2 2 2 2 2 2 2 2
left_child=1 3 -3 -1 7 -4 -7 8 11 10 -2 12 14 -12 15 16 -5 19 -15 22 -20 -22 -18 -24
right_child=9 2 5 4 -6 6 -8 -9 -10 -11 13 -13 -14 18 -16 -17 17 -19 20 -21 21 -23 23 -25
leaf_value=-0.056593234856962882 -0.12183001338588509 0.12945172670532204 -0.12617139885023279 0.10398543011291764 -0.010533348326931029 0.04407222717953202 -0.10766880766624298 0.062732526027320365 0.14183271168744646 -0.077411496545829364 -0.10804899949797811 0.11162738795868193 0.10700713521072794 -0.10598672640334493 0.10540898090150048 0.10422381170648234 0.10357086472996864 0.10390411037160796 -0.10580559030063225 0.10370902547788036 -0.10568624259275705 -0.1055927680277482 0.10346517210585633 0.10350433503025919
leaf_weight=1.1053693257272268 1.6678066998720149 2.0091329179704172 3.248729269951582 0.76403253525494985 2.0036374852061263 1.9886135794222357 1.8691559322178362 0.93365271389484483 1.0470772758126266 1.1555006988346574 1.270016476511955 2.0761715620756149 1.4567564167082308 1.0601599141955373 0.7058076038956641 0.75115960463881482 0.83016727119684297 1.0273872204124925 1.0361735559999945 0.92660721763968457 1.0178486444056036 1.103151701390743 0.64720419794321038 0.68680854514241219
leaf_count=18 13 18 28 21 19 16 25 8 6 19 20 33 28 20 16 20 25 29 20 27 20 22 20 21
internal_value=0 0.0376558 -0.0288974 0.0782039 0.0889571 -0.0736655 -0.0294489 0.105775 0.109456 -0.105397 -0.109916 0.106022 0.104529 -0.106295 0.103959 0.103777 0.103709 0.103657 -0.105767 0.103575 -0.105693 -0.105638 0.103518 0.103485
internal_weight=0 24.0775 9.11563 14.9618 13.8565 7.1065 3.85777 11.8528 10.9192 8.31066 7.15516 9.8721 7.79593 5.48735 6.33917 5.63337 4.88221 4.11817 4.21733 3.09079 3.15717 2.121 2.16418 1.33401
internal_count=512 378 87 291 273 69 41 254 246 134 115 240 207 102 179 163 143 122 82 93 62 42 66 41
shrinkage=0.1


Tree=25
num_leaves=26
num_cat=0
split_feature=26 20 1 10 4 13 7 21 20 20 3 5 2 7 27 13 27 21 17 14 21 26 14 7 8
split_gain=11.5047 6.03469 4.03024 3.44219 1.81836 1.11365 0.769186 0.68733 0.60506 0.442451 0.0643001 0.0237478 0.0308413 0.00524401 0.00322627 0.0018827 0.000399961 7.12297e-05 4.8324e-05 1.34398e-05 9.43848e-06 2.61717e-06 1.35504e-06 3.36358e-07 1.64591e-08
threshold=0.20695000000000002 14.485000000000001 15.475000000000003 0.58465000000000011 0.088450000000000015 19.415000000000003 0.052175000000000006 31.460000000000004 15.665000000000001 17.425000000000004 610.95000000000016 0.10600000000000001 104.50000000000001 0.045625000000000006 0.11370000000000001 32.850000000000009 0.16735000000000003 27.985000000000003 0.020440000000000003 0.0048455000000000008 17.870000000000001 0.49440000000000006 0.0061635000000000006 0.017660000000000006 0.17135000000000003
decision_type=2 2 2 2 2 2 2 2 2 2 2 2 2 2 2 2 2 2 2 2 2 2 2 2 2
left_child=3 6 -3 7 -4 -6 14 9 -7 13 -10 -12 -13 15 -2 17 -14 19 21 -1 -21 -18 -22 -24 -25
right_child=1 2 4 -5 5 8 -8 -9 10 -11 11 12 16 -15 -16 -17 18 -19 -20 20 22 -23 23 24 -26
leaf_value=0.10370035460184045 0.10514084430504776 0.070009004185384291 -0.021074106968647199 -0.10253065719034245 0.0004550639216199832 -0.18995976974856588 0.008834916473014048 0.046908151697996808 -0.1271526232792406 0.18315115747313993 -0.11586423382588146 -0.088082715673543269 -0.10752991092733424 0.11241362597190885 0.11279546236324889 0.10915120401795178 -0.10505679445139693 0.10450212262575823 -0.10600291378881166 0.10358212284996859 0.10332042977277869 -0.10526335390896042 0.10322107252094054 0.10312819373043254 0.10315181192270723
leaf_weight=1.1085123661905507 1.3582105282694135 1.7932203523814667 3.074586682021617 0.91608921438455659 0.87240101397037406 1.0292978510260571 1.1806692928075788 1.9619159325957305 1.6250091828405837 0.80701734125614155 1.642429396510124 1.2166821993887422 1.1912479437887666 0.86189927719533432 0.92604042589664448 0.66226552054285992 1.0533073917031295 0.65316440723836411 0.9854324348270892 0.94527065381407771 0.92877473495900664 1.4687021560966966 0.90525951050221953 0.58802536688745 0.59223730303347111
leaf_count=33 35 19 31 5 9 7 11 24 17 4 20 24 20 11 12 10 23 18 19 29 30 31 30 20 20
internal_value=0 -0.0452482 -0.07123 0.0830108 -0.0891176 -0.107991 0.0743704 0.0999837 -0.117256 0.112915 -0.109106 -0.105226 -0.102272 0.105092 0.108244 0.104104 -0.105947 0.103519 -0.105409 0.103393 0.103306 -0.105177 0.10322 0.103175 0.10314
internal_weight=0 19.4172 15.9523 10.9304 14.1591 11.0845 3.46492 10.0143 10.2121 8.05243 9.18281 7.5578 5.91537 7.24541 2.28425 6.38351 4.69869 5.72124 3.50744 5.06808 3.95957 2.52201 3.0143 2.08552 1.18026
internal_count=512 278 220 234 201 170 58 229 161 205 154 137 117 201 47 190 93 180 73 162 129 54 100 70 40
shrinkage=0.1


Tree=26
num_leaves=24
num_cat=0
split_feature=27 22 1 20 21 24 25 3 12 27 21 17 3 23 21 7 12 13 26 14 10 17 13
split_gain=10.1651 5.24093 4.0945 4.25483 0.955482 0.761812 0.834836 0.248249 0.22001 0.127448 0.118286 0.117392 0.0147608 0.0100936 0.000488045 0.00040363 4.51648e-05 1.93338e-05 6.09701e-06 2.2648e-06 1.75318e-06 5.22251e-07 1.42289e-07
threshold=0.16110000000000002 127.2 21.300000000000004 14.485000000000001 28.095000000000002 0.14870000000000003 0.081070000000000017 796.00000000000011 1.8495000000000001 0.14525000000000002 26.460000000000004 0.023015000000000004 594.80000000000007 760.90000000000009 24.950000000000003 0.037335000000000007 2.6820000000000008 43.270000000000003 0.20875000000000002 0.0055595000000000011 0.20970000000000003 0.0067050000000000009 19.875000000000004
decision_type=2 2 2 2 2 2 2 2 2 2 2 2 2 2 2 2 2 2 2 2 2 2 2
left_child=1 2 4 8 5 6 -1 9 -4 10 13 12 -2 15 -14 16 18 -16 20 -19 -8 -22 -23
right_child=11 -3 3 -5 -6 -7 7 -9 -10 -11 -12 -13 14 -15 17 -17 -18 19 -20 -21 21 22 -24
leaf_value=0.020000128540334453 -0.11680343318625071 -0.11441891897921182 0.055103353202968108 -0.075512529398448325 -0.00071402310733907517 0.024514310265409452 0.10307967665214253 0.161142561491325 0.11481613966096821 0.13621642337304701 0.062351269429008586 -0.06966611917652929 -0.10716176612084208 0.11260437817935254 -0.10517953267140179 0.10576820172443702 0.10401241723135046 -0.10476108419938053 0.10330627175402135 -0.10457013408276922 0.10297879819654883 0.1028268062125632 0.10289850202885714
leaf_weight=1.0856465790420866 1.4914918951690186 2.1132670603692523 1.0697032418102019 4.0862493254244328 1.192402834072708 1.4133735261857499 0.83420995064079528 0.95056466758251268 1.4580984953790901 1.2707819566130636 0.68620764836668957 0.91019156947731961 1.1491735912859438 1.7275373693555591 0.92568237334489856 0.71631162054836739 0.55006905086338509 1.0387991331517699 0.64106976427137841 1.54489304497838 0.58754928223788727 0.56135657802224137 0.5460972934961319
leaf_count=31 15 30 16 32 21 25 29 5 24 8 18 17 21 23 20 17 16 24 21 37 21 21 20
internal_value=0 0.0351184 0.0514268 -0.0124289 0.0845178 0.0933012 0.102873 0.11279 0.0895472 0.107131 0.101735 -0.103185 -0.108145 0.10612 -0.105373 0.103594 0.103176 -0.104787 0.103031 -0.104647 0.102961 0.102903 0.102862
internal_weight=0 21.4905 19.3772 6.61405 12.7632 11.5708 10.1574 9.07176 2.5278 8.12119 6.85041 7.06023 6.15004 6.1642 4.65855 4.43666 3.72035 3.50937 3.17028 2.58369 2.52921 1.695 1.10745
internal_count=512 378 348 72 276 255 230 199 40 194 186 134 117 168 102 145 128 81 112 61 91 62 41
shrinkage=0.1


Tree=27
num_leaves=25
num_cat=0
split_feature=23 27 1 4 26 13 9 23 26 7 29 22 25 27 1 21 13 27 14 15 14 24 16 1
split_gain=9.21619 3.65751 2.64543 3.70115 2.22636 1.33076 0.843058 0.499573 0.0365116 0.0347349 0.0300525 0.0121541 0.000795833 0.000596106 0.000255971 0.000144989 4.07697e-05 1.62655e-05 5.59997e-06 3.1058e-06 2.03061e-06 1.72281e-06 8.21608e-07 5.398e-07
threshold=892.80000000000007 0.16350000000000003 21.300000000000004 0.090385000000000007 0.20695000000000002 35.490000000000009 0.057585000000000004 963.25000000000011 0.34025000000000005 0.045625000000000006 0.093410000000000007 105.95000000000002 0.22995000000000002 0.10055000000000001 18.725000000000005 27.175000000000001 28.365000000000006 0.17100000000000001 0.0049550000000000002 0.04074500000000001 0.0055210000000000007 0.14265000000000003 0.01059 16.970000000000002
decision_type=2 2 2 2 2 2 2 2 2 2 2 2 2 2 2 2 2 2 2 2 2 2 2 2
left_child=1 2 5 6 -2 8 -4 -6 10 -9 11 13 -11 15 -14 16 18 -16 -1 20 -19 22 -20 -24
right_child=4 -3 3 -5 7 -7 -8 9 -10 12 -12 -13 14 -15 17 -17 -18 19 21 -21 -22 -23 23 -25
leaf_value=0.10300892299823589 0.03830596121753032 -0.09323638314145459 0.015675611204887918 -0.090420174753357951 -0.032778913730991309 0.0054905652944406518 0.11738061840526511 -0.12543327513361896 0.12066235247318424 -0.10751471358166664 0.081188116343033606 0.11825787002264901 -0.10623559352849742 0.10589630603485452 -0.1047842975858123 0.10470363292851524 0.10369432191386092 -0.10434182242943386 0.10277132498785471 -0.10445831268416406 -0.10413355550702937 0.1028894244574967 0.10270727364822488 0.10258840025570676
leaf_weight=0.9430745635181722 1.3856911174952973 1.7483771666884411 1.4436906687915319 2.376667583361268 0.99951680377125551 1.5639835186302651 1.8716737050563095 1.0158442854881284 1.4009030796587465 1.4188103377819059 0.58041083812713612 0.61981220543384541 0.98483363166451443 0.90023750066757191 0.90602838620543513 0.50501169450581063 0.58335055038332928 0.83444226905703578 0.83599173650145608 0.81501897051930416 1.0664892010390756 0.54111923463642586 0.76631844229996182 0.76169571466743946
leaf_count=34 8 21 15 25 15 13 26 7 21 25 18 8 20 21 21 14 18 21 32 20 28 20 30 31
internal_value=0 0.0439588 0.059243 0.00481906 -0.0787625 0.0902154 0.0730927 -0.0989367 0.105919 -0.108328 0.102984 0.104944 -0.105444 0.10353 -0.104806 0.103098 0.102915 -0.104417 0.102797 -0.104295 -0.104225 0.102728 0.102692 0.102648
internal_weight=0 17.4423 15.6939 5.69203 9.42668 10.0019 3.31536 8.04098 8.43793 7.04147 7.03702 6.45661 6.02562 5.8368 4.60681 4.93656 4.43155 3.62198 3.8482 2.71595 1.90093 2.90513 2.36401 1.52801
internal_count=512 347 326 66 165 260 41 157 247 142 226 208 135 200 110 179 165 90 147 69 49 113 93 61
shrinkage=0.1


Tree=28
num_leaves=25
num_cat=0
split_feature=23 21 24 10 7 26 21 2 7 27 1 27 7 21 10 12 17 27 5 26 10 18 26 25
split_gain=8.18193 4.37241 2.60081 2.25095 2.70947 0.78552 0.450708 0.287155 0.313119 0.0298169 0.00343935 0.00235095 0.000444378 0.00010593 4.99658e-05 2.02888e-05 8.11345e-06 5.87473e-06 4.48762e-06 4.14027e-06 9.85779e-07 7.92273e-07 3.98404e-07 3.07088e-07
threshold=739.85000000000002 20.175000000000004 0.10905000000000002 0.6392000000000001 0.056080000000000012 0.20695000000000002 33.190000000000005 92.290000000000006 0.05012500000000001 0.14235000000000003 22.255000000000003 0.15380000000000002 0.037335000000000007 26.990000000000006 0.38945000000000002 2.6820000000000008 0.019815000000000003 0.17575000000000002 0.040945000000000002 0.20875000000000002 0.20970000000000003 0.015745000000000006 0.14640000000000003 0.11085000000000002
decision_type=2 2 2 2 2 2 2 2 2 2 2 2 2 2 2 2 2 2 2 2 2 2 2 2
left_child=3 -2 -3 4 6 -4 9 -7 -9 10 12 -10 13 15 -13 18 17 -16 -1 20 -20 -19 23 -22
right_child=1 2 5 -5 -6 7 -8 8 11 -11 -12 14 -14 -15 16 -17 -18 21 19 -21 22 -23 -24 -25
leaf_value=0.10281258652736147 0.07282176549662521 0.03607963856873514 -0.015486092265969373 -0.095980213673770673 -0.053724530297152698 -0.1387117319160974 0.044358536717341482 -0.045301525392703795 -0.1090252458505474 0.12700736208743665 0.10948606530984531 -0.10476718154738596 0.10530008830126247 0.1038230264723437 -0.10408363686421947 0.10326241386602149 -0.10421196572809753 -0.10366726004191817 0.10253804707280392 0.10272811655067544 0.10242568521961115 -0.10380029767912811 0.10247938052541972 0.10232345831585664
leaf_weight=0.57671269401907777 2.3869868852198115 1.7593640461564053 1.0786208044737566 0.81475910544395524 1.3851716406643397 2.0471069868653995 1.4068800769746301 1.0337040107697246 1.2408458255231378 0.61658337712287892 1.008733198046684 0.88291190937161435 0.85036445595324028 0.89815537631511677 0.74665242061019022 0.45329678431153286 0.77052640542387951 0.68208804354071606 0.8867022357881077 0.68912427313625801 0.59912453405559041 1.3023061342537401 0.538860848173499 0.5767211988568306
leaf_count=22 28 18 12 4 13 20 17 10 22 5 17 21 23 28 20 16 20 20 37 27 26 37 23 26
internal_value=0 -0.0503818 -0.0758566 0.0641303 0.0765704 -0.0959835 0.0964007 -0.105956 -0.0958869 0.105916 0.104079 -0.105182 0.10318 0.102835 -0.104095 0.102629 -0.103925 -0.103845 0.102555 0.10251 0.102452 -0.103755 0.102408 0.102376
internal_weight=0 13.9311 11.5441 11.3012 10.4864 9.78476 9.10126 8.70614 6.65903 7.69438 7.0778 5.62533 6.06906 5.2187 4.38448 4.32054 3.50157 2.73105 3.86725 3.29053 2.60141 1.98439 1.71471 1.17585
internal_count=512 228 200 284 280 182 267 170 150 250 245 140 228 205 118 177 97 77 161 139 112 57 75 52
shrinkage=0.1


Tree=29
num_leaves=25
num_cat=0
split_feature=23 24 22 12 26 21 9 23 7 7 21 27 27 7 21 7 21 28 15 28 14 18 25 29
split_gain=7.42801 3.01737 3.20337 1.94971 1.92923 1.65262 1.10667 0.511074 0.469447 0.0254525 0.0229923 0.0080185 0.001199 0.00103967 0.000730312 0.000300141 0.000237862 9.88809e-06 4.13875e-06 3.18379e-06 1.09265e-06 1.05085e-06 5.44321e-07 1.93631e-07
threshold=892.80000000000007 0.14175000000000001 86.945000000000007 4.1105000000000009 0.20695000000000002 29.585000000000004 0.056435000000000006 963.25000000000011 0.061145000000000012 0.045625000000000006 31.460000000000004 0.14020000000000002 0.08679000000000002 0.034975000000000006 24.835000000000004 0.074490000000000015 26.990000000000006 0.31900000000000001 0.032130000000000013 0.22700000000000004 0.0055210000000000007 0.015595000000000001 0.089385000000000006 0.078780000000000017
decision_type=2 2 2 2 2 2 2 2 2 2 2 2 2 2 2 2 2 2 2 2 2 2 2 2
left_child=1 3 12 6 -2 -4 -1 -6 10 -9 11 13 -3 16 -11 -16 17 19 20 -8 -17 -21 -23 -24
right_child=4 2 5 -5 7 -7 8 9 -10 14 -12 -13 -14 -15 15 18 -18 -19 -20 21 -22 22 23 -25
leaf_value=0.011937799424659114 0.033098927015403894 0.10305025534762267 -0.01066443812191601 -0.067118215347808527 -0.027143501084800539 -0.15275161354860919 0.10250368835994206 -0.12277830641474284 0.036140292730520239 -0.10675724408674461 0.11795593150813651 0.11620805315463795 0.10910254753479816 0.10630433537091673 -0.10557933926806409 -0.1034995967460558 0.10436202365179509 0.10276533754374517 -0.10365410534753478 0.10235436344525679 -0.10333863847545227 0.10227048944868831 0.10209654166921073 0.10218667269783342
leaf_weight=1.7726408317685134 1.3667685687541942 0.65912101231515297 1.7028472367674115 0.94008998945355493 0.91190237551927555 1.5763725340366361 0.51501935161650125 0.92121160030364979 1.0339085608720777 1.3032889552414415 1.8168761953711507 0.56292431615293015 0.65023940615355968 1.0848728381097315 0.92479749210178885 0.74840881302952789 0.75444192253053177 0.51819232292473305 1.1498946361243723 0.4595073889940976 0.96627322025597095 0.4544177148491142 0.52247832715511322 0.43831738457083702
leaf_count=35 8 26 27 7 15 19 22 7 10 26 20 7 14 27 21 23 23 21 34 21 31 21 26 21
internal_value=0 0.0418318 -0.0261711 0.0705283 -0.0754772 -0.078968 0.0835548 -0.0969042 0.0991107 -0.107482 0.108246 0.104923 0.106056 0.103585 -0.104715 -0.104013 0.10278 0.102369 -0.103507 0.102283 -0.103409 0.102223 0.10218 0.102138
internal_weight=0 15.4623 4.58858 10.8737 8.29255 3.27922 9.9336 6.92578 8.16096 6.01387 7.12705 5.31017 1.30936 4.74725 5.09266 3.78937 3.66237 2.90793 2.86458 2.38974 1.71468 1.87472 1.41521 0.960796
internal_count=512 347 86 261 165 46 254 157 219 142 209 189 40 182 135 109 155 132 88 111 54 89 68 47
shrinkage=0.1


Tree=30
num_leaves=28
num_cat=0
split_feature=27 1 20 28 21 26 15 2 7 13 7 22 13 23 27 21 21 27 26 13 5 2 15 20 21 1 1
split_gain=6.66243 3.79425 4.55182 2.41969 1.83892 1.45758 0.761059 0.16464 0.136603 0.0466448 0.0261094 0.0107651 0.00606017 0.00545127 0.00165151 0.000485768 0.000254815 0.00019707 9.07851e-06 7.40633e-06 4.90857e-06 1.51073e-06 8.62435e-07 8.37468e-07 6.11325e-07 4.49052e-07 2.50656e-07
threshold=0.16110000000000002 16.675000000000004 15.780000000000001 0.19825000000000001 33.190000000000005 0.19235000000000005 0.027700000000000006 94.060000000000016 0.065615000000000021 41.375000000000007 0.053725000000000002 105.65000000000002 31.005000000000006 878.65000000000009 0.11700000000000001 24.195000000000004 29.880000000000006 0.098855000000000012 0.21080000000000002 24.300000000000004 0.18435000000000004 78.360000000000014 0.023080000000000003 13.170000000000002 19.215000000000003 21.975000000000005 18.880000000000006
decision_type=2 2 2 2 2 2 2 2 2 2 2 2 2 2 2 2 2 2 2 2 2 2 2 2 2 2 2
left_child=1 9 3 -3 10 -4 7 -7 -2 11 12 17 14 -10 16 -15 18 19 21 23 22 26 -17 24 -1 -24 -5
right_child=8 2 5 4 -6 6 -8 -9 13 -11 -12 -13 -14 15 -16 20 -18 -19 -20 -21 -22 -23 25 -25 -26 -27 -28
leaf_value=0.10209674983124573 -0.054599123719140254 -0.11282036428097064 0.030235032239810274 0.10194122990931645 -0.012010126880386603 -0.14959079108809081 -0.030274975188439759 -0.10112894949182988 -0.11241001599594701 0.13400415607331226 0.12524546740485556 0.11444377210910391 0.11511534951800646 -0.10588453456391492 0.10802021694336289 -0.10299940707159201 0.10468099214040245 0.10428300633052844 0.10257360261930999 0.10256669033568636 -0.10340137429253958 0.10218136614844867 -0.10307607811791314 0.10216445283318364 0.10192236238608994 -0.10319349607130333 0.10204502232478854
leaf_weight=0.44064577855170461 0.59348958544433017 0.75585609488189032 1.2902420703321693 0.57771709002554572 1.7198897674679754 1.111400041729212 1.4231410697102544 1.8985816333442924 0.94137484207749356 0.72704265266656865 0.81178556382656086 1.1185164581984279 0.56173785403370846 0.88333495706319842 0.7451095301657914 0.62160800769925151 0.50477899610996235 0.58225427195429791 0.4420501310378312 0.40716522559523571 0.72533365339040745 0.63694614917039871 0.57842303998768307 0.73788017220795155 0.36965732090175152 0.74548779055476189 0.38957185111939907
leaf_count=22 11 8 12 31 19 8 21 32 13 5 8 13 9 20 14 22 14 18 19 18 23 31 20 36 20 25 20
internal_value=0 0.0305147 0.00314517 0.0563725 0.0763872 -0.0633075 -0.0905326 -0.119023 -0.0996909 0.110871 0.108945 0.106271 0.105515 -0.105644 0.103878 -0.103852 0.102669 0.102668 0.102172 0.102187 -0.103179 0.102062 -0.103097 0.102087 0.102017 -0.103142 0.101983
internal_weight=0 17.252 12.8688 7.14544 6.38959 5.72336 4.43312 3.00998 5.08905 4.38316 4.6697 3.65612 3.85791 4.49556 3.29617 3.55419 2.55106 2.5376 2.04629 1.95535 2.67085 1.60424 1.94552 1.54818 0.810303 1.32391 0.967289
internal_count=512 378 246 173 165 73 61 40 134 132 146 127 138 123 129 110 115 114 101 96 90 82 67 78 42 45 51
shrinkage=0.1


Tree=31
num_leaves=29
num_cat=0
split_feature=22 26 10 21 27 16 7 28 23 0 27 7 13 21 10 22 21 21 27 27 13 16 28 11 21 1 21 25
split_gain=6.04112 3.41479 3.26157 3.10067 2.2378 1.46254 2.23185 0.804764 0.737042 0.145759 0.0243483 0.0184206 0.00671324 0.00190124 0.0018185 0.000776405 0.000297139 0.000116725 8.67582e-05 1.36627e-05 1.1528e-05 3.06543e-06 2.91487e-06 2.45045e-06 4.61152e-07 1.95733e-07 1.82627e-07 7.99567e-08
threshold=127.2 0.20695000000000002 0.6392000000000001 27.330000000000002 0.16350000000000003 0.026725000000000002 0.048770000000000008 0.32320000000000004 822.85000000000014 16.325000000000006 0.14525000000000002 0.057960000000000005 36.925000000000004 32.125000000000007 0.35795000000000005 103.25000000000001 24.950000000000003 29.055000000000003 0.10625000000000001 0.16735000000000003 28.565000000000005 0.056660000000000009 0.23555000000000001 0.73830000000000007 25.625000000000004 21.395000000000003 21.185000000000006 0.14960000000000004
decision_type=2 2 2 2 2 2 2 2 2 2 2 2 2 2 2 2 2 2 2 2 2 2 2 2 2 2 2 2
left_child=1 2 7 4 8 -5 -7 9 10 12 14 -2 13 15 18 17 -13 20 -3 -18 22 25 -1 -24 26 -21 -25 -28
right_child=11 3 -4 5 -6 6 -8 -9 -10 -11 -12 16 -14 -15 -16 -17 19 -19 -20 21 -22 -23 23 24 -26 -27 27 -29
leaf_value=0.1021054237265737 -0.1204519803146855 0.10201697871077516 -0.13360971221806231 -0.14217861680439428 -0.080692923737576805 0.067484323193903351 -0.10910732086941347 -0.011065947589357084 0.016891359431151606 0.15431732739527884 0.12596720810762801 -0.10513088816910539 0.11539244143762593 0.10773676171871796 0.11008303641069668 0.10646742269983506 -0.10337322193213326 0.10373277844056948 0.10386787126681865 -0.10270815072069668 0.10249673813401182 -0.10303239116063823 0.10205876583666462 0.10181821404394076 0.1018958300188247 -0.1027863262691342 0.10176794718196154 0.1017004522572767
leaf_weight=0.64932383969426943 0.79266363196074863 0.51441981457173713 0.65935666859149922 1.7631562780588863 1.0983363408595321 1.344816252589226 1.5298572108149526 0.59985749423503865 1.1756660584360359 0.67015297710895527 0.91723941639065731 0.85245462879538569 0.54769137129187573 0.94913971796631802 0.54700809903442849 0.49227124452590931 0.63635031133890185 0.44571228139102448 0.4988170089200139 0.53891379199922063 0.40267651341855515 0.56677869893610466 0.47425652295351017 0.41878643445670583 0.36152055300772179 0.78942640125751495 0.35715928673744202 0.34510542266070843
leaf_count=33 10 27 3 19 16 18 30 16 13 3 7 22 6 16 10 11 21 15 16 21 18 20 25 24 20 30 21 21
internal_value=0 0.0276879 0.078622 -0.0123085 0.044466 -0.0704743 -0.026495 0.0994656 0.0820956 0.11031 0.113038 -0.10673 0.104893 0.103718 0.105437 0.102752 -0.103516 0.102222 0.102928 -0.102972 0.101999 -0.102838 0.101922 0.101861 0.101798 -0.102755 0.101766 0.101735
internal_weight=0 16.7623 7.37301 9.38932 4.75149 4.63783 2.87467 6.71365 3.65315 6.1138 2.47748 4.17659 5.44364 4.89595 1.56024 3.94681 3.38392 3.45454 1.01324 2.53147 3.00883 1.89512 2.60615 1.95683 1.48257 1.32834 1.12105 0.702265
internal_count=512 388 232 156 89 67 48 229 73 213 60 124 210 204 53 188 114 177 43 92 162 71 144 111 86 51 66 42
shrinkage=0.1


Tree=32
num_leaves=26
num_cat=0
split_feature=22 24 22 1 9 11 1 18 24 22 0 12 7 4 22 15 7 21 5 27 9 16 0 26 1
split_gain=5.40182 3.07467 3.12352 1.51458 2.7023 0.980836 0.868139 0.518829 0.413945 0.291333 0.0944541 0.0175426 0.013793 0.00791661 0.00351976 0.00135242 0.000296744 0.000219125 1.53189e-05 1.00652e-05 5.43225e-06 2.25306e-06 9.88653e-07 3.87033e-07 1.43877e-07
threshold=127.2 0.13750000000000004 91.695000000000007 21.445000000000004 0.056755000000000007 2.0730000000000008 19.625000000000004 0.011615000000000002 0.12065000000000002 86.585000000000008 16.325000000000006 3.3910000000000005 0.057960000000000005 0.10075000000000002 107.05000000000001 0.024175000000000006 0.037055000000000005 24.950000000000003 0.082925000000000013 0.16735000000000003 0.056860000000000008 0.056660000000000009 12.350000000000001 0.084470000000000003 21.395000000000003
decision_type=2 2 2 2 2 2 2 2 2 2 2 2 2 2 2 2 2 2 2 2 2 2 2 2 2
left_child=1 3 9 5 -5 7 -4 -1 -6 15 11 13 -2 14 16 -3 18 -14 20 -19 -9 24 23 -22 -21
right_child=12 2 6 4 8 -7 -8 10 -10 -11 -12 -13 17 -15 -16 -17 -18 19 -20 21 22 -23 -24 -25 -26
leaf_value=0.016355563515934507 -0.11847658802376622 0.10281829801161574 -0.038326526328646776 -0.098841284189062573 0.11367511802308761 -0.036770533261675863 -0.13479105285730247 0.10209449085802447 0.029309933542373146 0.013475133140326709 0.1466965339898896 0.11837391448960813 -0.10462650064389181 0.08957967158015423 0.10988025624535989 0.10965399621829874 0.10501314752343952 -0.10304294403578454 0.10249810396140974 -0.10244381392246571 0.10170648515652643 -0.10273566097464366 0.10181713156503802 0.10156464029336275 -0.10251418800818413
leaf_weight=0.65739611536264586 0.72857734933495466 0.70116478577256092 1.9209808949381115 1.4478712081909182 1.2669094158336522 0.57390913274139155 1.8138556797057388 0.49920681957155633 1.0751467458903787 0.48118424788117398 0.63621237874031056 0.87425235845148552 0.77486164309084449 0.41259010322391976 0.83619707264006127 0.49288984481245279 0.36909846961498249 0.57754508219659362 0.40527794044464815 0.48882350325584389 0.37657303921878316 0.51424834504723538 0.47797175124287605 0.39323812164366245 0.71610216610133648
leaf_count=10 10 34 33 14 23 11 35 26 18 13 3 11 22 21 14 13 12 21 20 21 23 20 28 26 30
internal_value=0 0.0267572 -0.0342864 0.0588146 0.00855402 0.0880662 -0.0851754 0.100132 0.0749463 0.0791672 0.110561 0.105611 -0.106107 0.102652 0.104258 0.10564 0.102393 -0.103172 0.101944 -0.102682 0.101816 -0.10256 0.101704 0.101634 -0.102486
internal_weight=0 15.7119 5.41008 10.3019 3.78993 6.51192 3.73484 5.93801 2.34206 1.67524 5.28062 4.64441 3.80016 3.77015 3.35756 1.19405 2.52137 3.07158 2.15227 2.29672 1.74699 1.71917 1.24778 0.769811 1.20493
internal_count=512 388 128 260 55 205 68 194 41 60 184 181 124 170 149 47 135 114 123 92 103 71 77 49 51
shrinkage=0.1


Tree=33
num_leaves=24
num_cat=0
split_feature=20 28 13 21 24 9 7 29 6 29 20 13 22 16 21 21 21 13 28 28 24 25 24
split_gain=4.83438 3.10721 2.24598 1.64648 1.04558 1.96416 1.02009 0.269234 0.229178 0.0895033 0.0344059 0.0135519 0.00333258 0.000865791 0.000658397 6.62334e-05 8.00105e-06 6.11646e-06 1.71864e-06 1.78556e-06 1.18731e-06 1.75584e-07 1.19126e-07
threshold=14.485000000000001 0.27875000000000011 54.20000000000001 30.745000000000005 0.13415000000000002 0.056680000000000001 0.034975000000000006 0.080895000000000009 0.073925000000000005 0.094545000000000018 17.370000000000001 34.935000000000009 117.80000000000003 0.018630000000000004 30.995000000000005 29.420000000000005 27.330000000000002 26.920000000000005 0.22700000000000004 0.32040000000000007 0.14265000000000003 0.089385000000000006 0.13295000000000004
decision_type=2 2 2 2 2 2 2 2 2 2 2 2 2 2 2 2 2 2 2 2 2 2 2
left_child=6 2 3 8 5 -3 11 -6 10 -9 13 14 -11 -2 16 -14 17 18 -1 20 21 -20 -23
right_child=1 4 -4 -5 7 -7 -8 9 -10 12 -12 -13 15 -15 -16 -17 -18 -19 19 -21 -22 22 -24
leaf_value=0.10182175081489855 0.10242273701851271 -0.11994877089408121 -0.098409854685190423 -0.037808308368359939 -0.15903681725385044 0.048305264717729141 0.014354271018154688 -0.069166558060974201 0.060436977925269836 -0.11082391941914566 0.13231450859464003 0.12157051285587735 -0.10399414834934995 0.10817381685640089 0.10495649744132043 -0.10242818664605242 0.10218922216786826 0.10209091429074793 0.10154030129777808 0.10178182620323238 0.10169030044566237 0.10141917530296657 0.10149919203642832
leaf_weight=0.33637858461589099 0.57923431135713899 1.3237940669059756 1.227453678846359 1.3372249566018579 0.91299257054924954 1.4579573627561329 1.8326764218509195 0.82801328040659461 1.1616074321791527 1.2764569576829674 0.82047611847519863 0.41527863219380368 0.61750054731965043 0.47760542761534452 0.82885681279003609 0.48008097894489765 0.3479574704542755 0.30964177194982756 0.2974235964938996 0.33718022797256697 0.33501878567039955 0.48178236559033394 0.303115364164114
leaf_count=20 30 19 34 15 17 33 33 36 16 24 6 4 20 11 21 21 18 17 20 20 21 35 21
internal_value=0 -0.0341812 0.02113 0.0546595 -0.0791212 -0.0317643 0.0761198 -0.111134 0.0953483 -0.097476 0.11695 0.104471 -0.10735 0.105022 0.102486 -0.103309 0.101741 0.101676 0.101615 0.101575 0.101526 0.101475 0.10145
internal_weight=0 12.5004 5.6036 4.37615 6.8968 2.78175 5.82531 4.11504 3.03892 3.20205 1.87732 3.99263 2.37404 1.05684 3.57735 1.09758 2.7485 2.40054 2.0909 1.75452 1.41734 1.08232 0.784898
internal_count=512 282 112 78 170 52 230 118 63 101 47 197 65 41 193 41 172 154 137 117 97 76 56
shrinkage=0.1


Tree=34
num_leaves=24
num_cat=0
split_feature=23 24 15 16 7 21 6 1 27 7 7 21 21 23 21 20 24 26 18 4 15 6 8
split_gain=4.50923 1.90714 1.49112 3.04707 1.74218 1.53742 1.19862 0.00941393 0.00314986 0.00240282 0.000390806 0.000382738 0.000220075 7.5772e-05 1.35463e-05 6.69526e-06 4.56408e-06 2.87739e-06 1.59945e-06 8.90284e-07 4.4531e-07 2.4794e-07 2.04707e-07
threshold=892.80000000000007 0.17835000000000004 0.012035000000000002 0.012510000000000002 0.048770000000000008 25.740000000000006 0.071475000000000011 21.395000000000003 0.13765000000000002 0.043620000000000006 0.034975000000000006 31.870000000000001 23.795000000000005 705.80000000000007 26.795000000000005 19.515000000000004 0.13190000000000004 0.024655000000000003 0.025395000000000004 0.1019 0.032130000000000013 0.14425000000000002 0.17335000000000003
decision_type=2 2 2 2 2 2 2 2 2 2 2 2 2 2 2 2 2 2 2 2 2 2 2
left_child=1 2 3 11 7 -6 -2 9 -8 10 13 17 -10 14 18 -14 -17 -1 19 22 21 -18 -4
right_child=6 -3 4 -5 5 -7 8 -9 12 -11 -12 -13 15 -15 -16 16 20 -19 -20 -21 -22 -23 -24
leaf_value=0.10179331972642743 -0.0077475791575856608 -0.10180850616338566 0.10131091811059408 -0.10848313067083769 0.077875134073166527 -0.067554119345717006 -0.11021561971597414 0.1125761949429005 -0.1042893114811772 0.11097427319471685 0.1049266641040235 0.10549742787614479 -0.10258096403916139 0.10332599444501292 0.10221732085370633 -0.10243009797307408 -0.10209824234490253 0.10143052636599775 0.10166871694527964 0.10156745243187953 -0.10215773000776406 -0.10199568490947129 0.10142283032750499
leaf_weight=0.40063552465289853 1.9574572164565314 0.91192365065217096 0.38147202972322769 1.531413269229233 1.5553438607603314 1.3647848088294265 0.67741094902157817 2.034659918397665 0.67826291732490096 0.3927872460335492 0.54653197806328524 0.35159137845039368 0.49916301853954825 0.3140018107369541 0.31771527417004097 0.50316134281456459 0.42063230462372281 0.48118353262543678 0.36475477926433086 0.29510191455483437 0.49333797581493855 0.53625443205237389 0.2859793845564127
leaf_count=25 18 12 30 29 23 24 11 38 20 10 18 8 21 13 17 22 21 35 24 20 24 28 21
internal_value=0 0.0369693 0.0488882 -0.0142692 0.0711238 0.00990565 -0.0713438 0.107362 -0.104033 0.103702 0.102562 0.102708 -0.102695 0.101903 0.101631 -0.102254 -0.102171 0.101595 0.10149 0.101423 -0.102081 -0.102041 0.101359
internal_weight=0 11.5299 10.618 2.76482 7.85313 2.92013 5.76568 4.933 3.80822 2.89834 2.50556 1.23341 3.13081 1.95903 1.64502 2.45255 1.95339 0.881819 1.32731 0.962553 1.45022 0.956887 0.667451
internal_count=512 347 335 97 238 47 165 191 147 153 143 68 136 125 112 116 95 60 95 71 73 49 51
shrinkage=0.1


Tree=35
num_leaves=30
num_cat=0
split_feature=22 26 10 15 7 21 25 1 0 0 7 27 7 13 1 27 22 21 13 21 24 27 24 11 15 25 6 1 7
split_gain=4.06074 2.22492 2.54852 2.31531 2.09951 1.70434 1.2481 0.753949 0.366364 0.0519159 0.0113355 0.0070621 0.005019 0.0025069 0.000681604 0.000498809 0.000379301 0.000121203 4.34936e-05 2.08527e-05 3.21174e-06 2.39405e-06 1.34174e-06 5.59885e-07 5.43367e-07 3.60519e-07 3.59202e-07 1.32169e-07 1.28924e-07
threshold=127.2 0.20695000000000002 0.6392000000000001 0.012245000000000001 0.044240000000000008 27.330000000000002 0.32575000000000004 29.330000000000002 14.750000000000002 16.325000000000006 0.056080000000000012 0.14655000000000004 0.037870000000000008 39.245000000000012 24.240000000000006 0.11700000000000001 103.25000000000001 25.740000000000006 31.005000000000006 28.455000000000002 0.13190000000000004 0.08679000000000002 0.10270000000000001 0.95160000000000011 0.032130000000000013 0.11085000000000002 0.026220000000000004 16.970000000000002 0.09173000000000002
decision_type=2 2 2 2 2 2 2 2 2 2 2 2 2 2 2 2 2 2 2 2 2 2 2 2 2 2 2 2 2
left_child=1 2 7 -3 8 6 -6 9 12 13 -2 -7 15 14 16 -5 18 -12 19 21 -19 22 -1 26 28 -25 -24 -27 -22
right_child=10 3 -4 4 5 11 -8 -9 -10 -11 17 -13 -14 -15 -16 -17 -18 20 -20 -21 24 -23 23 25 -26 27 -28 -29 -30
leaf_value=0.10153268351411525 -0.11935302303027469 -0.16663316069251163 -0.11740313259371998 0.10219767301717038 0.093375317808131658 -0.11641414765931782 -0.047419677823807557 -0.02474175771517299 0.024697925456240132 0.1357819116735548 -0.10344459167088536 -0.10364850061722367 0.11527324963980079 0.1112606575988602 0.10577592652669715 0.10658241161498404 0.10487715524804425 -0.10221172115972546 0.10283154693934944 0.10226534944273871 -0.1018819858922855 0.10165550704147595 0.10130887892989922 0.10133085032964691 -0.10198574510019343 0.10125076041434307 0.10146027707236312 0.101148916067848 -0.10179845024829048
leaf_weight=0.30805428139865787 0.47582016885280554 0.84980586729943741 0.63491460680961598 0.65058640856295846 1.1834468543529513 0.89400704577565171 1.3453837130218742 0.47602752409875382 0.76575264427810896 0.56700415909290303 0.87704667169600758 0.84104754962027073 0.61267266701906908 0.37491950765252102 0.59445436298847187 0.43153872527182102 0.41801540460437525 0.43971715494990338 0.27330287545919407 0.3095481265336274 0.39594817906618096 0.28351768851280201 0.36482767295092322 0.33288162481039762 0.41624028608202934 0.24194609653204679 0.27471156418323517 0.26921095792204142 0.34637277107685804
leaf_count=22 6 7 3 39 18 10 23 6 9 3 33 31 9 5 14 10 12 21 12 17 22 19 29 26 22 20 20 24 20
internal_value=0 0.0244501 0.0715061 -0.011107 0.00854775 -0.033899 0.0184698 0.0950775 0.0821036 0.107444 -0.105217 -0.110226 0.108041 0.103472 0.102676 0.103946 0.102077 -0.1025 0.101637 0.1015 -0.101982 0.101385 0.101343 0.101303 -0.101894 0.10125 0.101374 0.101197 -0.101843
internal_weight=0 13.2976 5.72334 7.57424 6.72444 4.26389 2.52883 5.08842 2.46055 4.61239 2.95115 1.73505 1.6948 4.04539 3.67047 1.08213 3.07602 2.47533 2.658 2.3847 1.59828 2.07515 1.79163 1.48358 1.15856 0.844039 0.639539 0.511157 0.742321
internal_count=512 388 232 156 149 82 41 229 67 223 124 41 58 220 215 49 201 118 189 177 85 160 141 119 64 70 49 44 42
shrinkage=0.1


Tree=36
num_leaves=26
num_cat=0
split_feature=22 26 10 15 24 21 28 0 13 24 0 7 13 1 27 21 21 13 24 14 11 15 14 25 7
split_gain=3.63712 1.96413 2.21209 2.00062 1.85505 0.834247 0.725234 0.537944 0.528062 0.114902 0.0359975 0.00838126 0.00169428 0.000828819 0.000266186 8.95252e-05 3.03356e-05 3.82202e-06 2.36517e-06 1.21798e-06 4.1947e-07 4.00407e-07 2.55856e-07 1.02757e-07 9.50567e-08
threshold=127.2 0.20695000000000002 0.6392000000000001 0.012245000000000001 0.14870000000000003 25.740000000000006 0.32320000000000004 14.255000000000001 21.040000000000003 0.13125000000000003 16.325000000000006 0.056080000000000012 39.245000000000012 25.245000000000001 0.098855000000000012 25.740000000000006 26.205000000000002 28.565000000000005 0.13190000000000004 0.0046970000000000007 0.95160000000000011 0.032130000000000013 0.0064705000000000014 0.11085000000000002 0.09173000000000002
decision_type=2 2 2 2 2 2 2 2 2 2 2 2 2 2 2 2 2 2 2 2 2 2 2 2 2
left_child=1 2 6 -3 5 9 10 -7 -6 -5 12 -2 13 14 16 -13 17 19 -17 -1 22 24 -21 -22 -20
right_child=11 3 -4 4 8 7 -8 -9 -10 -11 -12 15 -14 -15 -16 18 -18 -19 21 20 23 -23 -24 -25 -26
leaf_value=0.10140117818404315 -0.11738920578291299 -0.15946226108750827 -0.10456580304470053 0.11038245078572083 -0.0042414490646407576 0.05524112308752023 -0.02165888563306009 -0.042668893963586307 -0.10710233673966801 0.058540292331145764 0.13130979813454996 -0.10310962073138658 0.11011235296528053 0.10598509440040785 0.10404811133680583 -0.10199691934609859 0.10212071531408172 0.1016376398632942 -0.10169973770988763 0.10114953487830101 0.10115553180682557 -0.10179328260558584 0.10129445695001543 0.10107399235234248 -0.10162439335820439
leaf_weight=0.25600809138268221 0.43737262301147106 0.80171542055904854 0.64119662344455708 1.3486120272427795 0.80375082697719369 1.090328196063638 0.489765916019678 1.1562236826866863 1.3167346473783252 0.62596514914184798 0.5296073406934737 0.79603140242397818 0.34259779937565316 0.63178331963717926 0.49741580616682757 0.39866777323186386 0.55972908157855261 0.23816960025578726 0.35887807141989447 0.2215189868584273 0.25759995728731155 0.37730563338845968 0.27067940030246973 0.38635324966162443 0.3139205165207386
leaf_count=20 6 7 3 33 20 22 16 18 32 24 3 33 5 14 18 21 35 16 22 20 23 22 22 37 20
internal_value=0 0.0236417 0.0696273 -0.0106217 0.00819492 0.0465287 0.0934868 0.00485017 -0.0681138 0.0939479 0.106941 -0.104725 0.103417 0.102726 0.10196 -0.102258 0.101486 0.101267 -0.10179 0.101204 0.10116 -0.101711 0.101229 0.101107 -0.101665
internal_weight=0 12.4658 5.32243 7.14333 6.34161 4.22113 4.68123 2.24655 2.12049 1.97458 4.19146 2.68218 3.66186 3.31926 2.68747 2.2448 2.19006 1.63033 1.44877 1.39216 1.13615 1.0501 0.492198 0.643953 0.672799
internal_count=512 388 232 156 149 97 229 40 52 57 213 124 210 205 191 118 173 138 85 122 102 64 42 60 42
shrinkage=0.1


Tree=37
num_leaves=30
num_cat=0
split_feature=23 4 21 5 6 1 6 14 20 9 11 6 17 10 27 7 1 3 10 1 27 7 22 1 24 24 9 29 11
split_gain=3.31495 1.59572 2.28476 1.65059 2.21097 1.00527 1.87364 0.89542 0.479402 0.308428 0.132842 0.0493103 0.00902802 0.00476702 0.00434874 0.000919442 0.000715851 0.000500166 0.000374323 0.000167341 0.000102412 2.67103e-05 1.05939e-05 3.22585e-06 2.15638e-06 1.34869e-06 5.06903e-07 1.5065e-07 1.46301e-07
threshold=892.80000000000007 0.090385000000000007 22.050000000000001 0.059495000000000006 0.092835000000000015 19.485000000000003 0.073925000000000005 0.0033440000000000002 15.175000000000002 0.054310000000000004 1.0080000000000002 0.051710000000000006 0.011580000000000002 0.23480000000000004 0.14150000000000004 0.057960000000000005 26.915000000000003 919.60000000000014 0.40550000000000003 21.395000000000003 0.08679000000000002 0.042005000000000008 130.15000000000003 19.075000000000003 0.13035000000000002 0.13565000000000002 0.057290000000000008 0.076300000000000021 1.151
decision_type=2 2 2 2 2 2 2 2 2 2 2 2 2 2 2 2 2 2 2 2 2 2 2 2 2 2 2 2 2
left_child=1 7 14 -4 10 6 -2 -1 -6 -9 -5 -7 16 -12 18 -13 20 -8 21 -15 23 25 -17 26 -24 -3 -11 -28 -26
right_child=5 2 3 4 8 11 17 9 -10 12 13 15 -14 19 -16 22 -18 -19 -20 -21 -22 -23 24 -25 28 -27 27 -29 -30
leaf_value=-0.084281686818753726 0.087977301642056902 0.1010098615341353 -0.16929065008498001 0.034334630480123932 -0.017102417926289439 -0.13791605469501925 -0.10700513912508558 0.0046405673454920455 -0.11407298167147853 0.10120433845958554 0.11767312155221894 -0.10667436264423401 0.11371010080792915 0.10170394025408998 0.11474231540026272 -0.102223699024099 0.10616957867338761 -0.10272182603403711 0.10563382305915121 0.10470620235505307 0.10337569402852297 0.10239165581152912 -0.10183430628944792 0.1015044418826743 -0.10149790239017659 0.10131792944294278 0.10107347247801467 0.10095511469406707 -0.10158186965827698
leaf_weight=0.2895027212798581 0.93692806735634926 0.28509922139346577 0.76672486215829838 0.32453600876033339 0.89335515908896956 0.49908723682165179 0.52681292500346877 0.31727761961519751 1.1875259783118961 0.22716531250625871 0.31707938201725461 0.50511569436639581 1.486937337554991 0.41418935731053352 0.40371549129486073 0.40331474319100369 0.51662825793027867 0.5649933535605669 0.30741685442626476 0.33647229894995689 0.28331389371305704 0.25715717766433954 0.36343958228826501 0.25088347960263491 0.39173439145088196 0.28334052488207817 0.23792887013405561 0.19623993802815676 0.44122410751879215
leaf_count=6 9 29 7 13 17 3 15 9 24 20 10 13 32 32 4 21 12 27 8 11 14 13 21 19 27 23 23 21 29
internal_value=0 0.0344907 0.00136765 -0.0364945 -0.00717882 -0.0685385 -0.0157637 0.0847652 -0.072442 0.0986828 0.0903627 -0.109656 0.10801 0.107392 0.105831 -0.102955 0.103059 -0.104789 0.102655 0.10305 0.101715 0.101546 -0.10178 0.101199 -0.101631 0.101163 0.101083 0.10102 -0.101542
internal_weight=0 9.58249 5.77661 4.23988 3.47316 4.63265 2.02873 3.80588 2.08088 3.51637 1.39228 2.60392 3.1991 1.06774 1.53673 2.10483 1.71216 1.09181 1.13301 0.750662 1.19553 0.825597 1.59971 0.912218 1.1964 0.56844 0.661334 0.434169 0.832958
internal_count=512 347 191 114 107 165 51 156 41 150 66 114 141 53 77 111 109 42 73 43 97 65 98 83 77 52 64 44 56
shrinkage=0.1


Tree=38
num_leaves=28
num_cat=0
split_feature=23 4 21 22 4 15 6 14 12 9 6 17 27 27 1 10 21 27 7 22 1 24 24 9 15 29 1
split_gain=2.93854 1.41837 2.02915 1.4368 1.04017 0.847761 2.19542 0.795112 0.450518 0.303835 0.0423294 0.00668715 0.00315968 0.00100849 0.000529611 0.000275603 8.76649e-05 7.58705e-05 1.97341e-05 3.07154e-06 2.38522e-06 1.18668e-06 9.96424e-07 3.74572e-07 1.72358e-07 1.11312e-07 5.33361e-08
threshold=892.80000000000007 0.090385000000000007 22.050000000000001 85.075000000000003 0.082045000000000021 0.012410000000000003 0.097495000000000012 0.0033440000000000002 2.3505000000000007 0.054310000000000004 0.055325000000000006 0.011580000000000002 0.14150000000000004 0.12860000000000002 26.915000000000003 0.40550000000000003 24.195000000000004 0.08679000000000002 0.042005000000000008 130.15000000000003 19.075000000000003 0.13190000000000004 0.13565000000000002 0.057290000000000008 0.032130000000000013 0.076300000000000021 21.495000000000005
decision_type=2 2 2 2 2 2 2 2 2 2 2 2 2 2 2 2 2 2 2 2 2 2 2 2 2 2 2
left_child=1 7 12 -4 -2 -5 -7 -1 -6 -9 -10 14 15 -12 17 18 -15 20 22 -18 23 -21 -3 -11 26 -25 -23
right_child=4 2 3 5 8 6 -8 9 10 11 13 -13 -14 16 -16 -17 19 -19 -20 21 -22 24 -24 25 -26 -27 -28
leaf_value=-0.07604792170197 0.036368399641850506 0.10091284889187012 0.10488193974889343 -0.14716343071748414 -0.012904311301325248 0.092817036176556719 -0.10038812395914715 0.0041787026381022909 -0.13888656197563429 0.1010885140694599 -0.10726879530517655 0.11236856915718177 0.11317428792373213 -0.10301381670579597 0.10557025165197208 0.10507722877263848 -0.10178079243104894 0.10305083532778153 0.10216040290270885 -0.10161070266255944 0.10135965961875044 -0.10131973982898304 0.10119107532390588 0.10097031048375277 -0.10144223383372326 0.10086340506024981 -0.10138058264482463
leaf_weight=0.28880204632878159 0.78780527785420496 0.25820382218807914 0.62435973994433869 0.84247201308608088 0.61064251046627793 0.91375656984746489 1.6504546403884885 0.3171199839562181 0.37380589544773135 0.20577120222151302 0.41995561681687865 1.360677435994148 0.3700980320572852 0.52327665500342879 0.4699830263853072 0.2795605156570673 0.34303290583193291 0.25711998902261257 0.23318533133715391 0.30893769580870845 0.22731651552021503 0.28244826756417751 0.25668215099722147 0.21549571398645639 0.32066417206078768 0.17771847546100616 0.29410566575825214
leaf_count=6 8 29 36 7 16 39 32 9 2 20 9 32 4 22 12 8 21 14 13 20 19 22 23 23 23 21 22
internal_value=0 0.033484 0.00142619 -0.0345744 -0.0673831 -0.0601333 -0.0315395 0.0829255 -0.0908915 0.0971344 -0.107507 0.10725 0.105252 -0.1028 0.102767 0.102398 -0.101895 0.101551 0.101397 -0.101517 0.101084 -0.101442 0.101052 0.100979 -0.101383 0.100922 -0.101351
internal_weight=0 8.94878 5.42877 4.03104 4.26467 3.40668 2.56421 3.52 3.47687 3.2312 2.86623 2.91408 1.39773 2.49242 1.5534 1.02763 2.07247 1.08342 0.748071 1.54919 0.826302 1.20616 0.514886 0.598985 0.897218 0.393214 0.576554
internal_count=512 347 191 114 165 78 71 156 157 150 141 141 77 139 109 73 130 97 65 108 83 87 52 64 67 44 44
shrinkage=0.1


end of trees

feature_importances:
Column_21=105
Column_27=98
Column_1=68
Column_13=64
Column_7=54
Column_10=35
Column_24=35
Column_22=34
Column_20=33
Column_18=31
Column_23=30
Column_26=27
Column_28=25
Column_14=20
Column_25=20
Column_15=19
Column_0=18
Column_4=17
Column_6=17
Column_17=16
Column_9=14
Column_12=12
Column_2=11
Column_11=9
Column_5=8
Column_16=8
Column_29=8
Column_3=7
Column_8=6

parameters:
[boosting: gbdt]
[objective: binary]
[metric: binary_logloss]
[tree_learner: serial]
[device_type: cpu]
[data: ]
[valid: ]
[num_iterations: 50]
[learning_rate: 0.1]
[num_leaves: 31]
[num_threads: -1]
[force_col_wise: 0]
[force_row_wise: 0]
[histogram_pool_size: -1]
