tree
version=v2
num_class=1
num_tree_per_iteration=1
label_index=0
max_feature_idx=29
objective=binary sigmoid:1
feature_names=Column_0 Column_1 Column_2 Column_3 Column_4 Column_5 Column_6 Column_7 Column_8 Column_9 Column_10 Column_11 Column_12 Column_13 Column_14 Column_15 Column_16 Column_17 Column_18 Column_19 Column_20 Column_21 Column_22 Column_23 Column_24 Column_25 Column_26 Column_27 Column_28 Column_29
feature_infos=[6.9809999999999999:28.109999999999999] [9.7100000000000009:39.280000000000001] [43.789999999999999:188.5] [143.5:2501] [0.052630000000000003:0.16339999999999999] [0.019380000000000001:0.34539999999999998] [0:0.42680000000000001] [0:0.20119999999999999] [0.106:0.30399999999999999] [0.049959999999999997:0.097439999999999999] [0.1115:2.8730000000000002] [0.36020000000000002:4.8849999999999998] [0.75700000000000001:21.98] [7.2279999999999998:542.20000000000005] [0.0017129999999999999:0.031130000000000001] [0.0022520000000000001:0.13539999999999999] [0:0.39600000000000002] [0:0.052789999999999997] [0.0078820000000000001:0.078950000000000006] [0.00089479999999999996:0.029839999999999998] [7.9299999999999997:36.039999999999999] [12.02:49.539999999999999] [50.409999999999997:251.19999999999999] [185.19999999999999:4254] [0.071169999999999997:0.22259999999999999] [0.027289999999999998:1.0580000000000001] [0:1.252] [0:0.29099999999999998] [0.1565:0.66379999999999995] [0.055039999999999999:0.20749999999999999]
tree_sizes=836 1227 1533 1679 1761 1954 1784 1865 1942 1862

Tree=0
num_leaves=10
num_cat=0
split_feature=22 27 22 27 5 10 21 0 0
split_gain=357.332 49.8741 11.2155 1.98236 1.68096 0.733087 0.187169 5.68434e-14 2.84217e-14
threshold=114.45 0.14575000000000002 107.45000000000002 0.11085000000000002 0.089065000000000019 0.44780000000000003 32.125000000000007 19.335000000000004 12.895000000000001
decision_type=2 2 2 2 2 2 2 2 2
left_child=1 2 3 5 -2 6 8 -6 -1
right_child=4 -3 -4 -5 7 -7 -8 -9 -10
leaf_value=0.6865336845640464 0.32232577348199343 0.38659775779059097 0.53228092222341217 0.62305518154320927 0.25805378917339589 0.6436856950249813 0.66612988002163442 0.25805378917339583 0.6865336845640464
leaf_count=169 20 30 25 27 83 20 21 53 64
internal_value=0 1.14473 1.37977 1.49042 -2.61234 1.54315 1.57319 -2.69474 1.59006
internal_count=512 356 326 301 156 274 254 136 233
shrinkage=1


Tree=1
num_leaves=15
num_cat=0
split_feature=22 27 21 13 20 27 21 27 5 10 4 0 0 2
split_gain=281.763 42.8321 20.5591 8.34613 1.32661 1.32626 0.19187 0.00309865 0.00274479 0.000318894 1.0975e-06 2.84217e-14 2.84217e-14 1.42109e-14
threshold=114.45 0.1358 25.810000000000006 35.75500000000001 15.910000000000002 0.14495000000000002 32.770000000000003 0.11020000000000001 0.10985000000000002 0.40315000000000006 0.10885000000000002 13.005000000000001 20.585000000000004 127.80000000000003
decision_type=2 2 2 2 2 2 2 2 2 2 2 2 2 2
left_child=1 3 -3 4 6 -2 7 9 -7 10 11 -1 13 -10
right_child=5 2 -4 -5 -6 8 -8 -9 12 -11 -12 -13 -14 -15
leaf_value=0.10022118071409086 -0.11602555617081547 0.051122216774079444 -0.1352698029923885 0.0053358337529787513 0.06370392833421315 -0.15466795869604355 0.086089336058565474 0.10209595615606817 -0.15296055428462096 0.10081362687477416 0.10025598339998822 0.10022118071409086 -0.15296055428462102 -0.15296055428462102
leaf_count=148 20 20 25 21 22 20 20 20 68 20 20 40 22 26
internal_value=0 1.06887 -0.796818 1.35476 1.44878 -2.22703 1.49026 1.50638 -2.29817 1.50415 1.50337 1.50332 -2.29441 -2.29441
internal_count=512 356 45 311 290 156 268 248 136 228 208 188 116 94
shrinkage=0.0666667


Tree=2
num_leaves=19
num_cat=0
split_feature=22 7 27 21 28 21 22 7 10 27 3 1 5 10 4 0 0 0
split_gain=232.283 23.8324 18.8419 2.76326 0.720012 0.40814 0.0884949 0.0111067 0.00727951 0.000910101 0.000285766 0.000154965 5.23772e-06 5.09483e-08 7.99702e-10 7.10543e-15 7.10543e-15 3.55271e-15
threshold=105.95000000000002 0.04944500000000001 0.1358 23.855000000000004 0.21045000000000003 30.200000000000003 119.60000000000001 0.070395000000000013 0.4209500000000001 0.10695 583.4000000000002 19.825000000000003 0.13035000000000002 0.36335000000000006 0.10565000000000001 12.215000000000002 19.635000000000002 13.130000000000001
decision_type=2 2 2 2 2 2 2 2 2 2 2 2 2 2 2 2 2 2
left_child=2 -2 4 -3 -1 8 -5 -8 9 10 13 -9 -13 14 15 -6 -14 -17
right_child=1 3 -4 6 5 -7 7 11 -10 -11 -12 12 16 -15 -16 17 -18 -19
leaf_value=0.097995494080765411 0.001442542238748156 -0.1352630258944536 -0.048522879705583818 -0.21832470012060565 0.14330659241100693 0.11917775079254274 -0.20806679499329112 -0.20349594284874334 0.14781885785156129 0.14492898610944882 0.14417159741015415 -0.20278416827986545 -0.20290261296452927 0.14329471142915143 0.14330511548383557 0.14330659241100696 -0.20290261296452919 0.14330659241100693
leaf_count=20 31 27 25 20 76 36 21 20 20 20 20 20 32 20 20 36 27 21
internal_value=0 -1.6546 1.21115 -1.94732 1.37616 1.40578 -2.05928 -2.03884 1.43919 1.43541 1.43395 -2.02999 -2.02873 1.43305 1.43306 1.43307 -2.02903 1.43307
internal_count=512 198 314 167 289 269 140 120 233 213 193 99 79 173 153 133 59 57
shrinkage=0.1


Tree=3
num_leaves=21
num_cat=0
split_feature=22 27 21 1 13 21 15 13 20 21 28 27 24 10 27 1 0 4 10 4
split_gain=193.951 33.1946 12.599 4.05261 4.04031 0.373971 0.356385 0.487079 0.0188158 0.0121777 0.000529323 0.000505911 0.000361119 5.3163e-05 1.70352e-05 2.08846e-07 7.25763e-08 6.40931e-10 5.74119e-12 2.13163e-14
threshold=113.15000000000002 0.1358 26.375000000000004 17.255000000000006 35.080000000000005 30.200000000000003 0.016475000000000004 43.45000000000001 15.570000000000002 25.305000000000003 0.21780000000000002 0.10695 0.12925000000000003 0.39240000000000003 0.18305000000000002 22.185000000000002 13.550000000000002 0.10695 0.31975000000000003 0.10075000000000002
decision_type=2 2 2 2 2 2 2 2 2 2 2 2 2 2 2 2 2 2 2 2
left_child=1 4 -3 -2 5 8 -5 -8 10 -9 -1 13 -11 16 -14 -16 17 18 19 -12
right_child=3 2 -4 6 -6 -7 7 9 -10 12 11 -13 14 -15 15 -17 -18 -19 -20 -21
leaf_value=0.13885651773300481 -0.087017254134914762 0.046810746305334758 -0.1757036465055494 -0.20757066112353237 0.035590508430654255 0.11479811490125691 -0.15099117228465725 -0.18956626663086401 0.14478222812141892 -0.18490091359476896 0.13752464639978362 0.13874588798089449 -0.18376888349001533 0.13790954065396641 -0.18397816888360813 -0.18400621987666993 0.13751005255775167 0.13752330020989842 0.13752477929411519 0.13752465498733299
leaf_count=21 20 21 21 22 20 38 20 21 20 20 85 20 20 20 20 23 20 20 20 20
internal_value=0 1.00295 -0.669079 -1.72344 1.28046 1.35168 -1.83908 -1.79744 1.3839 -1.85251 1.37792 1.37681 -1.84158 1.37565 -1.83922 -1.83993 1.37523 1.37524 1.37525 1.37525
internal_count=512 346 42 166 304 284 146 124 246 104 226 205 83 185 63 43 165 145 125 105
shrinkage=0.1


Tree=4
num_leaves=22
num_cat=0
split_feature=7 23 20 21 13 21 22 27 5 13 3 21 28 6 12 12 27 13 4 0 0
split_gain=164.885 20.2931 13.0199 6.31233 2.44415 0.425447 0.408904 0.0943358 0.00510749 0.00169378 0.00096399 0.00080849 0.00023471 7.26841e-05 1.5137e-05 1.46985e-05 1.00892e-07 2.15893e-09 1.22643e-10 2.49756e-12 3.55271e-15
threshold=0.050880000000000009 711.30000000000007 16.485000000000003 22.340000000000003 32.695000000000007 30.200000000000003 114.45 0.10955000000000002 0.10495000000000002 44.180000000000007 585.45000000000016 25.765000000000004 0.22300000000000003 0.15240000000000001 4.6610000000000005 2.5575000000000006 0.086355000000000015 21.290000000000003 0.10305000000000002 12.685 11.415000000000001
decision_type=2 2 2 2 2 2 2 2 2 2 2 2 2 2 2 2 2 2 2 2 2
left_child=2 -2 4 -3 5 7 -5 10 -8 -10 12 -11 -1 -13 -15 16 17 18 19 20 -14
right_child=1 3 -4 6 -6 -7 8 -9 9 11 -12 13 15 14 -16 -17 -18 -19 -20 -21 -22
leaf_value=0.13354114716181367 0.0565111995371744 -0.05721553562051155 -0.03417456233590524 -0.20185141794240391 0.052615995560653765 0.10794464370399209 -0.17396305190674902 0.14878382432563142 -0.17214784760673363 -0.17123706314799872 0.13448902372525365 -0.16950028880258239 0.13270321681431416 -0.1700622166421677 -0.16983242861758743 0.13291060721088971 0.13268854235232547 0.13270059282026983 0.13270259464400314 0.1327033131266096 0.13270321697794818
leaf_count=21 22 22 24 20 21 36 20 20 20 20 20 25 33 20 29 20 36 23 20 20 20
internal_value=0 -1.3885 1.09835 -1.60756 1.24679 1.30822 -1.75054 1.34477 -1.70981 -1.70455 1.32974 -1.70093 1.32814 -1.69782 -1.69926 1.32724 1.32699 1.32703 1.32703 1.32703 1.32703
internal_count=512 198 314 176 290 269 154 233 134 114 213 94 193 74 49 172 152 116 93 73 53
shrinkage=0.1


Tree=5
num_leaves=24
num_cat=0
split_feature=22 26 7 27 13 28 22 21 1 13 26 27 20 21 25 10 19 29 0 28 8 9 27
split_gain=139.864 22.0474 12.3391 4.48004 0.861071 0.817376 0.178015 0.170749 0.0468511 0.0176756 0.00292878 0.000865663 0.000307666 0.000122808 5.74216e-05 1.88187e-05 1.22873e-06 1.22831e-06 8.17913e-07 5.43728e-08 2.09447e-10 2.39702e-11 8.0167e-12
threshold=102.40000000000002 0.21935000000000002 0.04827 0.12860000000000002 29.295000000000005 0.21320000000000003 121.75000000000001 31.935000000000006 18.120000000000005 30.385000000000002 0.32075000000000004 0.10550000000000001 20.975000000000005 28.200000000000003 0.33380000000000004 0.36630000000000001 0.0016800000000000003 0.092655000000000015 13.185 0.24325000000000002 0.19235000000000005 0.065245000000000011 0.071980000000000016
decision_type=2 2 2 2 2 2 2 2 2 2 2 2 2 2 2 2 2 2 2 2 2 2 2
left_child=3 -2 -3 5 -4 -1 -6 9 -8 11 -10 13 -12 15 -14 16 -7 -16 19 -18 21 22 -21
right_child=1 2 4 -5 6 7 8 -9 10 -11 12 -13 14 -15 17 -17 18 -19 -20 20 -22 -23 -24
leaf_value=0.052912662118245801 0.055137068137402469 0.0013434514732070138 -0.080413974107067493 0.014612287976340782 -0.12133482542847435 0.085794706553769029 -0.11350451964280313 0.072059066039020611 -0.10784267075856971 0.090684356545402189 -0.10647776403203975 0.086892199055233113 -0.10567305827248372 0.086195126473303754 -0.10592569953742276 0.085922995353494347 0.085749947164471874 -0.10596989662738523 0.085722227135065027 0.085759359340655233 0.085758822577654673 0.085759212938819732 0.085759499526262328
leaf_count=21 23 24 22 21 20 20 20 22 20 20 20 21 21 20 25 20 20 23 20 22 27 20 20
internal_value=0 -1.17637 -1.3933 1.14677 -1.58401 1.23793 -1.64052 1.27608 -1.61225 1.29577 -1.59514 1.28898 -1.59003 1.28733 -1.58795 1.28666 1.28637 -1.5892 1.28628 1.28636 1.28639 1.28639 1.28639
internal_count=512 218 195 294 171 273 149 252 129 230 109 210 89 189 69 169 149 48 129 109 89 62 42
shrinkage=0.0666667


Tree=6
num_leaves=22
num_cat=0
split_feature=22 27 21 13 27 21 21 3 13 28 7 26 13 13 6 4 10 19 13 9 7
split_gain=120.806 22.7376 9.22539 3.60292 3.19199 0.407378 0.030152 0.0295489 0.00723859 0.00109769 0.000907392 0.000411742 8.52047e-05 6.56598e-05 1.2005e-05 1.12995e-06 8.33807e-07 4.85394e-07 7.83881e-08 1.76101e-08 5.44684e-09
threshold=113.15000000000002 0.1358 26.375000000000004 35.080000000000005 0.14105000000000004 30.200000000000003 24.150000000000002 610.30000000000007 41.375000000000007 0.21780000000000002 0.037805000000000012 0.34520000000000006 26.575000000000003 62.215000000000011 0.060705000000000009 0.10500000000000001 0.8137000000000002 0.0017190000000000003 20.695000000000004 0.064360000000000014 0.015120000000000003
decision_type=2 2 2 2 2 2 2 2 2 2 2 2 2 2 2 2 2 2 2 2 2
left_child=1 3 -3 5 -2 7 -6 9 -8 -1 12 -10 14 -13 15 17 -15 -11 19 20 -19
right_child=4 2 -4 -5 6 -7 8 -9 11 10 -12 13 -14 16 -16 -17 -18 18 -20 -21 -22
leaf_value=0.12732928398564694 -0.072740504245703497 0.047744703761411267 -0.1448209034028132 0.025415068958934972 -0.15981515722958733 0.099781999387724779 -0.15464457781299856 0.13497765301076356 -0.15118358476374766 0.12513277765473449 0.12699818843149002 -0.14985331482491393 0.12574309658536409 -0.15023979274509169 0.12538184437192421 0.12523121997739012 -0.15029304559116663 0.12517737163945725 0.12516303826316441 0.12517208449210956 0.12518248145639185
leaf_count=20 25 21 21 20 20 38 21 20 21 21 20 26 20 28 20 20 25 20 28 20 37
internal_value=0 0.87901 -0.50373 1.14808 -1.3975 1.22686 -1.5239 1.26469 -1.51109 1.25608 1.25434 -1.50352 1.2526 -1.5013 1.25201 1.25176 -1.50265 1.25167 1.25174 1.25178 1.25181
internal_count=512 346 42 304 166 284 141 246 121 226 206 100 186 79 166 146 53 126 105 77 57
shrinkage=0.1


Tree=7
num_leaves=23
num_cat=0
split_feature=22 27 21 7 10 29 21 1 26 23 10 13 21 28 21 7 22 7 20 7 17 11
split_gain=148.426 26.0636 15.3392 8.19364 1.28187 0.936309 0.16955 0.0542638 0.0259122 0.0212925 0.000808203 0.000470399 0.000293231 0.000212245 4.20084e-05 1.54576e-05 5.84638e-06 4.17728e-06 3.39481e-07 7.53326e-09 3.77087e-09 2.62013e-10
threshold=114.45 0.11085000000000002 25.810000000000006 0.04827 0.47595000000000004 0.070435000000000011 32.125000000000007 18.010000000000002 0.34385000000000004 745.40000000000009 0.38455000000000006 45.655000000000008 28.375000000000004 0.22300000000000003 27.990000000000006 0.096325000000000008 71.095000000000013 0.031210000000000005 14.430000000000001 0.025555000000000005 0.0084890000000000018 0.9022
decision_type=2 2 2 2 2 2 2 2 2 2 2 2 2 2 2 2 2 2 2 2 2 2
left_child=1 4 -3 -4 6 -2 9 -7 -9 10 12 -10 13 -1 -13 -16 -15 18 19 20 21 -18
right_child=5 2 3 -5 -6 7 -8 8 11 -11 -12 14 -14 16 15 -17 17 -19 -20 -21 -22 -23
leaf_value=0.043377809060584242 -0.0406159401627047 0.032370125508792889 0.0036939403906061296 -0.056764137304786952 0.023296837792256591 -0.058916650974857286 0.036264749430743898 -0.057319321722425355 -0.054908503575630048 0.04585277713487218 0.043700252115516508 -0.054460095521458446 0.043466101620619646 0.043160272764767298 -0.054527544216707059 -0.054604168327674486 0.043123022349998701 0.043080599941693859 0.043110650431623591 0.043120742342869785 0.043121521598953952 0.04312266062426455
leaf_count=23 22 31 20 25 20 20 21 20 21 20 21 21 21 20 20 32 21 20 20 21 20 32
internal_value=0 0.876662 -0.188345 -0.959748 1.23862 -1.60589 1.28569 -1.6705 -1.65305 1.30416 1.29714 -1.63872 1.29563 1.29462 -1.63625 -1.63724 1.29361 1.29343 1.2936 1.29366 1.29367 1.29368
internal_count=512 356 76 45 280 156 260 134 114 239 219 94 198 177 73 52 154 134 114 94 73 53
shrinkage=0.0333333


Tree=8
num_leaves=24
num_cat=0
split_feature=22 21 27 6 4 13 3 21 5 24 27 13 1 28 0 1 28 6 17 16 8 5 9
split_gain=111.927 18.9849 8.62364 3.81245 1.50999 1.29296 0.575969 0.206869 0.156873 0.0912584 0.0762894 0.00487482 0.00110092 0.000285807 0.000149883 1.49143e-05 1.15264e-05 4.99139e-06 1.42124e-06 4.9109e-07 1.06873e-07 5.33144e-08 8.22901e-09
threshold=102.40000000000002 20.845000000000002 0.11085000000000002 0.10295000000000001 0.089955000000000021 32.695000000000007 610.30000000000007 31.935000000000006 0.10890000000000001 0.13415000000000002 0.11020000000000001 43.45000000000001 19.825000000000003 0.22300000000000003 9.5865000000000027 20.185000000000006 0.30675000000000002 0.057115000000000006 0.010395000000000001 0.0078760000000000028 0.15995000000000001 0.063185000000000005 0.062390000000000008
decision_type=2 2 2 2 2 2 2 2 2 2 2 2 2 2 2 2 2 2 2 2 2 2 2
left_child=3 -2 -3 5 -4 7 -6 10 -8 -10 13 -11 -13 -1 -15 17 -14 18 19 -16 -21 -22 -23
right_child=1 2 4 -5 6 -7 8 -9 9 11 -12 12 16 14 15 -17 -18 -19 -20 20 21 22 -24
leaf_value=0.12443951982468966 0.057783698837453962 0.0077111330242422465 -0.092958832151021409 0.01582343976653218 -0.18608513579596664 0.063607844155637014 -0.16495536383965864 0.10028222653593025 -0.13191411771586498 -0.1508354189634076 0.13881597063131682 -0.14839499937531053 -0.14639591669738566 0.124095492768992 0.1233107991149735 0.12358430110381607 -0.14660541695238982 0.12346511139273722 0.12327018079867927 0.12336803350889081 0.12333611553451213 0.12335572211468655 0.12334848733503773
leaf_count=21 27 20 21 20 20 22 21 22 20 20 20 20 22 21 24 20 27 21 21 21 20 21 20
internal_value=0 -1.07405 -1.3135 1.08717 -1.46144 1.17293 -1.53637 1.2279 -1.48292 -1.4499 1.25103 -1.47923 -1.47062 1.23559 1.23459 1.23378 -1.46511 1.2335 1.23331 1.23343 1.23352 1.23347 1.23352
internal_count=512 218 191 294 171 274 150 252 130 109 230 89 69 210 189 168 49 148 127 106 82 61 41
shrinkage=0.1


Tree=9
num_leaves=23
num_cat=0
split_feature=22 27 21 4 10 29 21 6 23 1 12 28 21 13 24 13 10 21 27 20 9 29
split_gain=98.0328 19.225 12.0969 3.96822 1.32622 0.785433 0.19971 0.0525103 0.0338205 0.0199696 0.000910672 0.000287614 0.00029683 0.000192077 0.000133908 2.06752e-05 1.46865e-05 2.29384e-05 1.06609e-06 1.46517e-07 6.55934e-09 4.12953e-10
threshold=114.45 0.11085000000000002 27.610000000000003 0.10055000000000001 0.47595000000000004 0.070435000000000011 32.125000000000007 0.11185000000000002 745.40000000000009 18.785000000000004 2.6385000000000001 0.22645000000000004 28.665000000000003 48.300000000000004 0.14390000000000003 74.970000000000013 0.27235000000000004 22.700000000000003 0.094525000000000012 14.215000000000002 0.064025000000000012 0.07202500000000002
decision_type=2 2 2 2 2 2 2 2 2 2 2 2 2 2 2 2 2 2 2 2 2 2
left_child=1 4 3 -3 6 -2 8 -7 10 -9 11 -1 16 -11 -15 -16 18 -18 19 20 21 -13
right_child=5 2 -4 -5 -6 7 -8 9 -10 13 -12 12 -14 14 15 -17 17 -19 -20 -21 -22 -23
leaf_value=0.12175431666784897 -0.10058060512555289 0.13248676882196478 -0.10961934112944179 -0.0010066570608953623 0.056903338198051379 -0.15356700681750335 0.096803413298975849 -0.14783247778520858 0.13159212927100467 -0.14104348736318592 0.12272140316717442 0.12064539781826933 0.12174944112968392 -0.14061704173991593 -0.13984712283222561 -0.14016161259480017 0.12101447565889129 0.12063045152029275 0.12056903942122216 0.12061693094709836 0.12063896655189016 0.12064381472236692
leaf_count=25 22 21 34 21 20 21 21 21 20 20 21 21 20 31 20 21 20 24 20 20 22 26
internal_value=0 0.786412 -0.139327 0.641713 1.14368 -1.37297 1.1987 -1.43792 1.22132 -1.41873 1.21106 1.20927 1.20804 -1.4044 -1.40271 -1.40008 1.20677 1.20806 1.20625 1.20637 1.20643 1.20645
internal_count=512 356 76 42 280 156 260 134 239 113 219 198 173 92 72 41 153 44 109 89 69 47
shrinkage=0.1


end of trees

feature importances:
Column_21=26
Column_27=22
Column_13=18
Column_22=14
Column_0=12
Column_10=12
Column_7=10
Column_28=10
Column_1=8
Column_4=8
Column_5=6
Column_20=6
Column_6=5
Column_3=4
Column_9=4
Column_26=4
Column_29=4
Column_12=3
Column_23=3
Column_24=3
Column_8=2
Column_17=2
Column_19=2
Column_2=1
Column_11=1
Column_15=1
Column_16=1
Column_25=1

parameters:
[boosting: dart]
[objective: binary]
[metric: binary]
[tree_learner: serial]
[device_type: cpu]
[data: ]
[valid: ]
[num_iterations: 100]
[learning_rate: 0.1]
[num_leaves: 31]
[num_threads: 0]
[max_depth: -1]
[min_data_in_leaf: 20]
[min_sum_hessian_in_leaf: 0.001]
[bagging_fraction: 1]
[bagging_freq: 0]
[bagging_seed: 3]
[feature_fraction: 1]
[feature_fraction_seed: 2]
[early_stopping_round: 0]
[max_delta_step: 0]
[lambda_l1: 0]
[lambda_l2: 0]
[min_gain_to_split: 0]
[drop_rate: 0.1]
[max_drop: 50]
[skip_drop: 0.5]
[xgboost_dart_mode: 0]
[uniform_drop: 0]
[drop_seed: 4]
[top_rate: 0.2]
[other_rate: 0.1]
[min_data_per_group: 100]
[max_cat_threshold: 32]
[cat_l2: 10]
[cat_smooth: 10]
[max_cat_to_onehot: 4]
[top_k: 20]
[monotone_constraints: ]
[feature_contri: ]
[forcedsplits_filename: ]
[refit_decay_rate: 0.9]
[verbosity: 1]
[max_bin: 255]
[min_data_in_bin: 3]
[bin_construct_sample_cnt: 200000]
[histogram_pool_size: -1]
[data_random_seed: 1]
[output_model: LightGBM_model.txt]
[snapshot_freq: -1]
[input_model: ]
[output_result: LightGBM_predict_result.txt]
[initscore_filename: ]
[valid_data_initscores: ]
[pre_partition: 0]
[enable_bundle: 1]
[max_conflict_rate: 0]
[is_enable_sparse: 1]
[sparse_threshold: 0.8]
[use_missing: 1]
[zero_as_missing: 0]
[two_round: 0]
[save_binary: 0]
[enable_load_from_binary_file: 1]
[header: 0]
[label_column: ]
[weight_column: ]
[group_column: ]
[ignore_column: ]
[categorical_feature: ]
[predict_raw_score: 0]
[predict_leaf_index: 0]
[predict_contrib: 0]
[num_iteration_predict: -1]
[pred_early_stop: 0]
[pred_early_stop_freq: 10]
[pred_early_stop_margin: 10]
[convert_model_language: ]
[convert_model: gbdt_prediction.cpp]
[num_class: 1]
[is_unbalance: 0]
[scale_pos_weight: 1]
[sigmoid: 1]
[boost_from_average: 1]
[reg_sqrt: 0]
[alpha: 0.9]
[fair_c: 1]
[poisson_max_delta_step: 0.7]
[tweedie_variance_power: 1.5]
[max_position: 20]
[label_gain: ]
[metric_freq: 1]
[is_provide_training_metric: 0]
[eval_at: ]
[num_machines: 1]
[local_listen_port: 12400]
[time_out: 120]
[machine_list_filename: ]
[machines: ]
[gpu_platform_id: -1]
[gpu_device_id: -1]
[gpu_use_dp: 0]

end of parameters

pandas_categorical:null
