{"learner":{"attributes":{},"feature_names":[],"feature_types":[],"gradient_booster":{"model":{"weights":[0E0,-3.3614023E0,4.1982303E0,-1.6642607E0,-1.2977017E0,-2.9495186E-1,-6.1344137E0,-1.6853834E0,4.5176134E0,-8.055269E-1,1.7197797E0,-2.4293214E-1,-1.2140335E0,-6.4709496E0,-1.4642721E0,-3.7574105E0,1.2938689E-1,-4.3361783E0,6.183258E-1,-1.4268272E0,-1.3104084E0,1.7410156E0,1.17671266E-1,-2.0570586E0,-2.0499654E0,8.077395E0,1.4196275E0,4.4888568E-1,4.097487E0,-1.1838284E0,1.2735202E0,1.0246072E0,-3.391799E0,0E0,-1.7932326E0,0E0,-3.3254558E-1,1.09187245E-1,0E0,-1.1411328E0,-5.2498317E-1,2.7882916E-1,3.483078E-2,9.740474E-1,4.768914E-1,-3.1060702E-1,-1.3755631E0,2.4963624E0,-2.9732314E-1,-2.4207394E0,-3.5864277E0,-1.3845217E0,-1.9461952E0,1.1676147E0,-7.587152E-1,3.6639452E-2,7.4975085E-1,0E0,2.1593957E0,0E0,4.150118E0,-3.7633452E-1,-7.5017554E-1,4.179628E0,4.3672876E0,-4.5146954E-1,2.122739E0,-1.4882739E0,5.0152546E-1,8.4647465E-1,-1.2929397E0,-1.120182E0,-1.5673592E0,2.4146706E-2,-2.536148E0,4.4043186E-1,2.5266068E0,-6.0404134E-1,2.5295382E-8,-1.01869956E-1,4.538866E0,7.651545E0,-4.310523E0,-1.0584886E0,-1.2134789E-1,1.1975892E0,-3.8880825E-2,9.091684E0,-5.6001216E-1,0E0,6.7243505E-1,1.3224936E0,-1.1018723E-1,-1.7897928E0,3.2075899E0,5.272764E-1,-4.8115144E0,0E0,7.291982E-1,-1.7486663E0,1.5015489E0,-3.4289308E0,2.1702385E0,0E0,0E0,-1.5236974E0,-2.2442245E0,-2.7002132E0,2.6916146E0,8.462519E0,-8.6479515E-1,-2.6845582E0,3.210464E0,-3.9838108E-1,-5.1278195E0,-2.0957973E0,-3.574751E0,-8.0347896E-1,1.9967377E0,-4.888832E-1,1.271344E0,-7.196399E-1,4.1343956E0,5.20421E-1,2.4047248E0,4.8569518E-1,1.2861887E0,-1.585567E-2]},"name":"gblinear"},"learner_model_param":{"base_score":"5E-1","num_class":"0","num_feature":"127"},"objective":{"name":"binary:logistic","reg_loss_param":{"scale_pos_weight":"1"}}},"version":[1,4,1]}